%YAML:1.0
---
opencv_ml_svm:
   format: 3
   svmType: C_SVC
   kernel:
      type: RBF
      gamma: 0.50624999999999998
   C: 12.5
   term_criteria: { epsilon:1.1920928955078125e-07, iterations:1000 }
   var_count: 81
   class_count: 8
   class_labels: !!opencv-matrix
      rows: 8
      cols: 1
      dt: i
      data: [ 0, 1, 2, 3, 4, 5, 6, 7 ]
   sv_total: 291
   support_vectors:
      - [ 0.364255965, 0.364255965, 0.364255965, 0.208164841,
          0.364255965, 0.263265669, 0.364255965, 0.364255965,
          0.296015263, 0.0680147782, 0.0915554315, 0.0882566199,
          0.103059098, 0.478758067, 0.216707572, 0.478758067,
          0.478758067, 0.478758067, 0.123844154, 0.215743303,
          0.409551919, 0.409551919, 0.409551919, 0.172585666,
          0.409551919, 0.409551919, 0.256079048, 0.0512888357,
          0.450888783, 0.450888783, 0.295878917, 0.430538118,
          0.0753534064, 0.450888783, 0.310111701, 0.0906025246,
          0.421200007, 0.0746649876, 0.248400778, 0.109810218,
          0.421200007, 0.171491176, 0.421200007, 0.421200007,
          0.421200007, 0.532840788, 0.0183813218, 0.0193555169,
          0.00836098753, 0.532840788, 0.195274323, 0.174432144,
          0.271256149, 0.532840788, 0.0882429332, 0.143877476,
          0.399548888, 0.399548888, 0.399548888, 0.282194465,
          0.321187973, 0.399548888, 0.382319301, 0.533905327,
          0.043110203, 0.0883832648, 0.16919817, 0.537840068,
          0.305177182, 0.0723213181, 0.074403815, 0.527356207,
          0.472836316, 0.331694424, 0.0548952557, 0.0905481353,
          0.472836316, 0.410254568, 0.157201156, 0.101488769,
          0.472836316 ]
      - [ 0.454814017, 0.454814017, 0.454814017, 0.105906636,
          0.293078303, 0.454814017, 0.248436987, 0.0567287318,
          0.0773550048, 0.366291881, 0.366291881, 0.3393839, 0.174422801,
          0.366291881, 0.249334723, 0.343102485, 0.366291881,
          0.366291881, 0.0454558842, 0.0313485824, 0.181960031,
          0.436585248, 0.436585248, 0.0802940354, 0.436585248,
          0.436585248, 0.436585248, 0.0838336572, 0.471540749,
          0.471540749, 0.207772583, 0.471540749, 0.471540749, 0.21234706,
          0.0958585292, 0.0375479832, 0.0178206023, 0.465565979,
          0.465565979, 0.143371895, 0.410557836, 0.249432564,
          0.465565979, 0.305650085, 0.00504218182, 0.114425734,
          0.11942564, 0.137835652, 0.363859832, 0.509890914, 0.229031906,
          0.509890914, 0.485802203, 0.08787705, 0.102962218, 0.431296676,
          0.431296676, 0.431296676, 0.237725332, 0.0205159374,
          0.0800323561, 0.431296676, 0.421525359, 0.0724787265,
          0.494623423, 0.494623423, 0.173975527, 0.157100618,
          0.277888298, 0.494623423, 0.350818694, 0.0246166494,
          0.496990532, 0.496990532, 0.0912466645, 0.0422174707,
          0.175638616, 0.345798731, 0.496990532, 0.270757556, 0.14210543 ]
      - [ 0.0905206278, 0.441903621, 0.494567633, 0.494567633,
          0.121497162, 0.137668073, 0.123588398, 0.438731045,
          0.246820673, 0.512446582, 0.396401018, 0.178832293,
          0.116472706, 0.335489601, 0.109978229, 0.19893764, 0.320583582,
          0.512446582, 0.477152646, 0.443185151, 0.388983786,
          0.270397604, 0.265909314, 0.0575589165, 0.191205725,
          0.0920227617, 0.477152646, 0.0724600554, 0.2360387,
          0.514759719, 0.514759719, 0.135002822, 0.0701721236,
          0.323938042, 0.514759719, 0.104288094, 0.362441391,
          0.384661704, 0.384661704, 0.377116561, 0.365984589,
          0.135283619, 0.363689631, 0.360367, 0.110754162, 0.462747574,
          0.27721563, 0.237059668, 0.462747574, 0.462747574,
          0.0714874119, 0.118047968, 0.194610715, 0.403741151,
          0.255856752, 0.127611399, 0.420481205, 0.420481205,
          0.142996803, 0.0978869274, 0.420481205, 0.420481205,
          0.420481205, 0.198662952, 0.110308111, 0.366092235,
          0.498327583, 0.498327583, 0.141429305, 0.0766107664,
          0.196219072, 0.498327583, 0.114952683, 0.0372139513,
          0.0606960356, 0.537593305, 0.537593305, 0.537593305,
          0.0944243073, 0.183527142, 0.258322388 ]
      - [ 0.172347263, 0.430482686, 0.430482686, 0.13535592, 0.430482686,
          0.430482686, 0.430482686, 0.113337219, 0.0908456519,
          0.340854257, 0.340854257, 0.340854257, 0.340854257,
          0.340854257, 0.340854257, 0.340854257, 0.25911665, 0.340854257,
          0.242581636, 0.164122313, 0.383779496, 0.383779496,
          0.383779496, 0.376896143, 0.383779496, 0.316207886,
          0.281423002, 0.296459347, 0.381681174, 0.381681174,
          0.372019887, 0.164248601, 0.203070611, 0.381681174,
          0.366134286, 0.361370534, 0.332778692, 0.332778692,
          0.332778692, 0.332778692, 0.332778692, 0.332778692,
          0.332778692, 0.332778692, 0.332778692, 0.363603443,
          0.348369896, 0.363603443, 0.249333188, 0.363603443,
          0.139978081, 0.363603443, 0.363603443, 0.363603443,
          0.374474972, 0.374474972, 0.374474972, 0.132254973, 0.30916971,
          0.204432055, 0.374474972, 0.374474972, 0.374474972,
          0.349635839, 0.349635839, 0.349635839, 0.165596172,
          0.349635839, 0.349635839, 0.349635839, 0.336701721,
          0.349635839, 0.426689476, 0.426689476, 0.348245859,
          0.0253730733, 0.254090428, 0.286066592, 0.364050984,
          0.220675647, 0.426689476 ]
      - [ 0.396246523, 0.315457463, 0.285676062, 0.130731598,
          0.396246523, 0.396246523, 0.396246523, 0.1130042, 0.396246523,
          0.389318168, 0.389318168, 0.142910525, 0.116404928,
          0.389318168, 0.389318168, 0.389318168, 0.277979136,
          0.356400818, 0.59634608, 0.59634608, 0.0211392269,
          0.00206796359, 0.00905712508, 0.0577611327, 0.231055602,
          0.227121755, 0.417070299, 0.453747481, 0.453747481, 0.38028571,
          0.0986303017, 0.244384184, 0.453747481, 0.334299326,
          0.073806785, 0.215719953, 0.624148428, 0.624148428, 0.3850725,
          0.0328520127, 0.142942607, 0.180225089, 0.106406786,
          0.0134938555, 0.0294551551, 0.530614197, 0.530614197,
          0.175851241, 0.00925141387, 0.0197840054, 0.0420843251,
          0.283863455, 0.530614197, 0.190515921, 0.29904151, 0.523137093,
          0.523137093, 0.0344903469, 0.247514814, 0.523137093,
          0.130062461, 0.05768691, 0.0404380336, 0.501255512,
          0.501255512, 0.501255512, 0.105437718, 0.203182876,
          0.0718932152, 0.307644755, 0.293979466, 0.0508355349,
          0.0971521735, 0.47540164, 0.419352621, 0.125103697, 0.56325078,
          0.0537481308, 0.455223829, 0.193436652, 0.051340878 ]
      - [ 0.477751106, 0.477751106, 0.167562127, 0.128664836,
          0.0558257326, 0.477751106, 0.255306929, 0.148767382,
          0.418841511, 0.446981162, 0.336499274, 0.0473162085, 0.,
          0.0975044891, 0.446981162, 0.446981162, 0.267186999,
          0.446981162, 0.425946862, 0.165656179, 0.261966348,
          0.283297092, 0.0598721839, 0.300186515, 0.425946862,
          0.425946862, 0.425946862, 0.365689009, 0.365689009,
          0.354110122, 0.365689009, 0.365689009, 0.145990267,
          0.365689009, 0.318841487, 0.281668723, 0.507027805,
          0.0258779656, 0.00971152075, 0.085008502, 0.507027805,
          0.214860305, 0.259620309, 0.319603831, 0.507027805,
          0.502098978, 0.0461101346, 0.150901347, 0.0135486163,
          0.502098978, 0.301254123, 0.251372069, 0.244238317,
          0.502098978, 0.103370339, 0.216278583, 0.48151207, 0.48151207,
          0.48151207, 0.249045029, 0.119126424, 0.333767623, 0.233563274,
          0.142236486, 0.0453781188, 0.193288848, 0.432163298,
          0.432163298, 0.0469738469, 0.432163298, 0.432163298,
          0.432163298, 0.186285987, 0.226757005, 0.136300758,
          0.304457873, 0.465901136, 0.465901136, 0.465901136,
          0.359454483, 0.132489964 ]
      - [ 0.352880239, 0.333502382, 0.352880239, 0.352880239,
          0.352880239, 0.11652983, 0.352880239, 0.352880239, 0.352880239,
          0.324212044, 0.170623705, 0.375217289, 0.375217289,
          0.375217289, 0.131519541, 0.375217289, 0.375217289,
          0.375217289, 0.110397659, 0.156149209, 0.385906518,
          0.385906518, 0.385906518, 0.385906518, 0.385906518,
          0.363915592, 0.287264228, 0.201375201, 0.24825117, 0.431694239,
          0.431694239, 0.356543005, 0.126937255, 0.06950932, 0.431694239,
          0.431694239, 0.381186485, 0.359316379, 0.370616078,
          0.383634776, 0.199102357, 0.228290498, 0.39046523, 0.39046523,
          0.201175123, 0.3498905, 0.3498905, 0.3498905, 0.264690191,
          0.3498905, 0.263590336, 0.3498905, 0.3498905, 0.3498905,
          0.247357771, 0.27505067, 0.366613239, 0.366613239, 0.366613239,
          0.230362222, 0.366613239, 0.366613239, 0.366613239,
          0.339760721, 0.339760721, 0.328792572, 0.339760721,
          0.339760721, 0.339760721, 0.339760721, 0.283618331,
          0.339760721, 0.33755368, 0.33755368, 0.33755368, 0.291697562,
          0.33755368, 0.33755368, 0.33755368, 0.33755368, 0.33755368 ]
      - [ 0.433607638, 0.433607638, 0.0574161299, 0.0264387764,
          0.156580478, 0.433607638, 0.433607638, 0.164553314,
          0.433607638, 0.475530446, 0.118422061, 0.177228361,
          0.0862910077, 0.235167131, 0.246176302, 0.475530446,
          0.384807259, 0.475530446, 0.461383432, 0.0385933258,
          0.282100886, 0.461383432, 0.168141708, 0.03987699, 0.181550965,
          0.461383432, 0.461383432, 0.372104406, 0.372104406,
          0.256973892, 0.372104406, 0.372104406, 0.17023398, 0.372104406,
          0.290061772, 0.353303045, 0.471490473, 0.00967488252,
          0.00801159721, 0.261254132, 0.471490473, 0.239711687,
          0.352626681, 0.279574871, 0.471490473, 0.516225696,
          0.0337374955, 0.0491381958, 0.192487121, 0.516225696,
          0.293790907, 0.147926912, 0.215819344, 0.516225696,
          0.157447547, 0.119805187, 0.431522936, 0.431522936,
          0.431522936, 0.121841326, 0.103154607, 0.431522936,
          0.431522936, 0.327297896, 0.0627485216, 0.0685927421,
          0.270048231, 0.409348577, 0.370072126, 0.409348577,
          0.409348577, 0.409348577, 0.461340278, 0.461340278,
          0.314279288, 0.225515723, 0.461340278, 0.321844697,
          0.230923921, 0.0937513039, 0.203860983 ]
      - [ 0.304768056, 0.395377666, 0.395377666, 0.144437358,
          0.395377666, 0.395377666, 0.395377666, 0.260805726,
          0.180740908, 0.35574016, 0.230207309, 0.35574016, 0.35574016,
          0.35574016, 0.239985541, 0.35574016, 0.35574016, 0.35574016,
          0.246149629, 0.202248186, 0.357557923, 0.357557923,
          0.357557923, 0.357557923, 0.357557923, 0.357557923,
          0.357557923, 0.315119416, 0.37921384, 0.37921384, 0.291363269,
          0.265760452, 0.173598871, 0.37921384, 0.37921384, 0.368837565,
          0.332778692, 0.332778692, 0.332778692, 0.332778692,
          0.332778692, 0.332778692, 0.332778692, 0.332778692,
          0.332778692, 0.308487594, 0.219917536, 0.108978175,
          0.197070807, 0.384105116, 0.404407561, 0.404407561,
          0.404407561, 0.404407561, 0.175247908, 0.324373454,
          0.455090821, 0.455090821, 0.172296837, 0.0348360799,
          0.0139273331, 0.455090821, 0.455090821, 0.334462315,
          0.334462315, 0.334462315, 0.318963706, 0.334462315,
          0.334462315, 0.334462315, 0.334462315, 0.334462315,
          0.417832375, 0.417832375, 0.0374375507, 0.0304960795,
          0.291839272, 0.417832375, 0.417832375, 0.298760414,
          0.347463518 ]
      - [ 0.402623564, 0.402623564, 0.402623564, 0.276033372,
          0.298928231, 0.402623564, 0.402623564, 0.107520521,
          0.0913026109, 0.363206714, 0.361562163, 0.17523925,
          0.363206714, 0.363206714, 0.208375797, 0.363206714,
          0.363206714, 0.363206714, 0.171306774, 0.373622388,
          0.373622388, 0.373622388, 0.27684021, 0.229605585, 0.373622388,
          0.373622388, 0.373622388, 0.282178849, 0.419458389,
          0.419458389, 0.34592858, 0.419458389, 0.419458389, 0.286910892,
          0.0946816429, 0.0381400883, 0.0661132336, 0.284514815,
          0.418727785, 0.316466063, 0.418727785, 0.272447169,
          0.418727785, 0.418727785, 0.186513707, 0.211592555,
          0.373048663, 0.373048663, 0.373048663, 0.373048663, 0.31424731,
          0.373048663, 0.373048663, 0.13326095, 0.174630761, 0.388034761,
          0.388034761, 0.294299811, 0.286756337, 0.209597811,
          0.388034761, 0.388034761, 0.388034761, 0.314750642,
          0.287446648, 0.385407448, 0.32724458, 0.385407448, 0.276045382,
          0.385407448, 0.385407448, 0.192380682, 0.413391441,
          0.413391441, 0.360374182, 0.183579862, 0.413391441,
          0.342162311, 0.280836403, 0.133522138, 0.325345248 ]
      - [ 0.116694875, 0.0631724969, 0.143632457, 0.027643919,
          0.541660428, 0.543410599, 0.543410599, 0.188935801,
          0.189439759, 0.379509985, 0.395267963, 0.395267963,
          0.0495143421, 0.384547025, 0.395267963, 0.338687778,
          0.261506438, 0.223360583, 0.25111413, 0.152438954, 0.424100459,
          0.151425049, 0.424100459, 0.29102686, 0.424100459, 0.424100459,
          0.287048161, 0.222270712, 0.182246923, 0.475031197,
          0.129609108, 0.210688815, 0.475031197, 0.475031197,
          0.280481279, 0.309540451, 0.187762246, 0.494223446,
          0.494223446, 0.0102491267, 0.0123953661, 0.0331731811,
          0.436657101, 0.308288008, 0.429214865, 0.439176083,
          0.388147861, 0.410905272, 0.0141107263, 0.00393634941,
          0.0867540315, 0.439176083, 0.439176083, 0.299571931,
          0.18628554, 0.331559241, 0.434467554, 0.434467554, 0.248260185,
          0.114862673, 0.145434901, 0.434467554, 0.434467554,
          0.319282115, 0.352998227, 0.417181969, 0.417181969,
          0.417181969, 0.181777239, 0.114467978, 0.164239302,
          0.417181969, 0.479954213, 0.211856142, 0.0972854272,
          0.200254709, 0.30018267, 0.479954213, 0.479954213, 0.242541105,
          0.246480688 ]
      - [ 0.447138369, 0.447138369, 0.198897257, 0.247135907,
          0.447138369, 0.447138369, 0.138459533, 0.151556537,
          0.230274022, 0.348159462, 0.329847306, 0.202810824,
          0.348159462, 0.348159462, 0.345398366, 0.348159462,
          0.348159462, 0.348159462, 0.200934455, 0.349820316,
          0.349820316, 0.349820316, 0.349820316, 0.315452695,
          0.349820316, 0.349820316, 0.349820316, 0.400624335,
          0.400624335, 0.400624335, 0.400624335, 0.400624335,
          0.400624335, 0.164749503, 0.0580531657, 0.0498607792,
          0.181118965, 0.201993406, 0.353460193, 0.366102129,
          0.366102129, 0.357279837, 0.366102129, 0.366102129,
          0.366102129, 0.150322661, 0.359278411, 0.356308848,
          0.359278411, 0.359278411, 0.291644186, 0.359278411,
          0.359278411, 0.341169089, 0.41596055, 0.41596055, 0.41596055,
          0.229116321, 0.233517945, 0.258528054, 0.327737808,
          0.149927288, 0.41596055, 0.230991513, 0.22725451, 0.454937994,
          0.166472897, 0.318524241, 0.36906454, 0.454937994, 0.454937994,
          0.0645661876, 0.374505043, 0.374505043, 0.280746669,
          0.371128082, 0.374505043, 0.37321341, 0.374505043, 0.275500536,
          0.0591515563 ]
      - [ 0.292181969, 0.439154774, 0.395166963, 0.245407611,
          0.205749422, 0.146101415, 0.439154774, 0.439154774,
          0.227182984, 0.366495818, 0.366495818, 0.366495818,
          0.200363487, 0.271883309, 0.276328415, 0.366495818,
          0.366495818, 0.366495818, 0.233128488, 0.146175787,
          0.474538773, 0.474538773, 0.0676659048, 0.0566749051,
          0.104904801, 0.474538773, 0.474538773, 0.338905871,
          0.144709393, 0.333561927, 0.354264766, 0.354264766,
          0.354264766, 0.354264766, 0.349115163, 0.354264766, 0.12770617,
          0.358777732, 0.451965779, 0.451965779, 0.123966023,
          0.199233636, 0.451965779, 0.307879835, 0.296284378,
          0.0849650279, 0.0151795037, 0.134247154, 0.469169378,
          0.237663195, 0.187363148, 0.469169378, 0.469169378,
          0.466790736, 0.372035533, 0.114622593, 0.242073834,
          0.306728691, 0.372035533, 0.372035533, 0.372035533,
          0.372035533, 0.372035533, 0.132603213, 0.102286518, 0.48294121,
          0.48294121, 0.120732278, 0.0602256618, 0.126483887, 0.48294121,
          0.48294121, 0.05214094, 0.0286009964, 0.230313435, 0.419680119,
          0.419680119, 0.395450383, 0.419680119, 0.419680119, 0.27985698 ]
      - [ 0.161112726, 0.46655497, 0.46655497, 0.00895868894,
          0.280191332, 0.46655497, 0.46655497, 0.114764504, 0.0832470581,
          0.19492434, 0.487882614, 0.487882614, 0.0177759416,
          0.0211004652, 0.0437995419, 0.487882614, 0.487882614,
          0.048312787, 0.0457850844, 0.0657845587, 0.20328781,
          0.512051225, 0.396889418, 0.0484633744, 0.512051225,
          0.512051225, 0.0260189604, 0.0306816678, 0.518683016,
          0.518683016, 0.102396913, 0.112640895, 0.104733549,
          0.409373105, 0.427531868, 0.267025381, 0.0102225244,
          0.473317266, 0.505090177, 0.0545148961, 0.0335694775,
          0.036778871, 0.505090177, 0.505090177, 0.00468969531,
          0.490930885, 0.490930885, 0.108470313, 0.0488663428,
          0.0519458577, 0.022376379, 0.490930885, 0.490930885,
          0.117009901, 0.271430284, 0.244016662, 0.442855328,
          0.442855328, 0.218453303, 0.115807056, 0.129388198,
          0.442855328, 0.442855328, 0.202932, 0.356401056, 0.356401056,
          0.356401056, 0.356401056, 0.324855983, 0.356401056,
          0.297592759, 0.355044305, 0.39801529, 0.39801529, 0.258072942,
          0.134835064, 0.39801529, 0.196986571, 0.39801529, 0.39801529,
          0.283473074 ]
      - [ 0.462759167, 0.474171162, 0.238747537, 0.0207074191,
          0.163600475, 0.474171162, 0.474171162, 0.0986146331,
          0.112621784, 0.303802997, 0.389601082, 0.0645976439,
          0.386253506, 0.389601082, 0.389601082, 0.389601082,
          0.316288561, 0.207972169, 0.334713042, 0.410819978,
          0.284218282, 0.458363771, 0.458363771, 0.220154405, 0.16068548,
          0.353270233, 0.120637178, 0.346117884, 0.475972086,
          0.388352454, 0.067167066, 0.0817434788, 0.475972086,
          0.475972086, 0.0492251627, 0.177104682, 0.367449522,
          0.367449522, 0.367449522, 0.254555851, 0.237393543,
          0.317450315, 0.315125525, 0.367449522, 0.367449522,
          0.383852303, 0.383852303, 0.383852303, 0.348555714,
          0.162560314, 0.237426981, 0.383852303, 0.383852303,
          0.234869927, 0.340201885, 0.476842403, 0.476842403,
          0.128138497, 0.168166995, 0.476842403, 0.354029864,
          0.0658278167, 0.151637495, 0.446693808, 0.446693808,
          0.446693808, 0.202090114, 0.0644094348, 0.171226144,
          0.203600466, 0.285720348, 0.446693808, 0.366337597,
          0.366337597, 0.35352838, 0.172861174, 0.355746627, 0.248131216,
          0.341378182, 0.366337597, 0.366337597 ]
      - [ 0.432344198, 0.432344198, 0.190109804, 0.102099165,
          0.432344198, 0.432344198, 0.432344198, 0.0530787818,
          0.108121656, 0.198979035, 0.59396857, 0.59396857, 0.123085588,
          0.248966306, 0.28672722, 0.280571103, 0.0709486306,
          0.0760163069, 0.17238988, 0.224795476, 0.543614686,
          0.0198352467, 0.0654839203, 0.0156745296, 0.543614686,
          0.543614686, 0.151135176, 0.381391346, 0.22501874, 0.381391346,
          0.127422988, 0.291118652, 0.381391346, 0.381391346,
          0.342451185, 0.381391346, 0.425877392, 0.484434128,
          0.484434128, 0.0392288715, 0.0203186683, 0.0526233092,
          0.108943418, 0.305239409, 0.484434128, 0.386376143, 0.41307956,
          0.41307956, 0.0103933811, 0.0209669862, 0.0631245971,
          0.41307956, 0.41307956, 0.399394155, 0.240072981, 0.196711764,
          0.38936311, 0.38936311, 0.351440281, 0.13509737, 0.38936311,
          0.38936311, 0.38936311, 0.407481223, 0.194549322, 0.4349733,
          0.4349733, 0.4349733, 0.084100537, 0.0752631351, 0.149064302,
          0.4349733, 0.284492612, 0.131100923, 0.19171229, 0.427619934,
          0.400080025, 0.468635887, 0.455899268, 0.146928906, 0.26166293 ]
      - [ 0.170905739, 0.479654133, 0.479654133, 0.13680461, 0.453814059,
          0.479654133, 0.215538189, 0.0533420183, 0.042794425,
          0.041664768, 0.397348553, 0.399516702, 0.356646687,
          0.399516702, 0.196884409, 0.399516702, 0.399516702, 0.17880787,
          0.0815344602, 0.204406619, 0.447934389, 0.447934389, 0.3498092,
          0.0453169346, 0.447934389, 0.447934389, 0.141755983,
          0.0396669917, 0.496651322, 0.496651322, 0.145622939,
          0.418675095, 0.440213799, 0.30134508, 0.132898375,
          0.0372473486, 0.00115129026, 0.392649263, 0.519147336,
          0.0802871287, 0.147635505, 0.0620993301, 0.519147336,
          0.519147336, 0.000185633893, 0.321582317, 0.457837403,
          0.457837403, 0.188004225, 0.219236955, 0.0561031625,
          0.457837403, 0.419606924, 0.0232056081, 0.187635988,
          0.457588643, 0.457588643, 0.253591537, 0.110606119,
          0.0792601258, 0.199619785, 0.457588643, 0.457588643,
          0.220535874, 0.433430672, 0.433430672, 0.250615805,
          0.225935414, 0.273221493, 0.433430672, 0.433430672,
          0.0841468275, 0.557636917, 0.557636917, 0.315219164,
          0.181718826, 0.0621926785, 0.179368198, 0.411183596,
          0.179352567, 0.0533711314 ]
      - [ 0.27049008, 0.419355363, 0.419355363, 0.109775543, 0.419355363,
          0.418526351, 0.419355363, 0.126843303, 0.126119494,
          0.0871094838, 0.50754416, 0.50754416, 0.0503149927,
          0.0345555544, 0.127506807, 0.50754416, 0.412513107,
          0.156169802, 0.0852511972, 0.100585811, 0.247483388,
          0.488990217, 0.116229936, 0.277260244, 0.488990217,
          0.488990217, 0.329796761, 0.080169104, 0.61445421, 0.61445421,
          0.0624381341, 0.131192058, 0.0116731981, 0.424314111,
          0.160702959, 0.072221525, 0.00213626819, 0.49491021,
          0.49491021, 0.00770993344, 0.000767081394, 0.260484129,
          0.49491021, 0.438522309, 0.00549513288, 0.106028825,
          0.111535661, 0.262684822, 0.0813498944, 0.130050108,
          0.485351384, 0.562625825, 0.562265515, 0.0995433256,
          0.161965609, 0.455448449, 0.455448449, 0.401619017, 0.4283292,
          0.0669234544, 0.312516004, 0.134145156, 0.299078315,
          0.0240733679, 0.434943497, 0.434943497, 0.161809057,
          0.265255511, 0.434943497, 0.434943497, 0.365093172,
          0.0923944339, 0.400293499, 0.400293499, 0.295365334,
          0.205370501, 0.249058038, 0.400293499, 0.400293499,
          0.312707841, 0.256569386 ]
      - [ 0.120895736, 0.475879729, 0.475879729, 0.0611553639,
          0.475879729, 0.475879729, 0.254716426, 0.0520738922,
          0.0587617531, 0.287004411, 0.480849653, 0.480849653,
          0.0631171912, 0.285513937, 0.0983563736, 0.480849653,
          0.30266881, 0.179978028, 0.122689366, 0.0200745352,
          0.294373989, 0.510602772, 0.338553965, 0.0970791653,
          0.510602772, 0.475906521, 0.144320026, 0.108655557,
          0.495335191, 0.495335191, 0.0146299722, 0.0333169661,
          0.123082802, 0.429172844, 0.495335191, 0.215669304,
          0.00616342062, 0.560754776, 0.560754776, 0.030147098,
          0.00192317797, 0.0339612998, 0.560754776, 0.221211955,
          0.00489637814, 0.0872906819, 0.282917142, 0.400760025,
          0.171837196, 0.0702671036, 0.105096765, 0.730212033,
          0.405817121, 0.0321390331, 0.11769715, 0.463273495,
          0.463273495, 0.0516119786, 0.344515324, 0.0294698272,
          0.0284188781, 0.463273495, 0.463273495, 0.180100754,
          0.437859535, 0.437859535, 0.106993228, 0.404551923,
          0.282892048, 0.437859535, 0.223364249, 0.288093388,
          0.526030481, 0.526030481, 0.081218347, 0.0237343162,
          0.0463821441, 0.0910141021, 0.526030481, 0.246506751,
          0.293704271 ]
      - [ 0.398000062, 0.420336455, 0.334465861, 0.0884648487,
          0.420336455, 0.420336455, 0.420336455, 0.0968296155,
          0.0399587415, 0.335838407, 0.335838407, 0.335838407,
          0.335838407, 0.335838407, 0.335838407, 0.307156175,
          0.335838407, 0.335838407, 0.159695238, 0.0740388408,
          0.31266281, 0.4037202, 0.4037202, 0.4037202, 0.4037202,
          0.274826497, 0.373811424, 0.146775529, 0.374042749,
          0.414831012, 0.237067088, 0.257315546, 0.153797939,
          0.414831012, 0.414831012, 0.414831012, 0.334837765,
          0.334837765, 0.334837765, 0.334837765, 0.334837765,
          0.315790653, 0.334837765, 0.334837765, 0.334837765,
          0.361533344, 0.236564174, 0.100564644, 0.296814382,
          0.373202652, 0.342273533, 0.422777712, 0.422777712,
          0.311419874, 0.104663253, 0.170626581, 0.407333374,
          0.482500046, 0.289252579, 0.05772385, 0.0614377819,
          0.482500046, 0.482500046, 0.332778692, 0.332778692,
          0.332778692, 0.332778692, 0.332778692, 0.332778692,
          0.332778692, 0.332778692, 0.332778692, 0.40729481, 0.40729481,
          0.0534728207, 0.0450051762, 0.261442304, 0.40729481,
          0.40729481, 0.305366993, 0.40729481 ]
      - [ 0.379193634, 0.379193634, 0.379193634, 0.252035826,
          0.379193634, 0.153448626, 0.215444267, 0.379193634,
          0.379193634, 0.261661112, 0.289361417, 0.397681653,
          0.257554084, 0.333691448, 0.18314971, 0.397681653, 0.397681653,
          0.397681653, 0.306461126, 0.367522299, 0.453320801,
          0.453320801, 0.123342574, 0.0372420959, 0.139904767,
          0.407602578, 0.39136681, 0.326256245, 0.234632775, 0.391546249,
          0.391546249, 0.278143346, 0.114035442, 0.361927062,
          0.391546249, 0.391546249, 0.147738785, 0.0941958725,
          0.29288736, 0.415092558, 0.415092558, 0.35695374, 0.250494242,
          0.415092558, 0.415092558, 0.112382457, 0.441481888,
          0.444265604, 0.444265604, 0.1167548, 0.0848138332, 0.268402159,
          0.444265604, 0.321006954, 0.107136026, 0.360136479,
          0.382504553, 0.382504553, 0.322577775, 0.186360255,
          0.382504553, 0.382504553, 0.361907065, 0.354379326,
          0.101017416, 0.281725198, 0.365858793, 0.365858793,
          0.365858793, 0.334549308, 0.365858793, 0.365858793, 0.3750875,
          0.196358785, 0.3750875, 0.3750875, 0.231235623, 0.245116711,
          0.3750875, 0.3750875, 0.3750875 ]
      - [ 0.38365379, 0.38365379, 0.38365379, 0.0797465965, 0.312504202,
          0.38365379, 0.38365379, 0.0949077457, 0.38365379, 0.540739775,
          0.102102295, 0.0657103211, 0.187884167, 0.540739775,
          0.217239112, 0.133324429, 0.0488875099, 0.540739775,
          0.445620149, 0.0324109904, 0.305869222, 0.445620149,
          0.445620149, 0.18753776, 0.12811403, 0.234626159, 0.445620149,
          0.362022132, 0.427602053, 0.427602053, 0.10658513, 0.09605591,
          0.0867142528, 0.427602053, 0.324326932, 0.427602053,
          0.348844618, 0.0719805211, 0.215118349, 0.167963028,
          0.42332992, 0.278526455, 0.42332992, 0.42332992, 0.42332992,
          0.146477982, 0.127964407, 0.17917195, 0.556900144, 0.571653664,
          0.401661307, 0.167300463, 0.181762293, 0.255096018,
          0.358910978, 0.170512408, 0.391640991, 0.391640991,
          0.391640991, 0.391640991, 0.230357856, 0.134973258,
          0.391640991, 0.270634919, 0.0399419554, 0.0897027105,
          0.134188756, 0.0848157927, 0.483521134, 0.483521134,
          0.457740605, 0.458228439, 0.50114423, 0.50114423, 0.422476798,
          0.329581112, 0.194094658, 0.0472928062, 0.340052158,
          0.105732046, 0.197153121 ]
      - [ 0.374707997, 0.407999575, 0.407999575, 0.0880888775,
          0.407999575, 0.407999575, 0.407999575, 0.092581749,
          0.0828780457, 0.332778692, 0.332778692, 0.332778692,
          0.332778692, 0.332778692, 0.332778692, 0.332778692,
          0.332778692, 0.332778692, 0.232137486, 0.111796923,
          0.241618186, 0.437183619, 0.437183619, 0.274771392,
          0.437183619, 0.363582611, 0.299644947, 0.152589276,
          0.363100082, 0.410018981, 0.223035201, 0.302616894,
          0.164301634, 0.410018981, 0.410018981, 0.410018981,
          0.335070223, 0.335070223, 0.335070223, 0.335070223,
          0.335070223, 0.335070223, 0.335070223, 0.313808173,
          0.335070223, 0.218032688, 0.181340635, 0.205538332,
          0.260814965, 0.336892307, 0.41582942, 0.41582942, 0.41582942,
          0.41582942, 0.106974475, 0.206160426, 0.427995563, 0.481003106,
          0.206638962, 0.0575540401, 0.134036392, 0.481003106,
          0.481003106, 0.332778692, 0.332778692, 0.332778692,
          0.332778692, 0.332778692, 0.332778692, 0.332778692,
          0.332778692, 0.332778692, 0.378863156, 0.378863156,
          0.0769586042, 0.0252150856, 0.358375192, 0.378863156,
          0.378863156, 0.378863156, 0.378863156 ]
      - [ 0.18860136, 0.354263306, 0.478085816, 0.17776683, 0.193259105,
          0.148148701, 0.478085816, 0.478085816, 0.239907354,
          0.420203984, 0.0568701513, 0.112249583, 0.258267343,
          0.395284683, 0.225234717, 0.420203984, 0.420203984,
          0.420203984, 0.670946002, 0.0608984381, 0.066068463,
          0.00912503991, 0.0344437696, 0.0421213172, 0.100234076,
          0.267955869, 0.670946002, 0.357406974, 0.184662238,
          0.371048391, 0.371048391, 0.371048391, 0.091605477,
          0.371048391, 0.371048391, 0.371048391, 0.559649467,
          0.00385089987, 0.00312627456, 0.00624725036, 0.559649467,
          0.215319723, 0.0404657088, 0.0820072219, 0.559649467,
          0.458342224, 0.0499389507, 0.0207110047, 0.0105274124,
          0.458342224, 0.325647712, 0.418774396, 0.284142494,
          0.458342224, 0.254312456, 0.0499982871, 0.184117243,
          0.486206681, 0.486206681, 0.343524307, 0.0296349172,
          0.256889284, 0.486206681, 0.589289963, 0.151284695,
          0.034122251, 0.015875861, 0.589289963, 0.341534257,
          0.126696184, 0.0701277032, 0.371041328, 0.520169616,
          0.520169616, 0.0958936363, 0.0397409499, 0.520169616,
          0.329942554, 0.218777567, 0.103828542, 0.0692450553 ]
      - [ 0.39514935, 0.39514935, 0.183341846, 0.273896486, 0.39514935,
          0.221177101, 0.240383893, 0.39514935, 0.39514935, 0.0726766214,
          0.0379494205, 0.0251170211, 0.455665886, 0.455665886,
          0.151921019, 0.366728723, 0.455665886, 0.455665886,
          0.180537045, 0.217598692, 0.466507256, 0.466507256,
          0.263277382, 0.0442456789, 0.252042592, 0.466507256,
          0.357368678, 0.0191096663, 0.457085818, 0.457085818,
          0.248772711, 0.288405687, 0.194635376, 0.457085818,
          0.430223793, 0.0156765748, 0.0746841803, 0.0964151174,
          0.10294874, 0.43408376, 0.43408376, 0.43408376, 0.43408376,
          0.43408376, 0.167476043, 0.423750162, 0.423750162, 0.423750162,
          0.345235318, 0.26644206, 0.138818979, 0.350631565, 0.303005338,
          0.181301489, 0.253877521, 0.292325824, 0.389994949,
          0.333776057, 0.325302333, 0.386290908, 0.389994949, 0.36336717,
          0.208612263, 0.38948229, 0.38948229, 0.211559802, 0.268083662,
          0.38948229, 0.302863568, 0.38948229, 0.342908144, 0.251762599,
          0.389717877, 0.389717877, 0.29437384, 0.246291772, 0.389717877,
          0.389717877, 0.382903606, 0.21710144, 0.217997044 ]
      - [ 0.452098757, 0.452098757, 0.452098757, 0.118160471,
          0.0724924207, 0.0217095502, 0.322951108, 0.232218295,
          0.452098757, 0.479395002, 0.158135206, 0.170693696,
          0.479395002, 0.479395002, 0.0879723281, 0.0474822596,
          0.108612515, 0.479395002, 0.439705819, 0.0537758507,
          0.0499370582, 0.439705819, 0.439705819, 0.115713954,
          0.100630574, 0.439705819, 0.439705819, 0.357313097, 0.44460845,
          0.44460845, 0.44460845, 0.44460845, 0.039676398, 0.120938733,
          0.0214569625, 0.24600555, 0.498167574, 0.0201175772,
          0.00740275951, 0.498167574, 0.498167574, 0.0197850168,
          0.00339001324, 0.0384500474, 0.498167574, 0.298457295,
          0.0141102206, 0.021741949, 0.471288413, 0.471288413,
          0.0778163597, 0.105060369, 0.471288413, 0.471288413,
          0.469145447, 0.209805429, 0.469145447, 0.251290321,
          0.469145447, 0.0684174076, 0.0150231039, 0.053408552,
          0.469145447, 0.462079763, 0.111286357, 0.089056477,
          0.462079763, 0.462079763, 0.0274639986, 0.0339361951,
          0.345097005, 0.462079763, 0.174250588, 0.012952093,
          0.0212349277, 0.476997346, 0.476997346, 0.218426943,
          0.0802350342, 0.476997346, 0.476997346 ]
      - [ 0.377892286, 0.377892286, 0.377892286, 0.278248817,
          0.377892286, 0.377892286, 0.377892286, 0.167544141,
          0.184162542, 0.100571625, 0.0954958946, 0.0767039806,
          0.0782335103, 0.455774933, 0.365083665, 0.455774933,
          0.455774933, 0.455774933, 0.264122665, 0.172832981,
          0.378878325, 0.378878325, 0.378878325, 0.187856197,
          0.378878325, 0.378878325, 0.378878325, 0.013099961,
          0.434938818, 0.434938818, 0.358742386, 0.365791231,
          0.109201126, 0.434938818, 0.381629825, 0.0888980478,
          0.408491224, 0.0975759998, 0.228816256, 0.0916123986,
          0.408491224, 0.302197188, 0.408491224, 0.408491224,
          0.408491224, 0.53482461, 0.0414706543, 0.0540150665,
          0.0365266316, 0.523459315, 0.125743523, 0.262342095,
          0.240765706, 0.53482461, 0.0534554906, 0.140055522,
          0.437032044, 0.437032044, 0.437032044, 0.0390529409,
          0.12903969, 0.437032044, 0.437032044, 0.487952083,
          0.0458742417, 0.0769968331, 0.26564312, 0.5625723, 0.151239589,
          0.0965247899, 0.11189384, 0.5625723, 0.472186387, 0.285932153,
          0.0165931508, 0.180972561, 0.472186387, 0.346471906,
          0.284390777, 0.103437588, 0.472186387 ]
      - [ 0.314606547, 0.413606137, 0.413606137, 0.188786462,
          0.413606137, 0.413606137, 0.413606137, 0.0538850687,
          0.0547441915, 0.122549511, 0.626110256, 0.626110256,
          0.287955254, 0.0476400666, 0.0290280282, 0.265408635,
          0.185974166, 0.0603615008, 0.0348355435, 0.0556098036,
          0.15170376, 0.0496355258, 0.141839996, 0.0618705787,
          0.684603333, 0.684603333, 0.0455194898, 0.17329818,
          0.454777539, 0.454777539, 0.216588318, 0.213144481,
          0.114542723, 0.454777539, 0.429600209, 0.234392658,
          0.000638019177, 0.677098393, 0.677098393, 0.063511081,
          0.00209328556, 0.00469136098, 0.254634947, 0.0860283449,
          0.00397782587, 0.00271749427, 0.0511017367, 0.162092283,
          0.00467224559, 0.00447207037, 0.00579315098, 0.6942873,
          0.6942873, 0.00562361442, 0.28810516, 0.325711995, 0.431568444,
          0.431568444, 0.187253684, 0.0147672109, 0.16219978,
          0.431568444, 0.431568444, 0.116512477, 0.542512417,
          0.628816187, 0.462694645, 0.0991043374, 0.0323496833,
          0.113198616, 0.159707963, 0.164748624, 0.0718267858,
          0.0660608709, 0.328973413, 0.0623679832, 0.201098517,
          0.196556717, 0.62180388, 0.62180388, 0.140712827 ]
      - [ 0.461180359, 0.461180359, 0.209114105, 0.0437529497,
          0.0336302891, 0.279568493, 0.461180359, 0.140397996,
          0.461180359, 0.501620591, 0.0919206589, 0.0569188297,
          0.0210901536, 0.279669017, 0.330745935, 0.501620591,
          0.200945064, 0.501620591, 0.465787143, 0.227211103,
          0.276578575, 0.222673595, 0.324730277, 0.267284006,
          0.281412005, 0.357274413, 0.465787143, 0.130592734,
          0.392196149, 0.392196149, 0.392196149, 0.392196149,
          0.208645299, 0.392196149, 0.392196149, 0.112195484, 0.45145458,
          0.0180383585, 0.0118458718, 0.106275901, 0.466284841,
          0.466284841, 0.236509517, 0.466284841, 0.267525166,
          0.325681448, 0.440234482, 0.440234482, 0.111578614,
          0.440234482, 0.440234482, 0.2275839, 0.0900451466, 0.204832405,
          0.0431526713, 0.0230267327, 0.186238244, 0.444925696,
          0.444925696, 0.271017462, 0.305274576, 0.444925696,
          0.444925696, 0.22288309, 0.187804624, 0.179549664, 0.40745151,
          0.41436258, 0.41436258, 0.41436258, 0.41436258, 0.160850838,
          0.557301462, 0.557301462, 0.468976378, 0.139244556,
          0.303254962, 0.153536782, 0.111120954, 0.0222302619,
          0.0745499507 ]
      - [ 0.346775293, 0.40747118, 0.40747118, 0.118305176, 0.40747118,
          0.376990944, 0.40252763, 0.190130293, 0.152583763, 0.107082032,
          0.503576875, 0.503576875, 0.0553696938, 0.0359562337,
          0.126034841, 0.503576875, 0.416083395, 0.171366051,
          0.0849314705, 0.0883636549, 0.284920692, 0.472417355,
          0.166694358, 0.26390034, 0.472417355, 0.472417355, 0.363476753,
          0.0676588416, 0.654592097, 0.654592097, 0.0608002804,
          0.136891484, 0.0277650151, 0.297498465, 0.108260848,
          0.0920493007, 0.00296647637, 0.496939033, 0.496939033,
          0.00739147374, 0.000551955018, 0.250519037, 0.496939033,
          0.437450856, 0.00218412117, 0.134062991, 0.122085117,
          0.188796803, 0.0531885847, 0.124636568, 0.482164234,
          0.582977653, 0.574690223, 0.0684071407, 0.149603024,
          0.473401368, 0.473401368, 0.473401368, 0.345075577,
          0.143711507, 0.257818758, 0.0809142664, 0.296337903,
          0.0369489826, 0.435939521, 0.435939521, 0.152661845,
          0.272720367, 0.435939521, 0.435939521, 0.363175362,
          0.0672968104, 0.417649031, 0.417649031, 0.264845788,
          0.183695212, 0.283374965, 0.417649031, 0.417649031,
          0.306765676, 0.140751958 ]
      - [ 0.407381296, 0.407381296, 0.407381296, 0.0670047551,
          0.127651304, 0.192824513, 0.328887373, 0.407381296,
          0.407381296, 0.0637258813, 0.375697166, 0.377717406,
          0.393130243, 0.315050215, 0.178761601, 0.336639762,
          0.393130243, 0.393130243, 0.0903299749, 0.0648538321,
          0.0943607464, 0.23892957, 0.143280029, 0.0733831525,
          0.243163884, 0.644270122, 0.644270122, 0.30828476, 0.450327456,
          0.450327456, 0.116479598, 0.0886221752, 0.0927990898,
          0.342483401, 0.450327456, 0.380460143, 0.362773716,
          0.379096955, 0.255218446, 0.218214676, 0.324254245,
          0.196889088, 0.38821727, 0.395824194, 0.395824194, 0.337756246,
          0.215398848, 0.232650176, 0.403116971, 0.356734365,
          0.146017805, 0.214027435, 0.460384578, 0.460384578,
          0.386218965, 0.386218965, 0.386218965, 0.359637469,
          0.244922817, 0.0953613445, 0.386218965, 0.344033033,
          0.287580401, 0.380223006, 0.306394875, 0.132955894,
          0.204309076, 0.380223006, 0.346491784, 0.380223006,
          0.380223006, 0.380223006, 0.380853474, 0.0901685581,
          0.044872351, 0.340228021, 0.380853474, 0.380853474,
          0.380853474, 0.380853474, 0.380853474 ]
      - [ 0.378935903, 0.378935903, 0.378935903, 0.264260799,
          0.378935903, 0.378935903, 0.345788419, 0.181286484,
          0.236609489, 0.123039812, 0.110153794, 0.0546284169,
          0.0703017339, 0.471364737, 0.267121017, 0.471364737,
          0.471364737, 0.471364737, 0.326591641, 0.188254014,
          0.375490278, 0.375490278, 0.375490278, 0.090494819,
          0.375490278, 0.375490278, 0.375490278, 0.0194636155,
          0.431814194, 0.431814194, 0.359500617, 0.431814194,
          0.126830578, 0.431814194, 0.314989179, 0.0700625256,
          0.404690415, 0.10492599, 0.232952595, 0.0729047805,
          0.404690415, 0.326334268, 0.404690415, 0.404690415,
          0.404690415, 0.550704777, 0.0456081592, 0.0617625266,
          0.0319878943, 0.444437295, 0.134282142, 0.23895736,
          0.329202801, 0.550704777, 0.0311041605, 0.201025531,
          0.431474447, 0.431474447, 0.431474447, 0.0591061376,
          0.14130272, 0.431474447, 0.431474447, 0.482440889,
          0.0446238816, 0.0869498327, 0.243106782, 0.566716552,
          0.147491261, 0.103520155, 0.134662271, 0.566716552,
          0.489804834, 0.288221389, 0.0748789608, 0.0985983238,
          0.489804834, 0.322510123, 0.20540005, 0.175440818, 0.489804834 ]
      - [ 0.333393842, 0.422073036, 0.422073036, 0.0680695474,
          0.404024214, 0.422073036, 0.422073036, 0.0144349048,
          0.0630250648, 0.135273203, 0.499289364, 0.499289364,
          0.035795901, 0.0631882399, 0.0220079198, 0.499289364,
          0.449795455, 0.144119754, 0.0743478388, 0.0187585112,
          0.507061481, 0.507061481, 0.174515143, 0.0733601525,
          0.507061481, 0.411087632, 0.113542899, 0.468071461,
          0.468071461, 0.468071461, 0.0457288474, 0.068585895,
          0.0520636253, 0.178393573, 0.278623551, 0.468071461,
          0.239156872, 0.482910961, 0.482910961, 0.00119363144,
          0.00121660996, 0.19327867, 0.482910961, 0.376879722,
          0.242845327, 0.441085219, 0.182600692, 0.382943094,
          0.078359887, 0.111998513, 0.171944141, 0.452728271,
          0.452728271, 0.403433919, 0.210928977, 0.436668724,
          0.465956062, 0.465956062, 0.116567105, 0.0343729518,
          0.139718235, 0.426127523, 0.331767678, 0.359372795,
          0.359372795, 0.359372795, 0.359372795, 0.0550392829,
          0.359372795, 0.359372795, 0.298895389, 0.359372795,
          0.427656233, 0.427656233, 0.212913424, 0.0048173801,
          0.0609776974, 0.427656233, 0.427656233, 0.427656233,
          0.179458424 ]
      - [ 0.144752964, 0.455247015, 0.455247015, 0.110829309,
          0.455247015, 0.455247015, 0.352869123, 0.0879193917,
          0.0311506297, 0.196697429, 0.506087899, 0.506087899,
          0.0900827274, 0.110162802, 0.0919696838, 0.506087899,
          0.333344758, 0.219210044, 0.0918371528, 0.00961616542,
          0.395575672, 0.551097989, 0.256502569, 0.0754813254,
          0.551097989, 0.367388844, 0.124926522, 0.124784037,
          0.502836585, 0.502836585, 0.0329124071, 0.0170719959,
          0.118584707, 0.389056802, 0.502836585, 0.232531279,
          0.0126258042, 0.554670751, 0.554670751, 0.0206886418,
          0.00284329988, 0.0327760503, 0.554670751, 0.26399368,
          0.0109329019, 0.100100011, 0.41858241, 0.426712006,
          0.143237248, 0.0845407471, 0.078349486, 0.628480315,
          0.439093858, 0.0694063604, 0.133633211, 0.466701746,
          0.466701746, 0.133046955, 0.29330945, 0.0375461392,
          0.0331189632, 0.466701746, 0.466701746, 0.251382113,
          0.422317713, 0.422317713, 0.181352153, 0.358275384,
          0.313914061, 0.422317713, 0.267874837, 0.256870866,
          0.534632266, 0.534632266, 0.0948157459, 0.00621825038,
          0.0363652371, 0.115746267, 0.534632266, 0.212860495,
          0.260975152 ]
      - [ 0.426277936, 0.426277936, 0.426277936, 0.212734267,
          0.326088458, 0.426277936, 0.304647446, 0.083581239,
          0.132306129, 0.313130587, 0.387646168, 0.156520173,
          0.387646168, 0.387646168, 0.204130903, 0.283832371,
          0.387646168, 0.387646168, 0.0301934108, 0.0476919748,
          0.452135175, 0.452135175, 0.375097215, 0.0555384308,
          0.389216959, 0.452135175, 0.289390266, 0.102378093,
          0.428822577, 0.428822577, 0.428822577, 0.428822577,
          0.428822577, 0.111455895, 0.171623081, 0.154642358,
          0.0258478951, 0.330114633, 0.424355745, 0.351419866,
          0.424355745, 0.200849131, 0.424355745, 0.424355745,
          0.0443815514, 0.115092918, 0.391496032, 0.391496032,
          0.391496032, 0.391496032, 0.238175318, 0.391496032,
          0.391496032, 0.080623731, 0.135512143, 0.418572247,
          0.428416401, 0.360373318, 0.154409304, 0.110818133,
          0.292473137, 0.428416401, 0.428416401, 0.375384778,
          0.375176132, 0.438350111, 0.276568502, 0.0851222649,
          0.226580948, 0.438350111, 0.438350111, 0.0492253862,
          0.546744347, 0.546744347, 0.112630114, 0.0169324838,
          0.0277925283, 0.0789662898, 0.546744347, 0.272285521,
          0.06026664 ]
      - [ 0.397247612, 0.397247612, 0.397247612, 0.217476353,
          0.397247612, 0.397247612, 0.298599899, 0.0326372609,
          0.263590634, 0.38823384, 0.143957838, 0.164227664, 0.38823384,
          0.38823384, 0.38823384, 0.38823384, 0.209937572, 0.38823384,
          0.267516315, 0.121414907, 0.211275876, 0.396692067,
          0.396692067, 0.396692067, 0.396692067, 0.396692067,
          0.279767722, 0.389469177, 0.389469177, 0.389469177,
          0.389469177, 0.215164959, 0.151135594, 0.389469177, 0.19375816,
          0.361936152, 0.463291079, 0.0991635397, 0.0250756741,
          0.15160577, 0.463291079, 0.0606787428, 0.463291079,
          0.315736383, 0.463291079, 0.521743059, 0.0526907034,
          0.154321045, 0.146954969, 0.521743059, 0.162868962,
          0.111088954, 0.301807493, 0.521743059, 0.164257258,
          0.0934994891, 0.423866719, 0.423866719, 0.423866719,
          0.0882260725, 0.232259542, 0.423866719, 0.423866719,
          0.207382709, 0.0301081371, 0.0885963291, 0.420053124,
          0.498362392, 0.131004333, 0.498362392, 0.368911743,
          0.341798842, 0.49706918, 0.49706918, 0.12569347, 0.173795432,
          0.49706918, 0.167154074, 0.134702682, 0.114019856, 0.385632813 ]
      - [ 0.264211118, 0.357106835, 0.357106835, 0.184248745,
          0.357106835, 0.357106835, 0.357106835, 0.357106835,
          0.357106835, 0.304054886, 0.369473398, 0.369473398,
          0.369473398, 0.318699121, 0.156368271, 0.369473398,
          0.365304768, 0.313606888, 0.127664521, 0.084538877, 0.1638823,
          0.439431012, 0.439431012, 0.352593422, 0.439431012,
          0.439431012, 0.22042568, 0.303390294, 0.35904333, 0.35904333,
          0.35904333, 0.161461323, 0.347667485, 0.335952669, 0.35904333,
          0.35904333, 0.371579856, 0.371579856, 0.371579856, 0.371579856,
          0.128252268, 0.256142825, 0.371579856, 0.292916983,
          0.371579856, 0.425894231, 0.123456717, 0.138300225,
          0.140593603, 0.186228275, 0.425894231, 0.425894231,
          0.425894231, 0.425894231, 0.343348712, 0.343348712,
          0.343348712, 0.343348712, 0.231220022, 0.343348712,
          0.343348712, 0.343348712, 0.343348712, 0.349313051,
          0.275827199, 0.330577731, 0.365572721, 0.365572721,
          0.365572721, 0.365572721, 0.144043714, 0.365572721,
          0.403154433, 0.1741831, 0.082163021, 0.272391021, 0.268361032,
          0.403154433, 0.403154433, 0.403154433, 0.403154433 ]
      - [ 0.433910578, 0.433910578, 0.433910578, 0.129559129,
          0.172580793, 0.433910578, 0.429020256, 0.0827998966,
          0.0711918175, 0.163459882, 0.483322203, 0.483322203,
          0.0495065339, 0.0597371832, 0.104051165, 0.483322203,
          0.483322203, 0.131171808, 0.135109767, 0.106866859, 0.25704667,
          0.469064802, 0.36558038, 0.199570417, 0.469064802, 0.469064802,
          0.256951034, 0.44443056, 0.44443056, 0.44443056, 0.0416544415,
          0.101433054, 0.168317005, 0.296094954, 0.278315932, 0.44443056,
          0.291230053, 0.462738812, 0.462738812, 0.0108007258,
          0.0118101239, 0.0348111875, 0.462738812, 0.462738812,
          0.229316682, 0.528061092, 0.197011873, 0.104410224,
          0.0233648531, 0.0775194839, 0.096682556, 0.528061092,
          0.528061092, 0.304241806, 0.240950465, 0.450399667,
          0.456299365, 0.456299365, 0.18421109, 0.0251290686,
          0.198881477, 0.189152867, 0.456299365, 0.31142503, 0.266734302,
          0.368639529, 0.368639529, 0.335735768, 0.368639529,
          0.368639529, 0.189710736, 0.368639529, 0.443796962,
          0.443796962, 0.190074489, 0.0707585439, 0.109690472,
          0.443796962, 0.443796962, 0.345701396, 0.187263101 ]
      - [ 0.42583853, 0.42583853, 0.42583853, 0.104942963, 0.42583853,
          0.42583853, 0.278073907, 0.0143469172, 0.0225820988,
          0.370504946, 0.370504946, 0.364649236, 0.252466619,
          0.370504946, 0.366752744, 0.202157602, 0.274078548,
          0.370504946, 0.0753622949, 0.0293002762, 0.0633105338,
          0.438250631, 0.438250631, 0.157346442, 0.438250631,
          0.438250631, 0.438250631, 0.118192606, 0.3982099, 0.3982099,
          0.340112865, 0.3982099, 0.3982099, 0.251678944, 0.331407815,
          0.242730021, 0.0145074446, 0.448527873, 0.448527873,
          0.238339216, 0.332463682, 0.253607601, 0.448527873,
          0.399959326, 0.012473275, 0.0175887663, 0.0939668864,
          0.252963066, 0.464258909, 0.464258909, 0.242402852,
          0.464258909, 0.464258909, 0.0364522561, 0.157010183,
          0.208648503, 0.398595124, 0.112074785, 0.217755169,
          0.189862579, 0.106059201, 0.574423671, 0.574423671,
          0.128727302, 0.411217302, 0.411217302, 0.382211208,
          0.220344514, 0.120397933, 0.411217302, 0.306251436,
          0.411217302, 0.289038628, 0.225439727, 0.33023119, 0.163342297,
          0.280094296, 0.361680955, 0.480507374, 0.480507374,
          0.232508928 ]
      - [ 0.392545968, 0.392545968, 0.392545968, 0.141755134,
          0.123709977, 0.190067917, 0.392545968, 0.392545968,
          0.392545968, 0.0914112851, 0.334891379, 0.372525811,
          0.374547154, 0.374547154, 0.225987196, 0.353216261,
          0.374547154, 0.374547154, 0.147087961, 0.066833593,
          0.121780828, 0.222209126, 0.17984879, 0.112358391, 0.207285076,
          0.638505638, 0.638505638, 0.34554258, 0.42413649, 0.42413649,
          0.116277359, 0.133070037, 0.10373114, 0.389817327, 0.42413649,
          0.377812505, 0.391449511, 0.341658205, 0.303264886,
          0.191230685, 0.313465685, 0.199069664, 0.391449511,
          0.391449511, 0.391449511, 0.386955112, 0.189584598,
          0.286022455, 0.393175393, 0.292235643, 0.199714586,
          0.200077429, 0.451717347, 0.451717347, 0.385868132,
          0.385868132, 0.385868132, 0.322383344, 0.26839897,
          0.0919888839, 0.385868132, 0.385868132, 0.259312689,
          0.368295044, 0.315396219, 0.0784808993, 0.277198613,
          0.368295044, 0.368295044, 0.368295044, 0.368295044,
          0.368295044, 0.371130854, 0.0528503545, 0.0402417332,
          0.37728855, 0.37728855, 0.37728855, 0.37728855, 0.37728855,
          0.37728855 ]
      - [ 0.296278, 0.419596761, 0.419596761, 0.104104474, 0.419596761,
          0.419596761, 0.419596761, 0.116631515, 0.0572706498,
          0.192094699, 0.511918545, 0.511918545, 0.0291695241,
          0.0681736916, 0.111565955, 0.511918545, 0.334801435,
          0.204371423, 0.131456852, 0.143484235, 0.356932819,
          0.321669102, 0.278606445, 0.244355038, 0.471902043,
          0.471902043, 0.379251748, 0.0447374359, 0.659917295,
          0.659917295, 0.0940878466, 0.100782536, 0.0434725918,
          0.28080523, 0.134320274, 0.0513391346, 0.000300023588,
          0.525416315, 0.525416315, 0.0118996929, 0.000451213884,
          0.194687247, 0.525416315, 0.35849759, 0.000527993252,
          0.105729677, 0.122326963, 0.320205361, 0.0377451666,
          0.175630018, 0.361000508, 0.652033389, 0.5152421, 0.107714087,
          0.172255352, 0.473589242, 0.473589242, 0.27501753, 0.393830627,
          0.136356205, 0.283701479, 0.308590055, 0.303281635,
          0.0292368475, 0.452448696, 0.452448696, 0.158575922,
          0.160606399, 0.452448696, 0.452448696, 0.343253583,
          0.0838011131, 0.416427761, 0.416427761, 0.275978088,
          0.0855156928, 0.221585363, 0.416427761, 0.416427761,
          0.311153859, 0.269811124 ]
      - [ 0.43639788, 0.43639788, 0.166213036, 0.139309824, 0.43639788,
          0.43639788, 0.368058413, 0.0998668149, 0.203455165,
          0.345387191, 0.369175047, 0.369175047, 0.178922683,
          0.369175047, 0.369175047, 0.369175047, 0.165120855,
          0.369175047, 0.166927561, 0.289115101, 0.364414066,
          0.248695523, 0.401225179, 0.21439603, 0.401225179, 0.401225179,
          0.401225179, 0.303068489, 0.29784441, 0.3430143, 0.331750333,
          0.3430143, 0.3430143, 0.3430143, 0.3430143, 0.3430143,
          0.393286884, 0.428520024, 0.428520024, 0.274864346,
          0.0550073832, 0.0742875263, 0.428520024, 0.149774417,
          0.428520024, 0.437685639, 0.242143765, 0.422151744,
          0.0339715481, 0.0398046114, 0.154799253, 0.437685639,
          0.437685639, 0.396705031, 0.210434571, 0.369021267,
          0.387371629, 0.387371629, 0.378660172, 0.0724654719,
          0.258473665, 0.387371629, 0.387371629, 0.365783364,
          0.251699567, 0.456658095, 0.456658095, 0.217586681,
          0.272585154, 0.0806542933, 0.211014047, 0.456658095,
          0.426271826, 0.120173119, 0.151766151, 0.207976848,
          0.288032293, 0.464108318, 0.464108318, 0.262749314,
          0.387472481 ]
      - [ 0.416205496, 0.416205496, 0.184884489, 0.048463732,
          0.160938442, 0.416205496, 0.416205496, 0.25937438, 0.416205496,
          0.333856106, 0.333856106, 0.333856106, 0.333856106,
          0.333856106, 0.333856106, 0.333856106, 0.333856106,
          0.324013919, 0.1404365, 0.157620341, 0.459214538, 0.459214538,
          0.149250895, 0.107726336, 0.271023542, 0.459214538,
          0.459214538, 0.388405323, 0.388405323, 0.288997591,
          0.388405323, 0.136336297, 0.277861506, 0.388405323,
          0.344771266, 0.307414293, 0.432630748, 0.153497189,
          0.0523658991, 0.189586103, 0.432630748, 0.106998302,
          0.432630748, 0.416300207, 0.432630748, 0.358887941,
          0.298904985, 0.358887941, 0.358887941, 0.358887941, 0.20150952,
          0.306040406, 0.358887941, 0.358887941, 0.175388396,
          0.0804016143, 0.394726753, 0.402364165, 0.402364165,
          0.156119362, 0.402364165, 0.361918271, 0.402364165, 0.26391682,
          0.126759157, 0.0917624161, 0.448096037, 0.448096037,
          0.274312466, 0.448096037, 0.364951193, 0.300959855,
          0.392821997, 0.392821997, 0.38631326, 0.309930444, 0.392821997,
          0.352749676, 0.211820439, 0.205187023, 0.276498646 ]
      - [ 0.308005512, 0.462289304, 0.462289304, 0.180486262,
          0.274265915, 0.462289304, 0.359138459, 0.132689163,
          0.070689775, 0.0622951351, 0.514846504, 0.514846504,
          0.0562759154, 0.0340969525, 0.134699568, 0.514846504,
          0.387352228, 0.152516842, 0.102981932, 0.0637133196,
          0.334870279, 0.471434504, 0.150985807, 0.305399656,
          0.471434504, 0.471434504, 0.292696416, 0.0379894078,
          0.645623028, 0.645623028, 0.136894047, 0.0961522609,
          0.029225098, 0.32568258, 0.142621443, 0.0565996245,
          0.00159827131, 0.506849587, 0.506849587, 0.00817448925,
          0.000298649335, 0.27354148, 0.506849587, 0.386462808,
          0.0007379218, 0.10764008, 0.0837970003, 0.22720097,
          0.0160066914, 0.156118125, 0.517714143, 0.610982358,
          0.498700827, 0.0949302912, 0.178350464, 0.491895497,
          0.491895497, 0.273149252, 0.345310271, 0.0981465206,
          0.323489279, 0.277633935, 0.306834668, 0.0384474844,
          0.46606341, 0.46606341, 0.160692036, 0.115958363, 0.415066838,
          0.46606341, 0.353849888, 0.0739097297, 0.414566487,
          0.414566487, 0.302473933, 0.0744287893, 0.21634008,
          0.414566487, 0.414566487, 0.278802603, 0.294674575 ]
      - [ 0.346856534, 0.346856534, 0.346856534, 0.346856534,
          0.346856534, 0.346856534, 0.324674636, 0.22125712, 0.346856534,
          0.384488523, 0.190056995, 0.0824951157, 0.384488523,
          0.384488523, 0.384488523, 0.257377356, 0.384488523,
          0.384488523, 0.392786443, 0.200692728, 0.219210669,
          0.392786443, 0.392786443, 0.279873967, 0.240852356,
          0.392786443, 0.392786443, 0.347497433, 0.347497433,
          0.174620807, 0.347497433, 0.347497433, 0.347497433,
          0.347497433, 0.347497433, 0.347497433, 0.426590413,
          0.168004528, 0.00754285557, 0.333848625, 0.426590413,
          0.40740177, 0.0875235125, 0.36935991, 0.426590413, 0.388242543,
          0.223719329, 0.263986647, 0.325050473, 0.388242543,
          0.388242543, 0.132575586, 0.387580931, 0.388242543,
          0.347597331, 0.347597331, 0.344117284, 0.347597331,
          0.347597331, 0.347597331, 0.330943167, 0.208910853,
          0.347597331, 0.428639472, 0.105565645, 0.106313594,
          0.200819239, 0.428639472, 0.428639472, 0.25202167, 0.366743892,
          0.428639472, 0.371452749, 0.328231305, 0.371452749, 0.30467692,
          0.371452749, 0.371452749, 0.0705021471, 0.317598552,
          0.371452749 ]
      - [ 0.184791714, 0.558635414, 0.558635414, 0.558635414,
          0.0760844275, 0.035196308, 0.0229005534, 0.0105514331,
          0.128021091, 0.353889972, 0.246605814, 0.353889972,
          0.342357069, 0.353889972, 0.353889972, 0.258868217,
          0.353889972, 0.353889972, 0.192792505, 0.0577878766,
          0.0395564586, 0.00116301957, 0.164747536, 0.237842947,
          0.649895608, 0.649895608, 0.151650071, 0.253608078, 0.51080972,
          0.51080972, 0.51080972, 0.0308832675, 0.00688832067,
          0.0809106007, 0.268447846, 0.261131525, 0.414366066,
          0.223846093, 0.414366066, 0.414366066, 0.414366066,
          0.327297568, 0.148003146, 0.0880453736, 0.349537015,
          0.156898707, 0.0256584194, 0.0345158726, 0.0674102828,
          0.267855227, 0.29261297, 0.628317475, 0.628317475, 0.125623152,
          0.418188959, 0.109866202, 0.351225376, 0.362255692,
          0.418188959, 0.418188959, 0.0846754387, 0.149884775,
          0.418188959, 0.0944968835, 0.0893592089, 0.484477133,
          0.484477133, 0.484477133, 0.484477133, 0.169094011,
          0.060587693, 0.0843218639, 0.100964189, 0.0942048356,
          0.0838512853, 0.438589245, 0.438589245, 0.438589245,
          0.438589245, 0.438589245, 0.0878460556 ]
      - [ 0.431907147, 0.253339857, 0.346756339, 0.128208056,
          0.431907147, 0.431907147, 0.431378514, 0.0990799293,
          0.198221698, 0.374581933, 0.0916754976, 0.374581933,
          0.0753122717, 0.374581933, 0.374581933, 0.374581933,
          0.374581933, 0.374581933, 0.337788403, 0.337788403,
          0.337788403, 0.289512008, 0.337788403, 0.337788403,
          0.337788403, 0.337788403, 0.337788403, 0.430080235,
          0.321232736, 0.212870151, 0.15204072, 0.430080235, 0.398476213,
          0.285788178, 0.169464111, 0.430080235, 0.229715407,
          0.0265351199, 0.0843153745, 0.129608825, 0.45586893,
          0.45586893, 0.45586893, 0.45586893, 0.294617951, 0.372553945,
          0.372553945, 0.372553945, 0.316478163, 0.350263476,
          0.372553945, 0.372553945, 0.261659265, 0.104819417,
          0.403576046, 0.124571048, 0.403576046, 0.403576046,
          0.403576046, 0.255894601, 0.403576046, 0.231306016, 0.21701999,
          0.36525625, 0.252998978, 0.36525625, 0.200289965, 0.36525625,
          0.36525625, 0.36525625, 0.302908599, 0.36525625, 0.338710278,
          0.338710278, 0.338710278, 0.338710278, 0.338710278,
          0.280746549, 0.338710278, 0.338710278, 0.338710278 ]
      - [ 0.401217848, 0.401217848, 0.401217848, 0.204996705, 0.11251165,
          0.401217848, 0.401217848, 0.234564543, 0.285324454,
          0.389601082, 0.389601082, 0.113187946, 0.292522728,
          0.197982043, 0.315570772, 0.389601082, 0.389601082,
          0.389601082, 0.357357502, 0.357357502, 0.357357502,
          0.357357502, 0.166153967, 0.27366358, 0.357357502, 0.357357502,
          0.357357502, 0.362536967, 0.394755751, 0.394755751,
          0.394755751, 0.129877925, 0.195345283, 0.394755751,
          0.394755751, 0.174455717, 0.386241049, 0.174180657,
          0.137431517, 0.34267664, 0.386241049, 0.2890971, 0.386241049,
          0.386241049, 0.386241049, 0.360238224, 0.354277164,
          0.360238224, 0.225890413, 0.360238224, 0.324516356,
          0.360238224, 0.256307214, 0.360238224, 0.000516690314,
          0.0652739853, 0.416770518, 0.416770518, 0.416770518,
          0.232183516, 0.416770518, 0.416770518, 0.263017625,
          0.161487043, 0.17237404, 0.228760287, 0.413830966, 0.413830966,
          0.413830966, 0.413830966, 0.413830966, 0.17738007, 0.302894056,
          0.435890734, 0.435890734, 0.3349877, 0.435890734, 0.435890734,
          0.158524245, 0.0748052299, 0.0309118256 ]
      - [ 0.428633124, 0.428633124, 0.428633124, 0.182527497,
          0.428633124, 0.428633124, 0.208033547, 0.019462768,
          0.0106579745, 0.36632356, 0.36632356, 0.335794091, 0.265684187,
          0.36632356, 0.36632356, 0.173510462, 0.334550202, 0.36632356,
          0.0533986092, 0.0584085174, 0.0536761768, 0.442760795,
          0.442760795, 0.0790417045, 0.442760795, 0.442760795,
          0.442760795, 0.107204944, 0.419572651, 0.419572651,
          0.419572651, 0.419572651, 0.419572651, 0.121895455,
          0.277460814, 0.110755101, 0.0142801031, 0.445446491,
          0.445446491, 0.226678655, 0.281981051, 0.352354467,
          0.445446491, 0.3803536, 0.0189656485, 0.024074791,
          0.0600154996, 0.187821135, 0.478670418, 0.478670418,
          0.18306981, 0.478670418, 0.478670418, 0.0757947341,
          0.241009459, 0.141056582, 0.40544048, 0.134039834, 0.312747508,
          0.110419907, 0.0728805736, 0.556236923, 0.556236923,
          0.15944089, 0.414110869, 0.414110869, 0.348766327, 0.234510794,
          0.103933297, 0.414110869, 0.311536938, 0.414110869, 0.38939476,
          0.211047202, 0.301777333, 0.222750664, 0.270029277,
          0.331166297, 0.468239278, 0.468239278, 0.193348601 ]
      - [ 0.455568463, 0.455568463, 0.455568463, 0.124594644,
          0.321605772, 0.455568463, 0.177392811, 0.083036676,
          0.0892281085, 0.369506478, 0.369506478, 0.348982543,
          0.188045278, 0.369506478, 0.206249818, 0.337556601,
          0.369506478, 0.369506478, 0.0462305322, 0.0267511234,
          0.168035999, 0.433852971, 0.433852971, 0.153085411,
          0.433852971, 0.433852971, 0.433852971, 0.0619537942,
          0.45308733, 0.45308733, 0.306426197, 0.45308733, 0.45308733,
          0.235266864, 0.120466322, 0.0819990635, 0.00641612615,
          0.475771397, 0.475771397, 0.187662855, 0.341442257,
          0.285901278, 0.475771397, 0.287135392, 0.0120450053,
          0.0892267451, 0.0988067389, 0.129911885, 0.435327679,
          0.456529707, 0.375640005, 0.456529707, 0.456529707,
          0.0704615265, 0.0752234012, 0.413065881, 0.413065881,
          0.413065881, 0.346437275, 0.02852742, 0.127536014, 0.413065881,
          0.413065881, 0.0454814434, 0.501466215, 0.501466215,
          0.222753167, 0.174430147, 0.258367091, 0.501466215,
          0.296750605, 0.0604862347, 0.503366113, 0.503366113,
          0.0905344039, 0.104998276, 0.160542667, 0.252309084,
          0.503366113, 0.294725209, 0.198298901 ]
      - [ 0.366104454, 0.301911473, 0.193974182, 0.289176762,
          0.366104454, 0.366104454, 0.366104454, 0.337313592,
          0.366104454, 0.39789483, 0.294162482, 0.39789483, 0.39789483,
          0.39789483, 0.313253373, 0.101184934, 0.0976009965, 0.39789483,
          0.37747696, 0.231226712, 0.235252306, 0.39405337, 0.39405337,
          0.39405337, 0.267069906, 0.228750184, 0.39405337, 0.394365102,
          0.210963413, 0.062235117, 0.323122203, 0.394365102,
          0.394365102, 0.367956638, 0.292892545, 0.394365102, 0.39249441,
          0.294020861, 0.39249441, 0.39249441, 0.39249441, 0.311026961,
          0.0184709933, 0.205651119, 0.39249441, 0.374986708,
          0.374986708, 0.374986708, 0.374986708, 0.374986708,
          0.374986708, 0.153869137, 0.129114613, 0.334988326, 0.41249314,
          0.252316475, 0.088546209, 0.41249314, 0.41249314, 0.41249314,
          0.120984763, 0.242868379, 0.41249314, 0.444864571, 0.255637854,
          0.186647564, 0.444864571, 0.444864571, 0.27912268,
          0.0107919266, 0.160388172, 0.444864571, 0.376369208,
          0.376369208, 0.376369208, 0.376369208, 0.376369208,
          0.289810717, 0.0484394543, 0.244909137, 0.376369208 ]
      - [ 0.36594817, 0.36594817, 0.36594817, 0.36594817, 0.225415558,
          0.0900297016, 0.36594817, 0.36594817, 0.36594817, 0.429720938,
          0.281930774, 0.393524438, 0.429720938, 0.429720938,
          0.0668463036, 0.0114888484, 0.134611219, 0.429720938,
          0.476978272, 0.125489727, 0.102542251, 0.204777151,
          0.476978272, 0.427815199, 0.0704260021, 0.237758905,
          0.476978272, 0.412643164, 0.108842455, 0.170224786,
          0.213227153, 0.412643164, 0.241282091, 0.412643164,
          0.412643164, 0.412643164, 0.472250313, 0.0769747198,
          0.240512729, 0.472250313, 0.472250313, 0.197996959,
          0.00023117059, 0.0150764538, 0.472250313, 0.433125019,
          0.0126103749, 0.0347947814, 0.19681491, 0.433125019,
          0.433125019, 0.132593825, 0.433125019, 0.433125019,
          0.481194735, 0.0648993552, 0.0924133211, 0.269112051,
          0.481194735, 0.318096459, 0.256726116, 0.219730526,
          0.481194735, 0.398913443, 0.175849512, 0.398913443,
          0.398913443, 0.398913443, 0.398913443, 0.0898260996,
          0.0472379476, 0.398913443, 0.422293097, 0.0517447181,
          0.166912317, 0.422293097, 0.422293097, 0.422293097,
          0.130590469, 0.2377671, 0.422293097 ]
      - [ 0.182308152, 0.422379464, 0.422379464, 0.166148037,
          0.362754941, 0.422379464, 0.422379464, 0.213254496,
          0.210363746, 0.20757924, 0.467628241, 0.467628241,
          0.0676799491, 0.198876873, 0.106545545, 0.467628241,
          0.467628241, 0.148495317, 0.220731899, 0.144705355, 0.31281814,
          0.441033363, 0.441033363, 0.168369785, 0.441033363,
          0.441033363, 0.147265434, 0.385336369, 0.385336369,
          0.385336369, 0.385336369, 0.143572375, 0.0843765065,
          0.278412104, 0.385336369, 0.385336369, 0.361287266,
          0.361287266, 0.361287266, 0.361287266, 0.0575976931,
          0.282551646, 0.361287266, 0.36064747, 0.361287266, 0.43347618,
          0.217281699, 0.0728416964, 0.0456649028, 0.0394886881,
          0.43347618, 0.43347618, 0.43347618, 0.43347618, 0.0812093616,
          0.092254132, 0.401982516, 0.401982516, 0.401982516,
          0.106484786, 0.401982516, 0.401982516, 0.401982516, 0.10182181,
          0.0821974874, 0.322518766, 0.450660557, 0.450660557,
          0.450660557, 0.446436256, 0.152858153, 0.205913424,
          0.382085055, 0.382085055, 0.382085055, 0.382085055,
          0.297051758, 0.382085055, 0.382085055, 0.0547205098,
          0.170337752 ]
      - [ 0.390725017, 0.390725017, 0.390725017, 0.0897304416,
          0.236283079, 0.390725017, 0.373533309, 0.171341866,
          0.390725017, 0.2214012, 0.471098334, 0.471098334, 0.0573389009,
          0.0291418731, 0.0882102326, 0.471098334, 0.469423592,
          0.219541773, 0.188484222, 0.192260385, 0.225714222,
          0.443549842, 0.443549842, 0.116617337, 0.443549842,
          0.443549842, 0.267556965, 0.436986417, 0.436986417,
          0.436986417, 0.436986417, 0.0928481817, 0.0464132093,
          0.110745877, 0.133453175, 0.436986417, 0.349635392,
          0.349635392, 0.349635392, 0.346485972, 0.144013718,
          0.349635392, 0.349635392, 0.349635392, 0.349635392,
          0.403649956, 0.403649956, 0.0702458397, 0.0464770608,
          0.132956117, 0.403649956, 0.403649956, 0.39563778, 0.403649956,
          0.0435672179, 0.144376874, 0.501917779, 0.501917779,
          0.501917779, 0.321324259, 0.248036236, 0.199657485,
          0.108837523, 0.393971801, 0.393971801, 0.393971801,
          0.393971801, 0.393971801, 0.393971801, 0.172019914,
          0.0250028726, 0.185918286, 0.405247778, 0.405247778,
          0.0508598238, 0.00603444641, 0.356865436, 0.405247778,
          0.405247778, 0.369897544, 0.268790394 ]
      - [ 0.379540652, 0.406557173, 0.406557173, 0.114417195,
          0.406557173, 0.406557173, 0.406557173, 0.0999436304,
          0.048616223, 0.342591286, 0.342591286, 0.342591286,
          0.342591286, 0.342591286, 0.342263281, 0.330925792,
          0.342591286, 0.256336331, 0.198650509, 0.107316434,
          0.228656039, 0.406811535, 0.406811535, 0.406811535,
          0.406811535, 0.372526705, 0.303174853, 0.127979457,
          0.366827816, 0.417436808, 0.261338055, 0.21368663, 0.184161082,
          0.417436808, 0.417436808, 0.417436808, 0.333099425,
          0.333099425, 0.333099425, 0.333099425, 0.333099425,
          0.333099425, 0.330197155, 0.333099425, 0.333099425,
          0.356464565, 0.179009318, 0.0658977479, 0.426446348,
          0.299157619, 0.357848436, 0.426446348, 0.426446348,
          0.262994558, 0.0822423771, 0.225546926, 0.377806365,
          0.476670235, 0.310969174, 0.0460017845, 0.120019071,
          0.476670235, 0.476670235, 0.342027009, 0.342027009,
          0.342027009, 0.342027009, 0.246420175, 0.342027009,
          0.342027009, 0.342027009, 0.342027009, 0.408430874,
          0.408430874, 0.0382274948, 0.0730261803, 0.164985687,
          0.408430874, 0.408430874, 0.357528389, 0.408430874 ]
      - [ 0.317951977, 0.418465048, 0.418465048, 0.117899589,
          0.418465048, 0.386667073, 0.418465048, 0.160165906,
          0.0721765906, 0.0811351165, 0.507157028, 0.507157028,
          0.0540211275, 0.03447254, 0.0979422778, 0.507157028,
          0.404076248, 0.199374959, 0.110982984, 0.083448641,
          0.257011414, 0.495729834, 0.120155878, 0.243601114,
          0.495729834, 0.495729834, 0.314149737, 0.0632964298,
          0.622957706, 0.622957706, 0.0974966213, 0.117678411,
          0.0257750992, 0.386686981, 0.193701774, 0.0505561009,
          0.000892608776, 0.501964331, 0.501964331, 0.0065720384,
          0.00149265374, 0.322894573, 0.501964331, 0.367116839,
          0.000353628333, 0.0515237413, 0.0686437339, 0.0878815874,
          0.0346766599, 0.0973465815, 0.541225553, 0.626116991,
          0.530151367, 0.0444072038, 0.235055849, 0.479104757,
          0.479104757, 0.228465542, 0.436007708, 0.14640224, 0.256117016,
          0.319078654, 0.223026365, 0.0419798493, 0.447349131,
          0.447349131, 0.166380823, 0.141329214, 0.447349131,
          0.447349131, 0.378972441, 0.0448065847, 0.412915319,
          0.267901629, 0.412915319, 0.0186584834, 0.320550382,
          0.29559207, 0.412915319, 0.392226517, 0.261322945 ]
      - [ 0.282283753, 0.260755032, 0.379573703, 0.222147241,
          0.379573703, 0.280713975, 0.379573703, 0.379573703,
          0.379573703, 0.0553309359, 0.0158291534, 0.0271745566,
          0.184358731, 0.495153517, 0.35661757, 0.495153517, 0.495153517,
          0.307097465, 0.403635591, 0.149812385, 0.403635591,
          0.403635591, 0.403635591, 0.275942862, 0.260547847,
          0.122007966, 0.403635591, 0.335446477, 0.24297294, 0.39419651,
          0.194874525, 0.39419651, 0.0978327915, 0.39419651, 0.39419651,
          0.39419651, 0.536206186, 3.56728196e-05, 0.000107018466,
          0.0423028581, 0.536206186, 0.205780566, 0.24780333,
          0.162948743, 0.536206186, 0.458510935, 0.0625954568,
          0.0371858515, 0.0300152842, 0.458510935, 0.25439927,
          0.387414992, 0.379093796, 0.458510935, 0.203467786,
          0.0536447912, 0.399683297, 0.473236889, 0.534576356,
          0.300715595, 0.0538495667, 0.118998639, 0.416440099,
          0.570753813, 0.117353119, 0.0232807714, 0.0339344963,
          0.570753813, 0.447027415, 0.0751273483, 0.0379347764,
          0.346985161, 0.43871209, 0.43871209, 0.108747862, 0.163028196,
          0.43871209, 0.43871209, 0.365352839, 0.136060014, 0.188003346 ]
      - [ 0.0697747394, 0.0367480405, 0.441648692, 0.441648692,
          0.441648692, 0.10710229, 0.326596916, 0.441648692, 0.301693201,
          0.075601913, 0.231151029, 0.474759698, 0.508120418,
          0.231494159, 0.0989170745, 0.289481103, 0.508120418,
          0.216416135, 0.230434552, 0.29235673, 0.440303177, 0.337645292,
          0.252876043, 0.212172657, 0.440303177, 0.440303177,
          0.229043394, 0.191997722, 0.270466626, 0.432745844,
          0.432745844, 0.290699303, 0.18809329, 0.129232213, 0.432745844,
          0.432745844, 0.0119290473, 0.029042108, 0.449750364,
          0.510260701, 0.0958400369, 0.0240756404, 0.0279279966,
          0.510260701, 0.510260701, 0.0226068869, 0.355699211,
          0.418353468, 0.418353468, 0.36086303, 0.174047634, 0.418353468,
          0.418353468, 0.0905234143, 0.278666645, 0.353841633,
          0.353841633, 0.353841633, 0.353841633, 0.353841633,
          0.353841633, 0.353841633, 0.205869526, 0.0363764986,
          0.144563496, 0.415107965, 0.415107965, 0.322340965,
          0.0903016478, 0.415107965, 0.415107965, 0.415107965,
          0.0283021145, 0.120338604, 0.39537406, 0.39537406, 0.39537406,
          0.314424396, 0.39537406, 0.39537406, 0.316704571 ]
      - [ 0.375189036, 0.244481698, 0.375189036, 0.375189036,
          0.375189036, 0.0959619582, 0.287525207, 0.375189036,
          0.375189036, 0.301789492, 0.144392744, 0.397653192,
          0.397653192, 0.267643452, 0.147742897, 0.397653192,
          0.397653192, 0.397653192, 0.120030686, 0.176199138,
          0.385240406, 0.385240406, 0.385240406, 0.385240406,
          0.385240406, 0.268692374, 0.36939314, 0.302511364, 0.217967287,
          0.408956349, 0.408956349, 0.408956349, 0.0516762845,
          0.134145021, 0.408956349, 0.408956349, 0.303233325,
          0.336491674, 0.34634608, 0.34634608, 0.275134146, 0.34634608,
          0.34634608, 0.34634608, 0.340419888, 0.350589156, 0.350589156,
          0.350589156, 0.191628337, 0.350589156, 0.350589156,
          0.350589156, 0.315256268, 0.350589156, 0.239779845,
          0.254970819, 0.376696765, 0.376696765, 0.351199925,
          0.202209026, 0.376696765, 0.376696765, 0.376696765,
          0.341507286, 0.316271096, 0.341507286, 0.283143014,
          0.341507286, 0.341507286, 0.341507286, 0.341507286,
          0.341507286, 0.280966461, 0.347890109, 0.347890109,
          0.309797049, 0.308937937, 0.347890109, 0.347890109,
          0.347890109, 0.347890109 ]
      - [ 0.413715452, 0.413715452, 0.413715452, 0.102210224,
          0.413715452, 0.184584677, 0.292614162, 0.354452252,
          0.235472724, 0.0684602857, 0.0792908967, 0.0774738193,
          0.119075298, 0.48998332, 0.0601375811, 0.48998332, 0.48998332,
          0.48998332, 0.103996761, 0.0455910899, 0.434578866,
          0.434578866, 0.434578866, 0.100317612, 0.434578866,
          0.434578866, 0.168545261, 0.0552451611, 0.451549619,
          0.451549619, 0.144559607, 0.451549619, 0.129292369,
          0.451549619, 0.35778138, 0.105961442, 0.423190355, 0.085759677,
          0.264703244, 0.134646729, 0.423190355, 0.0690645352,
          0.423190355, 0.423190355, 0.423190355, 0.567456901,
          0.0133745186, 0.0247059278, 0.0104528181, 0.407921016,
          0.148540244, 0.298784822, 0.267738998, 0.567456901,
          0.115586795, 0.207551599, 0.419356644, 0.419356644,
          0.419356644, 0.129632264, 0.208010748, 0.419356644,
          0.419356644, 0.520217121, 0.0411132351, 0.0942797363,
          0.158418015, 0.580686808, 0.0492618047, 0.0755714774,
          0.096403487, 0.577297151, 0.454526156, 0.325059712,
          0.0758530945, 0.0442124531, 0.454526156, 0.454526156,
          0.195425645, 0.132365167, 0.454526156 ]
      - [ 0.378839821, 0.446808547, 0.446808547, 0.119185485, 0.43452841,
          0.446808547, 0.219605431, 0.0422054343, 0.00869922433,
          0.217472464, 0.366596907, 0.366596907, 0.360081345,
          0.366596907, 0.329467833, 0.366596907, 0.366596907, 0.19715254,
          0.0708838254, 0.0641989708, 0.374887466, 0.448637158,
          0.389460236, 0.0827313662, 0.448637158, 0.448637158,
          0.288933337, 0.0429214202, 0.535544574, 0.535544574,
          0.114754178, 0.535544574, 0.213119283, 0.155047283,
          0.215771884, 0.0565671809, 0.00173120166, 0.479352087,
          0.479352087, 0.142493233, 0.210263386, 0.107570633,
          0.479352087, 0.479352087, 0.00301065459, 0.162006229,
          0.377467871, 0.349837899, 0.278254986, 0.443768024,
          0.136821121, 0.443768024, 0.443768024, 0.132350832,
          0.0850600898, 0.477978081, 0.477978081, 0.140024766,
          0.206459105, 0.00619106367, 0.108939782, 0.477978081,
          0.477978081, 0.0702948868, 0.438842297, 0.465756387,
          0.150987446, 0.247115687, 0.230417103, 0.465756387,
          0.465756387, 0.100406952, 0.420983613, 0.420983613,
          0.228912503, 0.00114416843, 0.315991461, 0.420983613,
          0.420983613, 0.311874479, 0.193306014 ]
      - [ 0.354801357, 0.354801357, 0.298333943, 0.354801357,
          0.354801357, 0.354801357, 0.354801357, 0.273633033,
          0.277980179, 0.371320128, 0.371320128, 0.154145226,
          0.298151702, 0.237409651, 0.371320128, 0.371320128,
          0.371320128, 0.371320128, 0.247384802, 0.155697346,
          0.370133758, 0.370133758, 0.370133758, 0.358395725,
          0.333546132, 0.350948364, 0.370133758, 0.415151179,
          0.415151179, 0.415151179, 0.24849093, 0.151929379, 0.136335731,
          0.399760514, 0.207905263, 0.415151179, 0.404824555,
          0.404824555, 0.135134459, 0.156971186, 0.404824555,
          0.226927221, 0.404824555, 0.286607683, 0.404824555,
          0.431996167, 0.150431529, 0.192402825, 0.203313291,
          0.390731603, 0.19188948, 0.381241441, 0.431996167, 0.431996167,
          0.0879919901, 0.167999387, 0.470392376, 0.470392376,
          0.217378125, 0.129646763, 0.470392376, 0.470392376, 0.10098388,
          0.0897830799, 0.0445339791, 0.271257132, 0.439594001,
          0.439594001, 0.342812508, 0.439594001, 0.439594001,
          0.146602437, 0.149256945, 0.414741963, 0.414741963,
          0.414741963, 0.414741963, 0.36563766, 0.214632496, 0.211507112,
          0.247068018 ]
      - [ 0.470148176, 0.470148176, 0.0285823774, 0.0404051617,
          0.156729192, 0.470148176, 0.470148176, 0.0683496967,
          0.281889319, 0.413120836, 0.110640883, 0.0539762042,
          0.305876791, 0.413120836, 0.383864552, 0.413120836,
          0.239019409, 0.413120836, 0.493850768, 0.0630229115,
          0.493850768, 0.493850768, 0.111898258, 0.0153348166,
          0.0191120859, 0.0491925925, 0.493850768, 0.411424071,
          0.411424071, 0.21524924, 0.411424071, 0.254208922, 0.277926713,
          0.411424071, 0.285149008, 0.22204347, 0.446715593,
          0.0604524054, 0.0251287594, 0.128662914, 0.446715593,
          0.31266135, 0.446715593, 0.28057313, 0.446715593, 0.470280856,
          0.0753569528, 0.238897413, 0.188753724, 0.470280856,
          0.433316946, 0.174271479, 0.12368387, 0.470280856, 0.119649626,
          0.133567303, 0.275641918, 0.441645831, 0.441645831,
          0.233984664, 0.229130849, 0.441645831, 0.441645831,
          0.226310983, 0.211186513, 0.14610365, 0.398448229, 0.41350165,
          0.41350165, 0.41350165, 0.41350165, 0.189765736, 0.451506615,
          0.451506615, 0.166282088, 0.137738928, 0.451506615,
          0.436101615, 0.187600359, 0.186750159, 0.277559698 ]
      - [ 0.311797917, 0.454762369, 0.454762369, 0.0711809844,
          0.266553611, 0.454762369, 0.440375894, 0.0370803736,
          0.0799351409, 0.357499123, 0.357499123, 0.357499123,
          0.357499123, 0.357499123, 0.357499123, 0.154274955,
          0.279263228, 0.357499123, 0.10382583, 0.0459109433,
          0.306961268, 0.388394564, 0.367090374, 0.388394564,
          0.388394564, 0.388394564, 0.388394564, 0.382555157,
          0.382555157, 0.382555157, 0.382555157, 0.0951066613,
          0.224612907, 0.382555157, 0.382555157, 0.242056474,
          0.334407389, 0.334407389, 0.334407389, 0.334407389,
          0.334407389, 0.334407389, 0.319425255, 0.334407389,
          0.334407389, 0.157635674, 0.197581202, 0.146398634,
          0.280597597, 0.407889813, 0.407889813, 0.407889813,
          0.407889813, 0.407889813, 0.226037621, 0.426225662,
          0.426225662, 0.426225662, 0.171445429, 0.0494924635,
          0.0668174177, 0.426225662, 0.426225662, 0.342496485,
          0.342496485, 0.342496485, 0.342496485, 0.241137311,
          0.342496485, 0.342496485, 0.342496485, 0.342496485,
          0.421073645, 0.421073645, 0.070200555, 0.0838298723,
          0.280311882, 0.421073645, 0.421073645, 0.359214306, 0.25887534 ]
      - [ 0.359730124, 0.359730124, 0.269540876, 0.359730124,
          0.359730124, 0.359730124, 0.322199017, 0.208583251,
          0.359730124, 0.3684735, 0.38894999, 0.29946214, 0.38894999,
          0.38894999, 0.38894999, 0.327504218, 0.175059304, 0.166224763,
          0.284535319, 0.360704511, 0.360704511, 0.0714871734,
          0.360704511, 0.360109627, 0.360704511, 0.360704511,
          0.360704511, 0.381900877, 0.180260301, 0.136106357,
          0.381900877, 0.381900877, 0.381900877, 0.381900877,
          0.264719188, 0.381900877, 0.363191336, 0.363191336,
          0.363191336, 0.363191336, 0.363191336, 0.361317724,
          0.162327319, 0.219141349, 0.363191336, 0.362488717,
          0.362488717, 0.362488717, 0.362488717, 0.362488717,
          0.194357723, 0.197020561, 0.362488717, 0.362488717,
          0.474332154, 0.465135574, 0.131081238, 0.059045285,
          0.293969482, 0.103154503, 0.259617776, 0.379210085,
          0.474332154, 0.467407763, 0.451429546, 0.119507469,
          0.270438462, 0.420863569, 0.0889668763, 0.159370646,
          0.238209113, 0.467407763, 0.353180349, 0.247928604,
          0.353180349, 0.353180349, 0.353180349, 0.248693034,
          0.353180349, 0.353180349, 0.353180349 ]
      - [ 0.55741328, 0.514042437, 0.171642199, 0.188752174, 0.190738082,
          0.082449019, 0.0172018167, 0.0145535422, 0.55741328,
          0.503323019, 0.0419662558, 0.146786094, 0.411173224,
          0.105844565, 0.0396462269, 0.172699735, 0.503323019,
          0.503323019, 0.0621829331, 0.0794509724, 0.47478348,
          0.47478348, 0.22779952, 0.0869214758, 0.154768109, 0.47478348,
          0.47478348, 0.473400414, 0.473400414, 0.473400414, 0.473400414,
          0.294004053, 0.0792706758, 0.0308893863, 0.0160482191,
          0.0700424165, 0.251838714, 0.123472676, 0.164667249,
          0.268512905, 0.404493868, 0.404493868, 0.404493868,
          0.404493868, 0.404493868, 0.291446596, 0.407685995,
          0.147678897, 0.164744288, 0.176059693, 0.407685995,
          0.407685995, 0.407685995, 0.407685995, 0.0291177612,
          0.105055705, 0.48493579, 0.561684728, 0.561684728, 0.328113526,
          0.0432479829, 0.0404349379, 0.0721137673, 0.0923838094,
          0.239754394, 0.21040912, 0.220253006, 0.525788128, 0.525788128,
          0.525788128, 0.079867959, 0.0144988261, 0.39809528,
          0.467858523, 0.361369222, 0.0831570551, 0.203201294,
          0.467858523, 0.467858523, 0.0240746532, 0.0282692406 ]
      - [ 0.112950943, 0.47419855, 0.47419855, 0.190915093, 0.47419855,
          0.47419855, 0.206525609, 0.00611782493, 0.0625292808,
          0.256815553, 0.476660311, 0.476660311, 0.098604165,
          0.186820507, 0.116129205, 0.476660311, 0.372646272, 0.22515291,
          0.0971765965, 0.00349715538, 0.310309798, 0.537667394,
          0.394829392, 0.123822741, 0.537667394, 0.342742443,
          0.148376912, 0.0964244306, 0.592880666, 0.592880666,
          0.00403943332, 0.0350245088, 0.101248533, 0.267280549,
          0.422488481, 0.142609924, 0.000735591515, 0.55565691,
          0.55565691, 0.000616893056, 0.00157529395, 0.0287192333,
          0.55565691, 0.259534121, 0.00107251527, 0.0742202401,
          0.431963325, 0.475577801, 0.242722839, 0.107124202,
          0.0508405417, 0.615050435, 0.351427853, 0.0286432467,
          0.171655864, 0.465634823, 0.465634823, 0.116248123,
          0.285908103, 0.0098564392, 0.0571486391, 0.465634823,
          0.465634823, 0.233225957, 0.458200514, 0.458200514,
          0.211664543, 0.229159683, 0.315259546, 0.458200514,
          0.310517073, 0.134389073, 0.547917306, 0.547917306,
          0.0707066208, 0.00888680853, 0.01587441, 0.0760592818,
          0.547917306, 0.211432084, 0.195113257 ]
      - [ 0.370397717, 0.370397717, 0.370397717, 0.370397717,
          0.161430165, 0.103415176, 0.370397717, 0.370397717,
          0.369294226, 0.400020212, 0.400020212, 0.400020212,
          0.400020212, 0.400020212, 0.0678201243, 0.0820858553,
          0.15674527, 0.400020212, 0.451994866, 0.171953857, 0.106423467,
          0.222907364, 0.451994866, 0.406247616, 0.184116021,
          0.305072993, 0.451994866, 0.422843516, 0.11746683, 0.198153749,
          0.228991225, 0.422843516, 0.215679914, 0.422843516, 0.35856846,
          0.422843516, 0.467875779, 0.147434413, 0.240217581,
          0.467875779, 0.467875779, 0.196010649, 0.0377995372,
          0.0201348066, 0.467875779, 0.420801491, 0.051755473,
          0.0217018258, 0.305489451, 0.420801491, 0.420801491,
          0.118124574, 0.420801491, 0.420801491, 0.456356198,
          0.128287092, 0.0762983263, 0.240549922, 0.456356198,
          0.378149301, 0.304792792, 0.233708858, 0.456356198,
          0.406954616, 0.194199264, 0.406954616, 0.406954616,
          0.406954616, 0.3589966, 0.0342106, 0.0105833644, 0.406954616,
          0.417207301, 0.0504182428, 0.131731302, 0.417207301,
          0.417207301, 0.417207301, 0.137554377, 0.294459164,
          0.417207301 ]
      - [ 0.365970522, 0.365970522, 0.365970522, 0.334090948,
          0.365970522, 0.365970522, 0.271528602, 0.0859807879,
          0.365970522, 0.365657896, 0.0993378535, 0.365657896,
          0.365657896, 0.365657896, 0.365657896, 0.365657896,
          0.224808395, 0.365657896, 0.238224, 0.168907851, 0.412080824,
          0.412080824, 0.256151617, 0.143263295, 0.412080824,
          0.412080824, 0.381080747, 0.35479486, 0.35479486, 0.35479486,
          0.35479486, 0.35479486, 0.299185961, 0.304630101, 0.242625535,
          0.35479486, 0.371816069, 0.175240934, 0.19956392, 0.371816069,
          0.371816069, 0.310269445, 0.371816069, 0.371816069,
          0.371816069, 0.144524172, 0.501422763, 0.501422763,
          0.131213024, 0.16350241, 0.227390438, 0.41281414, 0.368898898,
          0.262863427, 0.37564683, 0.37564683, 0.37564683, 0.37564683,
          0.251847953, 0.16662997, 0.24164176, 0.37564683, 0.37564683,
          0.378410786, 0.378410786, 0.216010273, 0.161078438,
          0.253859222, 0.378410786, 0.378410786, 0.378410786,
          0.378410786, 0.403145075, 0.403145075, 0.403145075,
          0.165775374, 0.354462862, 0.403145075, 0.403145075,
          0.165497661, 0.0531796068 ]
      - [ 0.262889743, 0.379634768, 0.379634768, 0.379634768,
          0.379634768, 0.168389216, 0.379634768, 0.379634768,
          0.184407264, 0.379639715, 0.320781559, 0.322813809,
          0.206929371, 0.379639715, 0.160145059, 0.379639715,
          0.379639715, 0.379639715, 0.0945627093, 0.141234487,
          0.423149586, 0.423149586, 0.400079876, 0.159260526,
          0.255408436, 0.423149586, 0.423149586, 0.398238689,
          0.178431347, 0.398238689, 0.398238689, 0.398238689,
          0.0957761928, 0.058707606, 0.398238689, 0.398238689,
          0.271166027, 0.261684626, 0.433238357, 0.433238357,
          0.255486429, 0.120165862, 0.152207658, 0.433238357,
          0.433238357, 0.38202998, 0.38202998, 0.196908191, 0.247601807,
          0.297481418, 0.38202998, 0.38202998, 0.38202998, 0.279058933,
          0.344019324, 0.337827295, 0.370365113, 0.370365113,
          0.370365113, 0.133648261, 0.245172814, 0.370365113,
          0.370365113, 0.379605025, 0.0898436755, 0.205431536,
          0.379605025, 0.379605025, 0.285191119, 0.379605025,
          0.379605025, 0.379605025, 0.357896507, 0.357896507,
          0.357896507, 0.270224124, 0.357896507, 0.357896507,
          0.357896507, 0.163627371, 0.357896507 ]
      - [ 0.41196847, 0.41196847, 0.182035312, 0.215071306, 0.297384799,
          0.288668036, 0.41196847, 0.376941651, 0.305754632, 0.400192231,
          0.408785969, 0.190154359, 0.408785969, 0.304653674,
          0.0784049705, 0.179496169, 0.408785969, 0.408785969,
          0.291132599, 0.300167263, 0.375424236, 0.375424236,
          0.321418583, 0.115602843, 0.375424236, 0.375424236,
          0.375424236, 0.239142641, 0.413415045, 0.413415045,
          0.413415045, 0.413415045, 0.228464916, 0.413415045,
          0.173087403, 0.0443331227, 0.0729591101, 0.234977275,
          0.398813158, 0.256717384, 0.411278456, 0.411278456,
          0.411278456, 0.411278456, 0.183843985, 0.336348623,
          0.336348623, 0.336348623, 0.336348623, 0.336348623,
          0.336348623, 0.336348623, 0.336348623, 0.302648544,
          0.254724741, 0.413957894, 0.413957894, 0.211362243,
          0.103956476, 0.148903191, 0.413957894, 0.413957894,
          0.409734517, 0.379021406, 0.399979502, 0.399979502, 0.19925943,
          0.228100851, 0.220699102, 0.399979502, 0.399979502,
          0.268272758, 0.364993066, 0.364993066, 0.364993066,
          0.238810524, 0.318264157, 0.364993066, 0.364993066,
          0.364993066, 0.196751803 ]
      - [ 0.317744672, 0.245534793, 0.371174276, 0.371174276,
          0.192870557, 0.371174276, 0.371174276, 0.371174276,
          0.330139309, 0.343994826, 0.343994826, 0.223390907,
          0.343994826, 0.343994826, 0.343994826, 0.343994826,
          0.343994826, 0.343994826, 0.376548201, 0.355187416,
          0.236283451, 0.376548201, 0.376548201, 0.162096649,
          0.281126559, 0.376548201, 0.376548201, 0.382475317,
          0.382475317, 0.382475317, 0.382475317, 0.103310473,
          0.382475317, 0.382475317, 0.245950177, 0.217463002,
          0.406947613, 0.265944421, 0.0282554664, 0.202307388,
          0.406947613, 0.235477611, 0.406947613, 0.406947613,
          0.406947613, 0.396458983, 0.132320568, 0.393109649,
          0.396458983, 0.396458983, 0.216741294, 0.28510496, 0.258872569,
          0.396458983, 0.295952797, 0.348488808, 0.364268988,
          0.405340165, 0.405340165, 0.405340165, 0.294442922,
          0.175066277, 0.209713235, 0.165321484, 0.10320434,
          0.0685219914, 0.44660899, 0.44660899, 0.44660899, 0.44660899,
          0.28826046, 0.26819557, 0.319768786, 0.413523585, 0.413523585,
          0.285620868, 0.413523585, 0.393140107, 0.265092194,
          0.119291998, 0.244885236 ]
      - [ 0.38777864, 0.38777864, 0.38777864, 0.0615321696, 0.38777864,
          0.275695652, 0.32653299, 0.368789405, 0.268724889,
          0.0826543123, 0.132774919, 0.106390841, 0.230915368,
          0.474451303, 0.0757831857, 0.474451303, 0.474451303,
          0.474451303, 0.0668441132, 0.127675474, 0.423168182,
          0.423168182, 0.423168182, 0.15610145, 0.423168182, 0.423168182,
          0.235115483, 0.0642905459, 0.447991461, 0.447991461,
          0.211559042, 0.447991461, 0.123582698, 0.447991461,
          0.344067901, 0.100963585, 0.416441768, 0.0901982561,
          0.23532173, 0.251208067, 0.416441768, 0.045864217, 0.416441768,
          0.416441768, 0.416441768, 0.541343629, 0.0249025915,
          0.0276909508, 0.0406189375, 0.507906497, 0.130956456,
          0.242831156, 0.267143518, 0.541343629, 0.0925626978,
          0.321160674, 0.404309094, 0.404309094, 0.404309094,
          0.126709089, 0.225532219, 0.404309094, 0.404309094,
          0.481915176, 0.0316094719, 0.0760467201, 0.168628842,
          0.593178868, 0.110984199, 0.0618050396, 0.0822012573,
          0.593178868, 0.471270889, 0.277751356, 0.0972669348,
          0.079337433, 0.471270889, 0.442410856, 0.159246176,
          0.122541107, 0.471270889 ]
      - [ 0.253523558, 0.398388416, 0.398388416, 0.254584014,
          0.398388416, 0.398388416, 0.398388416, 0.248999402,
          0.106609054, 0.224526435, 0.381576866, 0.381576866,
          0.381576866, 0.381576866, 0.322267801, 0.381576866,
          0.278180927, 0.191128135, 0.296229601, 0.202484295,
          0.291164637, 0.472676277, 0.472676277, 0.12702103, 0.230712786,
          0.296279997, 0.421615839, 0.094974041, 0.186756551,
          0.474913031, 0.0974284112, 0.442238122, 0.474913031,
          0.474913031, 0.226139411, 0.136107624, 0.250267237,
          0.436621755, 0.436621755, 0.224389166, 0.27245149, 0.112982117,
          0.436621755, 0.436621755, 0.181948662, 0.195916861,
          0.0839024708, 0.289121807, 0.451819867, 0.451819867,
          0.125870422, 0.451819867, 0.451819867, 0.18456535, 0.181870252,
          0.331797481, 0.401643038, 0.401643038, 0.170967788,
          0.130405396, 0.401643038, 0.401643038, 0.401643038,
          0.347412229, 0.344406307, 0.347412229, 0.347412229,
          0.181786627, 0.347412229, 0.347412229, 0.347412229,
          0.347412229, 0.407618731, 0.375172198, 0.115332298,
          0.0451579988, 0.0952247903, 0.407618731, 0.407618731,
          0.407618731, 0.407618731 ]
      - [ 0.375382632, 0.375382632, 0.281694412, 0.173186511,
          0.375382632, 0.203547746, 0.375382632, 0.375382632,
          0.375382632, 0.04048758, 0.0184166525, 0.0462357886,
          0.234675482, 0.468539149, 0.240864009, 0.468539149,
          0.468539149, 0.468539149, 0.240790576, 0.200639769,
          0.405066311, 0.405066311, 0.405066311, 0.141664445,
          0.336914331, 0.405066311, 0.328362584, 0.218487456,
          0.289414942, 0.400284141, 0.253485709, 0.400284141,
          0.134494722, 0.400284141, 0.400284141, 0.375832319,
          0.462867111, 0.0101639377, 0.0253597144, 0.158337191,
          0.462867111, 0.178816929, 0.462867111, 0.28390184, 0.462867111,
          0.527985334, 0.00399131142, 0.0171667524, 0.0277212951,
          0.499986023, 0.199899152, 0.248313561, 0.290698588,
          0.527985334, 0.258980662, 0.0709095895, 0.373672634,
          0.506633639, 0.506633639, 0.183624581, 0.138201728, 0.20193781,
          0.419830889, 0.564826488, 0.0447196066, 0.0220244452,
          0.0634105206, 0.564826488, 0.239423379, 0.0412352905,
          0.0363325253, 0.538007498, 0.444576174, 0.354582518,
          0.0329162627, 0.0972245187, 0.444576174, 0.444576174,
          0.288781852, 0.106302083, 0.414313316 ]
      - [ 0.361073703, 0.361073703, 0.361073703, 0.302259922,
          0.261566997, 0.233171672, 0.361073703, 0.361073703,
          0.361073703, 0.339214683, 0.310487121, 0.339214683,
          0.339214683, 0.339214683, 0.339214683, 0.339214683,
          0.339214683, 0.307802022, 0.362875909, 0.362875909,
          0.362875909, 0.302654028, 0.16527237, 0.362875909, 0.362875909,
          0.295612365, 0.362875909, 0.206910297, 0.379919738,
          0.379919738, 0.379919738, 0.375003487, 0.379919738,
          0.379919738, 0.16493395, 0.25271818, 0.390736789, 0.390736789,
          0.390736789, 0.0728420392, 0.134250507, 0.390736789,
          0.390736789, 0.390736789, 0.238151118, 0.190779656,
          0.0852869377, 0.410161018, 0.410161018, 0.380002886,
          0.157093525, 0.410161018, 0.410161018, 0.331998616,
          0.348318994, 0.330700934, 0.348318994, 0.348318994, 0.21845752,
          0.348318994, 0.333880782, 0.348318994, 0.348318994,
          0.0766262487, 0.293677956, 0.405157954, 0.405157954,
          0.251394272, 0.405157954, 0.405157954, 0.405157954,
          0.140962467, 0.435785115, 0.435785115, 0.167494774, 0.12016134,
          0.162466407, 0.435785115, 0.435785115, 0.372606695,
          0.168190047 ]
      - [ 0.353270441, 0.353270441, 0.310453743, 0.353270441,
          0.353270441, 0.353270441, 0.315580398, 0.227371827,
          0.353270441, 0.433327764, 0.433327764, 0.433327764,
          0.158817872, 0.433327764, 0.433327764, 0.133748174, 0.07793843,
          0.0872949809, 0.22827898, 0.0730046406, 0.0465308763,
          0.0398736671, 0.586423695, 0.586423695, 0.465760857,
          0.132225856, 0.103663824, 0.372207999, 0.372207999,
          0.327143848, 0.29646799, 0.372207999, 0.372207999, 0.353392422,
          0.084488757, 0.339389533, 0.475017607, 0.475017607,
          0.144191042, 0.185358793, 0.475017607, 0.475017607,
          0.134995714, 0.0474799275, 0.130619392, 0.568605185,
          0.134043768, 0.0480551757, 0.071382381, 0.459606081,
          0.237926707, 0.14839372, 0.180162176, 0.568605185, 0.401459932,
          0.401459932, 0.401459932, 0.185282484, 0.401459932,
          0.331592143, 0.251468599, 0.0681590214, 0.373020321,
          0.408058167, 0.408058167, 0.408058167, 0.339394182,
          0.408058167, 0.408058167, 0.201127633, 0.0805824324,
          0.0350980982, 0.480222523, 0.117100231, 0.045307111,
          0.305486858, 0.505432546, 0.505432546, 0.148887083,
          0.149345279, 0.31599918 ]
      - [ 0.14003925, 0.373196185, 0.437745333, 0.141174912, 0.406628221,
          0.437745333, 0.437745333, 0.16944541, 0.218836576, 0.420086443,
          0.420086443, 0.420086443, 0.116659291, 0.120379776,
          0.112250969, 0.420086443, 0.420086443, 0.269702733,
          0.0306137297, 0.0355304591, 0.329226762, 0.46723333,
          0.46723333, 0.105446264, 0.46723333, 0.46723333, 0.0199088063,
          0.0382766761, 0.505524993, 0.505524993, 0.0353173763,
          0.110858262, 0.381495893, 0.505524993, 0.249300718,
          0.0747842416, 0.000866811082, 0.497072339, 0.499273151,
          0.00861150678, 0.00177673739, 0.0056915232, 0.499273151,
          0.499273151, 0.00106243498, 0.144681171, 0.467503101,
          0.28512159, 0.0913191736, 0.0947432593, 0.021937849,
          0.57005024, 0.57005024, 0.0762246326, 0.177660093, 0.408431053,
          0.44039169, 0.44039169, 0.0981717035, 0.0198045429,
          0.106829531, 0.44039169, 0.44039169, 0.17965059, 0.384233803,
          0.407455891, 0.368348807, 0.375737846, 0.156767607,
          0.407455891, 0.407455891, 0.128540918, 0.461591303,
          0.461591303, 0.107072584, 0.105887517, 0.282853216,
          0.128061771, 0.461591303, 0.461591303, 0.155051246 ]
      - [ 0.448059171, 0.448059171, 0.448059171, 0.156568199,
          0.139699787, 0.279238254, 0.448059171, 0.250227123,
          0.0887637958, 0.493637323, 0.422513664, 0.169746608,
          0.134058997, 0.280385256, 0.135868788, 0.0692874789,
          0.424892455, 0.493637323, 0.161420807, 0.108150758,
          0.462746203, 0.462746203, 0.083210282, 0.0337551907,
          0.305000007, 0.462746203, 0.462746203, 0.0508217402,
          0.571163893, 0.571163893, 0.331312954, 0.0949139744,
          0.341186404, 0.303263992, 0.0807670131, 0.0746980533,
          0.191862598, 0.530810535, 0.530810535, 0.530810535,
          0.219412521, 0.134639725, 0.0830482468, 0.178958386,
          0.0861130953, 0.145797446, 0.319150418, 0.184398383,
          0.153104171, 0.144559979, 0.445559829, 0.445559829,
          0.445559829, 0.445559829, 0.0802036822, 0.175474137,
          0.497819752, 0.497819752, 0.201326847, 0.103255443,
          0.149726629, 0.497819752, 0.375124484, 0.0237996653,
          0.133516133, 0.468813658, 0.496579379, 0.496579379,
          0.496579379, 0.115574978, 0.0528105721, 0.0306836497,
          0.240575209, 0.451384783, 0.311013132, 0.141236305,
          0.451384783, 0.451384783, 0.451384783, 0.0699819997,
          0.0323670208 ]
      - [ 0.275571316, 0.403307885, 0.403307885, 0.0423847884,
          0.289343387, 0.403307885, 0.403307885, 0.197120219,
          0.380828023, 0.258690953, 0.485373795, 0.485373795,
          0.0526646338, 0.0675115734, 0.0731336921, 0.485373795,
          0.43741858, 0.132109821, 0.333440691, 0.0930301622,
          0.230095655, 0.437694609, 0.36256364, 0.110462829, 0.437694609,
          0.437694609, 0.323206693, 0.367281437, 0.409583151,
