<?xml version="1.0"?>
<opencv_storage>
<opencv_ml_rtrees>
  <format>3</format>
  <is_classifier>1</is_classifier>
  <var_all>581</var_all>
  <var_count>580</var_count>
  <ord_var_count>580</ord_var_count>
  <cat_var_count>1</cat_var_count>
  <training_params>
    <use_surrogates>0</use_surrogates>
    <max_categories>15</max_categories>
    <regression_accuracy>0.</regression_accuracy>
    <max_depth>25</max_depth>
    <min_sample_count>2</min_sample_count>
    <cross_validation_folds>0</cross_validation_folds>
    <nactive_vars>0</nactive_vars></training_params>
  <global_var_idx>1</global_var_idx>
  <var_idx>
    0 1 2 3 4 5 6 7 8 9 10 11 12 13 14 15 16 17 18 19 20 21 22 23 24 25
    26 27 28 29 30 31 32 33 34 35 36 37 38 39 40 41 42 43 44 45 46 47 48
    49 50 51 52 53 54 55 56 57 58 59 60 61 62 63 64 65 66 67 68 69 70 71
    72 73 74 75 76 77 78 79 80 81 82 83 84 85 86 87 88 89 90 91 92 93 94
    95 96 97 98 99 100 101 102 103 104 105 106 107 108 109 110 111 112
    113 114 115 116 117 118 119 120 121 122 123 124 125 126 127 128 129
    130 131 132 133 134 135 136 137 138 139 140 141 142 143 144 145 146
    147 148 149 150 151 152 153 154 155 156 157 158 159 160 161 162 163
    164 165 166 167 168 169 170 171 172 173 174 175 176 177 178 179 180
    181 182 183 184 185 186 187 188 189 190 191 192 193 194 195 196 197
    198 199 200 201 202 203 204 205 206 207 208 209 210 211 212 213 214
    215 216 217 218 219 220 221 222 223 224 225 226 227 228 229 230 231
    232 233 234 235 236 237 238 239 240 241 242 243 244 245 246 247 248
    249 250 251 252 253 254 255 256 257 258 259 260 261 262 263 264 265
    266 267 268 269 270 271 272 273 274 275 276 277 278 279 280 281 282
    283 284 285 286 287 288 289 290 291 292 293 294 295 296 297 298 299
    300 301 302 303 304 305 306 307 308 309 310 311 312 313 314 315 316
    317 318 319 320 321 322 323 324 325 326 327 328 329 330 331 332 333
    334 335 336 337 338 339 340 341 342 343 344 345 346 347 348 349 350
    351 352 353 354 355 356 357 358 359 360 361 362 363 364 365 366 367
    368 369 370 371 372 373 374 375 376 377 378 379 380 381 382 383 384
    385 386 387 388 389 390 391 392 393 394 395 396 397 398 399 400 401
    402 403 404 405 406 407 408 409 410 411 412 413 414 415 416 417 418
    419 420 421 422 423 424 425 426 427 428 429 430 431 432 433 434 435
    436 437 438 439 440 441 442 443 444 445 446 447 448 449 450 451 452
    453 454 455 456 457 458 459 460 461 462 463 464 465 466 467 468 469
    470 471 472 473 474 475 476 477 478 479 480 481 482 483 484 485 486
    487 488 489 490 491 492 493 494 495 496 497 498 499 500 501 502 503
    504 505 506 507 508 509 510 511 512 513 514 515 516 517 518 519 520
    521 522 523 524 525 526 527 528 529 530 531 532 533 534 535 536 537
    538 539 540 541 542 543 544 545 546 547 548 549 550 551 552 553 554
    555 556 557 558 559 560 561 562 563 564 565 566 567 568 569 570 571
    572 573 574 575 576 577 578 579</var_idx>
  <var_type>
    0 0 0 0 0 0 0 0 0 0 0 0 0 0 0 0 0 0 0 0 0 0 0 0 0 0 0 0 0 0 0 0 0 0
    0 0 0 0 0 0 0 0 0 0 0 0 0 0 0 0 0 0 0 0 0 0 0 0 0 0 0 0 0 0 0 0 0 0
    0 0 0 0 0 0 0 0 0 0 0 0 0 0 0 0 0 0 0 0 0 0 0 0 0 0 0 0 0 0 0 0 0 0
    0 0 0 0 0 0 0 0 0 0 0 0 0 0 0 0 0 0 0 0 0 0 0 0 0 0 0 0 0 0 0 0 0 0
    0 0 0 0 0 0 0 0 0 0 0 0 0 0 0 0 0 0 0 0 0 0 0 0 0 0 0 0 0 0 0 0 0 0
    0 0 0 0 0 0 0 0 0 0 0 0 0 0 0 0 0 0 0 0 0 0 0 0 0 0 0 0 0 0 0 0 0 0
    0 0 0 0 0 0 0 0 0 0 0 0 0 0 0 0 0 0 0 0 0 0 0 0 0 0 0 0 0 0 0 0 0 0
    0 0 0 0 0 0 0 0 0 0 0 0 0 0 0 0 0 0 0 0 0 0 0 0 0 0 0 0 0 0 0 0 0 0
    0 0 0 0 0 0 0 0 0 0 0 0 0 0 0 0 0 0 0 0 0 0 0 0 0 0 0 0 0 0 0 0 0 0
    0 0 0 0 0 0 0 0 0 0 0 0 0 0 0 0 0 0 0 0 0 0 0 0 0 0 0 0 0 0 0 0 0 0
    0 0 0 0 0 0 0 0 0 0 0 0 0 0 0 0 0 0 0 0 0 0 0 0 0 0 0 0 0 0 0 0 0 0
    0 0 0 0 0 0 0 0 0 0 0 0 0 0 0 0 0 0 0 0 0 0 0 0 0 0 0 0 0 0 0 0 0 0
    0 0 0 0 0 0 0 0 0 0 0 0 0 0 0 0 0 0 0 0 0 0 0 0 0 0 0 0 0 0 0 0 0 0
    0 0 0 0 0 0 0 0 0 0 0 0 0 0 0 0 0 0 0 0 0 0 0 0 0 0 0 0 0 0 0 0 0 0
    0 0 0 0 0 0 0 0 0 0 0 0 0 0 0 0 0 0 0 0 0 0 0 0 0 0 0 0 0 0 0 0 0 0
    0 0 0 0 0 0 0 0 0 0 0 0 0 0 0 0 0 0 0 0 0 0 0 0 0 0 0 0 0 0 0 0 0 0
    0 0 0 0 0 0 0 0 0 0 0 0 0 0 0 0 0 0 0 0 0 0 0 0 0 0 0 0 0 0 0 0 0 0
    0 0 1</var_type>
  <cat_ofs>
    0 0 0 0 0 0 0 0 0 0 0 0 0 0 0 0 0 0 0 0 0 0 0 0 0 0 0 0 0 0 0 0 0 0
    0 0 0 0 0 0 0 0 0 0 0 0 0 0 0 0 0 0 0 0 0 0 0 0 0 0 0 0 0 0 0 0 0 0
    0 0 0 0 0 0 0 0 0 0 0 0 0 0 0 0 0 0 0 0 0 0 0 0 0 0 0 0 0 0 0 0 0 0
    0 0 0 0 0 0 0 0 0 0 0 0 0 0 0 0 0 0 0 0 0 0 0 0 0 0 0 0 0 0 0 0 0 0
    0 0 0 0 0 0 0 0 0 0 0 0 0 0 0 0 0 0 0 0 0 0 0 0 0 0 0 0 0 0 0 0 0 0
    0 0 0 0 0 0 0 0 0 0 0 0 0 0 0 0 0 0 0 0 0 0 0 0 0 0 0 0 0 0 0 0 0 0
    0 0 0 0 0 0 0 0 0 0 0 0 0 0 0 0 0 0 0 0 0 0 0 0 0 0 0 0 0 0 0 0 0 0
    0 0 0 0 0 0 0 0 0 0 0 0 0 0 0 0 0 0 0 0 0 0 0 0 0 0 0 0 0 0 0 0 0 0
    0 0 0 0 0 0 0 0 0 0 0 0 0 0 0 0 0 0 0 0 0 0 0 0 0 0 0 0 0 0 0 0 0 0
    0 0 0 0 0 0 0 0 0 0 0 0 0 0 0 0 0 0 0 0 0 0 0 0 0 0 0 0 0 0 0 0 0 0
    0 0 0 0 0 0 0 0 0 0 0 0 0 0 0 0 0 0 0 0 0 0 0 0 0 0 0 0 0 0 0 0 0 0
    0 0 0 0 0 0 0 0 0 0 0 0 0 0 0 0 0 0 0 0 0 0 0 0 0 0 0 0 0 0 0 0 0 0
    0 0 0 0 0 0 0 0 0 0 0 0 0 0 0 0 0 0 0 0 0 0 0 0 0 0 0 0 0 0 0 0 0 0
    0 0 0 0 0 0 0 0 0 0 0 0 0 0 0 0 0 0 0 0 0 0 0 0 0 0 0 0 0 0 0 0 0 0
    0 0 0 0 0 0 0 0 0 0 0 0 0 0 0 0 0 0 0 0 0 0 0 0 0 0 0 0 0 0 0 0 0 0
    0 0 0 0 0 0 0 0 0 0 0 0 0 0 0 0 0 0 0 0 0 0 0 0 0 0 0 0 0 0 0 0 0 0
    0 0 0 0 0 0 0 0 0 0 0 0 0 0 0 0 0 0 0 0 0 0 0 0 0 0 0 0 0 0 0 0 0 0
    0 0 0 0 0 0 0 0 0 0 0 0 0 0 0 0 0 0 0 0 0 0 0 0 0 0 0 0 0 0 0 0 0 0
    0 0 0 0 0 0 0 0 0 0 0 0 0 0 0 0 0 0 0 0 0 0 0 0 0 0 0 0 0 0 0 0 0 0
    0 0 0 0 0 0 0 0 0 0 0 0 0 0 0 0 0 0 0 0 0 0 0 0 0 0 0 0 0 0 0 0 0 0
    0 0 0 0 0 0 0 0 0 0 0 0 0 0 0 0 0 0 0 0 0 0 0 0 0 0 0 0 0 0 0 0 0 0
    0 0 0 0 0 0 0 0 0 0 0 0 0 0 0 0 0 0 0 0 0 0 0 0 0 0 0 0 0 0 0 0 0 0
    0 0 0 0 0 0 0 0 0 0 0 0 0 0 0 0 0 0 0 0 0 0 0 0 0 0 0 0 0 0 0 0 0 0
    0 0 0 0 0 0 0 0 0 0 0 0 0 0 0 0 0 0 0 0 0 0 0 0 0 0 0 0 0 0 0 0 0 0
    0 0 0 0 0 0 0 0 0 0 0 0 0 0 0 0 0 0 0 0 0 0 0 0 0 0 0 0 0 0 0 0 0 0
    0 0 0 0 0 0 0 0 0 0 0 0 0 0 0 0 0 0 0 0 0 0 0 0 0 0 0 0 0 0 0 0 0 0
    0 0 0 0 0 0 0 0 0 0 0 0 0 0 0 0 0 0 0 0 0 0 0 0 0 0 0 0 0 0 0 0 0 0
    0 0 0 0 0 0 0 0 0 0 0 0 0 0 0 0 0 0 0 0 0 0 0 0 0 0 0 0 0 0 0 0 0 0
    0 0 0 0 0 0 0 0 0 0 0 0 0 0 0 0 0 0 0 0 0 0 0 0 0 0 0 0 0 0 0 0 0 0
    0 0 0 0 0 0 0 0 0 0 0 0 0 0 0 0 0 0 0 0 0 0 0 0 0 0 0 0 0 0 0 0 0 0
    0 0 0 0 0 0 0 0 0 0 0 0 0 0 0 0 0 0 0 0 0 0 0 0 0 0 0 0 0 0 0 0 0 0
    0 0 0 0 0 0 0 0 0 0 0 0 0 0 0 0 0 0 0 0 0 0 0 0 0 0 0 0 0 0 0 0 0 0
    0 0 0 0 0 0 0 0 0 0 0 0 0 0 0 0 0 0 0 0 0 0 0 0 0 0 0 0 0 0 0 0 0 0
    0 0 0 0 0 0 0 0 0 0 0 0 0 0 0 0 0 0 0 0 0 0 0 0 0 0 0 0 0 0 0 0 0 0
    0 0 0 0</cat_ofs>
  <class_labels>
    0 1 2 3 4 5</class_labels>
  <missing_subst>
    0. 0. 0. 0. 0. 0. 0. 0. 0. 0. 0. 0. 0. 0. 0. 0. 0. 0. 0. 0. 0. 0. 0.
    0. 0. 0. 0. 0. 0. 0. 0. 0. 0. 0. 0. 0. 0. 0. 0. 0. 0. 0. 0. 0. 0. 0.
    0. 0. 0. 0. 0. 0. 0. 0. 0. 0. 0. 0. 0. 0. 0. 0. 0. 0. 0. 0. 0. 0. 0.
    0. 0. 0. 0. 0. 0. 0. 0. 0. 0. 0. 0. 0. 0. 0. 0. 0. 0. 0. 0. 0. 0. 0.
    0. 0. 0. 0. 0. 0. 0. 0. 0. 0. 0. 0. 0. 0. 0. 0. 0. 0. 0. 0. 0. 0. 0.
    0. 0. 0. 0. 0. 0. 0. 0. 0. 0. 0. 0. 0. 0. 0. 0. 0. 0. 0. 0. 0. 0. 0.
    0. 0. 0. 0. 0. 0. 0. 0. 0. 0. 0. 0. 0. 0. 0. 0. 0. 0. 0. 0. 0. 0. 0.
    0. 0. 0. 0. 0. 0. 0. 0. 0. 0. 0. 0. 0. 0. 0. 0. 0. 0. 0. 0. 0. 0. 0.
    0. 0. 0. 0. 0. 0. 0. 0. 0. 0. 0. 0. 0. 0. 0. 0. 0. 0. 0. 0. 0. 0. 0.
    0. 0. 0. 0. 0. 0. 0. 0. 0. 0. 0. 0. 0. 0. 0. 0. 0. 0. 0. 0. 0. 0. 0.
    0. 0. 0. 0. 0. 0. 0. 0. 0. 0. 0. 0. 0. 0. 0. 0. 0. 0. 0. 0. 0. 0. 0.
    0. 0. 0. 0. 0. 0. 0. 0. 0. 0. 0. 0. 0. 0. 0. 0. 0. 0. 0. 0. 0. 0. 0.
    0. 0. 0. 0. 0. 0. 0. 0. 0. 0. 0. 0. 0. 0. 0. 0. 0. 0. 0. 0. 0. 0. 0.
    0. 0. 0. 0. 0. 0. 0. 0. 0. 0. 0. 0. 0. 0. 0. 0. 0. 0. 0. 0. 0. 0. 0.
    0. 0. 0. 0. 0. 0. 0. 0. 0. 0. 0. 0. 0. 0. 0. 0. 0. 0. 0. 0. 0. 0. 0.
    0. 0. 0. 0. 0. 0. 0. 0. 0. 0. 0. 0. 0. 0. 0. 0. 0. 0. 0. 0. 0. 0. 0.
    0. 0. 0. 0. 0. 0. 0. 0. 0. 0. 0. 0. 0. 0. 0. 0. 0. 0. 0. 0. 0. 0. 0.
    0. 0. 0. 0. 0. 0. 0. 0. 0. 0. 0. 0. 0. 0. 0. 0. 0. 0. 0. 0. 0. 0. 0.
    0. 0. 0. 0. 0. 0. 0. 0. 0. 0. 0. 0. 0. 0. 0. 0. 0. 0. 0. 0. 0. 0. 0.
    0. 0. 0. 0. 0. 0. 0. 0. 0. 0. 0. 0. 0. 0. 0. 0. 0. 0. 0. 0. 0. 0. 0.
    0. 0. 0. 0. 0. 0. 0. 0. 0. 0. 0. 0. 0. 0. 0. 0. 0. 0. 0. 0. 0. 0. 0.
    0. 0. 0. 0. 0. 0. 0. 0. 0. 0. 0. 0. 0. 0. 0. 0. 0. 0. 0. 0. 0. 0. 0.
    0. 0. 0. 0. 0. 0. 0. 0. 0. 0. 0. 0. 0. 0. 0. 0. 0. 0. 0. 0. 0. 0. 0.
    0. 0. 0. 0. 0. 0. 0. 0. 0. 0. 0. 0. 0. 0. 0. 0. 0. 0. 0. 0. 0. 0. 0.
    0. 0. 0. 0. 0. 0. 0. 0. 0. 0. 0. 0. 0. 0. 0. 0. 0. 0. 0. 0. 0. 0. 0.
    0. 0. 0. 0. 0. 0.</missing_subst>
  <oob_error>0.0084033613445378148</oob_error>
  <var_importance>
    0.00159910996 0.00169181207 0.00159910996 0.00159910996
    0.00159910996 0.00166863657 0.00159910996 0.00159910996
    0.00159910996 0.00164546107 0.00173816306 0.00159910996
    0.00166863657 0.00159910996 0.00159910996 0.00159910996
    0.00162228558 0.00159910996 0.00162228558 0.00159910996
    0.00159910996 0.00159910996 0.00159910996 0.00159910996
    0.00159910996 0.00159910996 0.00159910996 0.00159910996
    0.00159910996 0.00159910996 0.00159910996 0.00159910996
    0.00159910996 0.00162228558 0.00159910996 0.00159910996
    0.00159910996 0.00159910996 0.00159910996 0.00159910996
    0.00159910996 0.00159910996 0.00159910996 0.00159910996
    0.00159910996 0.00159910996 0.00159910996 0.00159910996
    0.00159910996 0.00159910996 0.00159910996 0.00159910996
    0.00159910996 0.00159910996 0.00159910996 0.00157593447
    0.00159910996 0.00159910996 0.00159910996 0.00159910996
    0.00159910996 0.00159910996 0.00159910996 0.00159910996
    0.00173816306 0.00159910996 0.00159910996 0.00159910996
    0.00159910996 0.00159910996 0.00159910996 0.00159910996
    0.00159910996 0.00159910996 0.00159910996 0.00159910996
    0.00159910996 0.00159910996 0.00159910996 0.00159910996
    0.00159910996 0.00159910996 0.00159910996 0.00159910996
    0.00159910996 0.00159910996 0.00159910996 0.00159910996
    0.00159910996 0.00159910996 0.00159910996 0.00159910996
    0.00159910996 0.00159910996 0.00159910996 0.00159910996
    0.00159910996 0.00159910996 0.00159910996 0.00159910996
    0.00159910996 0.00159910996 0.00159910996 0.00159910996
    0.00159910996 0.00159910996 0.00159910996 0.00159910996
    0.00159910996 0.00159910996 0.00159910996 0.00159910996
    0.00159910996 0.00192356715 0.00159910996 0.00159910996
    0.00159910996 0.00159910996 0.00159910996 0.00159910996
    0.00159910996 0.00159910996 0.00159910996 0.00159910996
    0.00159910996 0.00159910996 0.00159910996 0.00159910996
    0.00159910996 0.00159910996 0.00159910996 0.00166863657
    0.00210897112 0.00159910996 0.00159910996 0.00159910996
    0.00159910996 0.00159910996 0.00159910996 0.00159910996
    0.00159910996 0.00159910996 0.00159910996 0.00159910996
    0.00164546107 0.00159910996 0.00159910996 0.00259565678
    0.00194674265 0.00159910996 0.00180768955 0.00159910996
    0.00234072632 0.00231755082 0.00375443231 0.00734663568 0.00273471
    0.00159910996 0.00159910996 0.00159910996 0.00164546107
    0.00159910996 0.00199309364 0.00159910996 0.00159910996
    0.00159910996 0.00159910996 0.00159910996 0.00159910996
    0.00159910996 0.00159910996 0.00159910996 0.00159910996
    0.00159910996 0.00159910996 0.00159910996 0.00159910996
    0.00229437533 0.00159910996 0.00159910996 0.00159910996
    0.00159910996 0.00159910996 0.00159910996 0.00159910996
    0.00159910996 0.00159910996 0.00159910996 0.00159910996
    0.00159910996 0.00159910996 0.00159910996 0.00159910996
    0.00159910996 0.00159910996 0.00159910996 0.00159910996
    0.00159910996 0.00159910996 0.00159910996 0.00159910996
    0.00159910996 0.00159910996 0.00159910996 0.00159910996
    0.00159910996 0.00159910996 0.00159910996 0.00196991814
    0.00159910996 0.00176133856 0.00159910996 0.00159910996
    0.00159910996 0.00159910996 0.00159910996 0.00159910996
    0.00159910996 0.00159910996 0.00159910996 0.00159910996
    0.00159910996 0.00159910996 0.00159910996 0.00159910996
    0.00159910996 0.00162228558 0.00159910996 0.00190039165
    0.00159910996 0.00159910996 0.00176133856 0.00159910996
    0.00159910996 0.00268835877 0.00217849761 0.00187721616
    0.00159910996 0.00159910996 0.00159910996 0.00159910996
    0.00194674265 0.00190039165 0.00159910996 0.00159910996
    0.00159910996 0.00159910996 0.00159910996 0.00178451405
    0.00210897112 0.00213214662 0.00338362413 0.00159910996
    0.00370808132 0.00159910996 0.00159910996 0.00159910996
    0.00176133856 0.00159910996 0.00159910996 0.00159910996
    0.00159910996 0.00213214662 0.00159910996 0.00164546107
    0.00169181207 0.00187721616 0.00159910996 0.00159910996
    0.00159910996 0.00183086505 0.00159910996 0.00159910996
    0.00159910996 0.00164546107 0.00159910996 0.00194674265
    0.00159910996 0.00178451405 0.00159910996 0.00159910996
    0.00206262013 0.00159910996 0.00159910996 0.00159910996
    0.00159910996 0.00159910996 0.00159910996 0.00159910996
    0.00159910996 0.00159910996 0.00159910996 0.00159910996
    0.00159910996 0.00159910996 0.00159910996 0.00438017072
    0.00159910996 0.00203944463 0.00176133856 0.00159910996
    0.00159910996 0.00159910996 0.00162228558 0.00199309364 0.00273471
    0.00166863657 0.00280423649 0.00159910996 0.00164546107
    0.00159910996 0.00159910996 0.00159910996 0.00166863657
    0.00187721616 0.00159910996 0.00159910996 0.00159910996
    0.00215532212 0.00227119983 0.00162228558 0.00159910996
    0.00159910996 0.00282741198 0.00159910996 0.00159910996
    0.00190039165 0.00259565678 0.00220167311 0.00169181207
    0.00159910996 0.00194674265 0.00238707731 0.00159910996
    0.00159910996 0.00159910996 0.00159910996 0.00162228558
    0.00159910996 0.00159910996 0.00159910996 0.00159910996
    0.00159910996 0.00159910996 0.00159910996 0.00159910996
    0.00159910996 0.00159910996 0.00173816306 0.00159910996
    0.00159910996 0.00169181207 0.00159910996 0.00171498756
    0.00159910996 0.00159910996 0.00159910996 0.00166863657
    0.00157593447 0.00171498756 0.00159910996 0.00159910996
    0.00159910996 0.00157593447 0.00171498756 0.00159910996
    0.00169181207 0.00159910996 0.00159910996 0.00159910996
    0.00159910996 0.00159910996 0.00159910996 0.00159910996
    0.00159910996 0.00349950162 0.00159910996 0.0024797793 0.00159910996
    0.00159910996 0.00159910996 0.00159910996 0.00159910996
    0.00159910996 0.00159910996 0.00162228558 0.00194674265
    0.00159910996 0.00159910996 0.00162228558 0.00159910996
    0.00159910996 0.00157593447 0.00159910996 0.00159910996
    0.00187721616 0.00159910996 0.00227119983 0.00159910996
    0.00159910996 0.00159910996 0.00159910996 0.00159910996
    0.00159910996 0.00322139566 0.00162228558 0.00159910996
    0.00169181207 0.00159910996 0.00159910996 0.00157593447
    0.00159910996 0.00159910996 0.00159910996 0.00159910996
    0.00159910996 0.00166863657 0.00273471 0.00159910996 0.00159910996
    0.00159910996 0.00162228558 0.00305916695 0.00159910996
    0.00162228558 0.00159910996 0.00273471 0.00178451405 0.00206262013
    0.00159910996 0.00185404066 0.00215532212 0.00159910996
    0.00171498756 0.00206262013 0.00164546107 0.00173816306
    0.00159910996 0.00159910996 0.00227119983 0.00171498756
    0.00159910996 0.00183086505 0.00190039165 0.00159910996
    0.00159910996 0.00159910996 0.00159910996 0.00159910996
    0.00159910996 0.00159910996 0.00159910996 0.00159910996
    0.00162228558 0.00261883228 0.00159910996 0.00159910996
    0.00159910996 0.00159910996 0.00159910996 0.00331409764
    0.00210897112 0.00185404066 0.00625738688 0.00159910996
    0.00159910996 0.00159910996 0.00162228558 0.00159910996
    0.00159910996 0.00159910996 0.00254930579 0.00159910996
    0.00159910996 0.00171498756 0.00159910996 0.00159910996
    0.00159910996 0.00159910996 0.00159910996 0.00159910996
    0.00159910996 0.00176133856 0.00159910996 0.00159910996
    0.00206262013 0.00159910996 0.00190039165 0.00159910996
    0.00157593447 0.00159910996 0.00159910996 0.00162228558
    0.00159910996 0.00159910996 0.00155275897 0.00196991814
    0.00159910996 0.00159910996 0.00194674265 0.00164546107
    0.00183086505 0.00159910996 0.00159910996 0.00159910996
    0.00159910996 0.00159910996 0.00159910996 0.00292011397
    0.00159910996 0.00173816306 0.00159910996 0.00229437533
    0.00159910996 0.00159910996 0.00208579563 0.00312869344
    0.00252613029 0.00178451405 0.00185404066 0.00159910996
    0.00159910996 0.00159910996 0.00192356715 0.00159910996
    0.00224802434 0.00183086505 0.00159910996 0.00159910996
    0.00159910996 0.00159910996 0.00159910996 0.00159910996
    0.00159910996 0.00159910996 0.00162228558 0.00159910996
    0.00159910996 0.00159910996 0.00176133856 0.00162228558
    0.00159910996 0.00162228558 0.00159910996 0.00164546107
    0.00159910996 0.00159910996 0.00159910996 0.00169181207
    0.00159910996 0.00159910996 0.00159910996 0.0024566038 0.00159910996
    0.00159910996 0.00159910996 0.00159910996 0.00157593447
    0.00176133856 0.00196991814 0.00196991814 0.00159910996
    0.00166863657 0.00159910996 0.00159910996 0.00159910996
    0.00159910996 0.00159910996 0.00159910996 0.00159910996
    0.00159910996 0.00159910996 0.00162228558 0.00159910996
    0.00159910996 0.00159910996 0.00159910996 0.00201626914
    0.00159910996 0.00159910996</var_importance>
  <ntrees>11</ntrees>
  <trees>
    <_>
      <nodes>
        <_>
          <depth>0</depth>
          <value>0.</value>
          <norm_class_idx>0</norm_class_idx>
          <splits>
            <_><var>463</var>
              <quality>221.6162109375</quality>
              <le>0.27259042859077454</le></_></splits></_>
        <_>
          <depth>1</depth>
          <value>0.</value>
          <norm_class_idx>0</norm_class_idx>
          <splits>
            <_><var>251</var>
              <quality>199.37037658691406</quality>
              <le>0.014191700145602226</le></_></splits></_>
        <_>
          <depth>2</depth>
          <value>0.</value>
          <norm_class_idx>0</norm_class_idx>
          <splits>
            <_><var>431</var>
              <quality>180.25396728515625</quality>
              <le>0.33119207620620728</le></_></splits></_>
        <_>
          <depth>3</depth>
          <value>0.</value>
          <norm_class_idx>0</norm_class_idx>
          <splits>
            <_><var>278</var>
              <quality>174.02882385253906</quality>
              <le>0.2849070131778717</le></_></splits></_>
        <_>
          <depth>4</depth>
          <value>0.</value>
          <norm_class_idx>0</norm_class_idx>
          <splits>
            <_><var>276</var>
              <quality>110.90425872802734</quality>
              <le>0.23712159693241119</le></_></splits></_>
        <_>
          <depth>5</depth>
          <value>0.</value>
          <norm_class_idx>0</norm_class_idx>
          <splits>
            <_><var>299</var>
              <quality>108.06153869628906</quality>
              <le>0.011514662764966488</le></_></splits></_>
        <_>
          <depth>6</depth>
          <value>5.</value>
          <norm_class_idx>5</norm_class_idx>
          <splits>
            <_><var>519</var>
              <quality>5.</quality>
              <le>0.25699490308761597</le></_></splits></_>
        <_>
          <depth>7</depth>
          <value>5.</value>
          <norm_class_idx>5</norm_class_idx></_>
        <_>
          <depth>7</depth>
          <value>2.</value>
          <norm_class_idx>2</norm_class_idx></_>
        <_>
          <depth>6</depth>
          <value>0.</value>
          <norm_class_idx>0</norm_class_idx>
          <splits>
            <_><var>421</var>
              <quality>108.62389373779297</quality>
              <le>0.23593707382678986</le></_></splits></_>
        <_>
          <depth>7</depth>
          <value>0.</value>
          <norm_class_idx>0</norm_class_idx>
          <splits>
            <_><var>156</var>
              <quality>111.66666412353516</quality>
              <le>0.071426048874855042</le></_></splits></_>
        <_>
          <depth>8</depth>
          <value>0.</value>
          <norm_class_idx>0</norm_class_idx></_>
        <_>
          <depth>8</depth>
          <value>2.</value>
          <norm_class_idx>2</norm_class_idx>
          <splits>
            <_><var>278</var>
              <quality>3.</quality>
              <le>0.2398950457572937</le></_></splits></_>
        <_>
          <depth>9</depth>
          <value>2.</value>
          <norm_class_idx>2</norm_class_idx></_>
        <_>
          <depth>9</depth>
          <value>4.</value>
          <norm_class_idx>4</norm_class_idx></_>
        <_>
          <depth>7</depth>
          <value>4.</value>
          <norm_class_idx>4</norm_class_idx>
          <splits>
            <_><var>557</var>
              <quality>3.</quality>
              <le>0.23289632797241211</le></_></splits></_>
        <_>
          <depth>8</depth>
          <value>4.</value>
          <norm_class_idx>4</norm_class_idx></_>
        <_>
          <depth>8</depth>
          <value>0.</value>
          <norm_class_idx>0</norm_class_idx></_>
        <_>
          <depth>5</depth>
          <value>1.</value>
          <norm_class_idx>1</norm_class_idx>
          <splits>
            <_><var>306</var>
              <quality>20.531194686889648</quality>
              <le>0.20512391626834869</le></_></splits></_>
        <_>
          <depth>6</depth>
          <value>0.</value>
          <norm_class_idx>0</norm_class_idx>
          <splits>
            <_><var>1</var>
              <quality>13.638889312744141</quality>
              <le>0.0090772071853280067</le></_></splits></_>
        <_>
          <depth>7</depth>
          <value>0.</value>
          <norm_class_idx>0</norm_class_idx>
          <splits>
            <_><var>147</var>
              <quality>13.625</quality>
              <le>0.0064096665009856224</le></_></splits></_>
        <_>
          <depth>8</depth>
          <value>0.</value>
          <norm_class_idx>0</norm_class_idx></_>
        <_>
          <depth>8</depth>
          <value>2.</value>
          <norm_class_idx>2</norm_class_idx>
          <splits>
            <_><var>318</var>
              <quality>11.55555534362793</quality>
              <le>0.11186273396015167</le></_></splits></_>
        <_>
          <depth>9</depth>
          <value>2.</value>
          <norm_class_idx>2</norm_class_idx></_>
        <_>
          <depth>9</depth>
          <value>3.</value>
          <norm_class_idx>3</norm_class_idx>
          <splits>
            <_><var>386</var>
              <quality>9.</quality>
              <le>0.15000829100608826</le></_></splits></_>
        <_>
          <depth>10</depth>
          <value>4.</value>
          <norm_class_idx>4</norm_class_idx></_>
        <_>
          <depth>10</depth>
          <value>3.</value>
          <norm_class_idx>3</norm_class_idx></_>
        <_>
          <depth>7</depth>
          <value>5.</value>
          <norm_class_idx>5</norm_class_idx>
          <splits>
            <_><var>332</var>
              <quality>9.</quality>
              <le>0.19523841142654419</le></_></splits></_>
        <_>
          <depth>8</depth>
          <value>5.</value>
          <norm_class_idx>5</norm_class_idx></_>
        <_>
          <depth>8</depth>
          <value>2.</value>
          <norm_class_idx>2</norm_class_idx></_>
        <_>
          <depth>6</depth>
          <value>1.</value>
          <norm_class_idx>1</norm_class_idx>
          <splits>
            <_><var>329</var>
              <quality>17.</quality>
              <le>0.046424727886915207</le></_></splits></_>
        <_>
          <depth>7</depth>
          <value>4.</value>
          <norm_class_idx>4</norm_class_idx></_>
        <_>
          <depth>7</depth>
          <value>1.</value>
          <norm_class_idx>1</norm_class_idx></_>
        <_>
          <depth>4</depth>
          <value>5.</value>
          <norm_class_idx>5</norm_class_idx>
          <splits>
            <_><var>568</var>
              <quality>92.</quality>
              <le>0.051113933324813843</le></_></splits></_>
        <_>
          <depth>5</depth>
          <value>5.</value>
          <norm_class_idx>5</norm_class_idx></_>
        <_>
          <depth>5</depth>
          <value>0.</value>
          <norm_class_idx>0</norm_class_idx></_>
        <_>
          <depth>3</depth>
          <value>2.</value>
          <norm_class_idx>2</norm_class_idx>
          <splits>
            <_><var>426</var>
              <quality>160.89736938476562</quality>
              <le>0.029613764956593513</le></_></splits></_>
        <_>
          <depth>4</depth>
          <value>3.</value>
          <norm_class_idx>3</norm_class_idx>
          <splits>
            <_><var>303</var>
              <quality>73.</quality>
              <le>0.21212854981422424</le></_></splits></_>
        <_>
          <depth>5</depth>
          <value>3.</value>
          <norm_class_idx>3</norm_class_idx></_>
        <_>
          <depth>5</depth>
          <value>0.</value>
          <norm_class_idx>0</norm_class_idx></_>
        <_>
          <depth>4</depth>
          <value>2.</value>
          <norm_class_idx>2</norm_class_idx>
          <splits>
            <_><var>434</var>
              <quality>118.05504608154297</quality>
              <le>0.0094417668879032135</le></_></splits></_>
        <_>
          <depth>5</depth>
          <value>5.</value>
          <norm_class_idx>5</norm_class_idx></_>
        <_>
          <depth>5</depth>
          <value>2.</value>
          <norm_class_idx>2</norm_class_idx>
          <splits>
            <_><var>323</var>
              <quality>108.</quality>
              <le>0.23899248242378235</le></_></splits></_>
        <_>
          <depth>6</depth>
          <value>0.</value>
          <norm_class_idx>0</norm_class_idx></_>
        <_>
          <depth>6</depth>
          <value>2.</value>
          <norm_class_idx>2</norm_class_idx></_>
        <_>
          <depth>2</depth>
          <value>1.</value>
          <norm_class_idx>1</norm_class_idx></_>
        <_>
          <depth>1</depth>
          <value>4.</value>
          <norm_class_idx>4</norm_class_idx>
          <splits>
            <_><var>152</var>
              <quality>123.30238342285156</quality>
              <le>0.0044351895339787006</le></_></splits></_>
        <_>
          <depth>2</depth>
          <value>0.</value>
          <norm_class_idx>0</norm_class_idx>
          <splits>
            <_><var>16</var>
              <quality>7.</quality>
              <le>0.0019724210724234581</le></_></splits></_>
        <_>
          <depth>3</depth>
          <value>0.</value>
          <norm_class_idx>0</norm_class_idx></_>
        <_>
          <depth>3</depth>
          <value>1.</value>
          <norm_class_idx>1</norm_class_idx></_>
        <_>
          <depth>2</depth>
          <value>4.</value>
          <norm_class_idx>4</norm_class_idx>
          <splits>
            <_><var>501</var>
              <quality>120.</quality>
              <le>0.1734304279088974</le></_></splits></_>
        <_>
          <depth>3</depth>
          <value>4.</value>
          <norm_class_idx>4</norm_class_idx></_>
        <_>
          <depth>3</depth>
          <value>2.</value>
          <norm_class_idx>2</norm_class_idx></_></nodes></_>
    <_>
      <nodes>
        <_>
          <depth>0</depth>
          <value>4.</value>
          <norm_class_idx>4</norm_class_idx>
          <splits>
            <_><var>454</var>
              <quality>225.80812072753906</quality>
              <le>0.2865155041217804</le></_></splits></_>
        <_>
          <depth>1</depth>
          <value>2.</value>
          <norm_class_idx>2</norm_class_idx>
          <splits>
            <_><var>417</var>
              <quality>187.00126647949219</quality>
              <le>0.059666048735380173</le></_></splits></_>
        <_>
          <depth>2</depth>
          <value>2.</value>
          <norm_class_idx>2</norm_class_idx>
          <splits>
            <_><var>517</var>
              <quality>128.85041809082031</quality>
              <le>0.045313071459531784</le></_></splits></_>
        <_>
          <depth>3</depth>
          <value>3.</value>
          <norm_class_idx>3</norm_class_idx>
          <splits>
            <_><var>150</var>
              <quality>26.421052932739258</quality>
              <le>0.0011544973822310567</le></_></splits></_>
        <_>
          <depth>4</depth>
          <value>0.</value>
          <norm_class_idx>0</norm_class_idx></_>
        <_>
          <depth>4</depth>
          <value>3.</value>
          <norm_class_idx>3</norm_class_idx>
          <splits>
            <_><var>508</var>
              <quality>17.666666030883789</quality>
              <le>0.014336551539599895</le></_></splits></_>
        <_>
          <depth>5</depth>
          <value>3.</value>
          <norm_class_idx>3</norm_class_idx></_>
        <_>
          <depth>5</depth>
          <value>2.</value>
          <norm_class_idx>2</norm_class_idx>
          <splits>
            <_><var>369</var>
              <quality>3.</quality>
              <le>0.034149054437875748</le></_></splits></_>
        <_>
          <depth>6</depth>
          <value>3.</value>
          <norm_class_idx>3</norm_class_idx></_>
        <_>
          <depth>6</depth>
          <value>2.</value>
          <norm_class_idx>2</norm_class_idx></_>
        <_>
          <depth>3</depth>
          <value>2.</value>
          <norm_class_idx>2</norm_class_idx>
          <splits>
            <_><var>33</var>
              <quality>117.01695251464844</quality>
              <le>0.25481337308883667</le></_></splits></_>
        <_>
          <depth>4</depth>
          <value>2.</value>
          <norm_class_idx>2</norm_class_idx>
          <splits>
            <_><var>55</var>
              <quality>118.</quality>
              <le>0.001109479577280581</le></_></splits></_>
        <_>
          <depth>5</depth>
          <value>2.</value>
          <norm_class_idx>2</norm_class_idx></_>
        <_>
          <depth>5</depth>
          <value>3.</value>
          <norm_class_idx>3</norm_class_idx></_>
        <_>
          <depth>4</depth>
          <value>0.</value>
          <norm_class_idx>0</norm_class_idx></_>
        <_>
          <depth>2</depth>
          <value>0.</value>
          <norm_class_idx>0</norm_class_idx>
          <splits>
            <_><var>154</var>
              <quality>176.24394226074219</quality>
              <le>0.012828627601265907</le></_></splits></_>
        <_>
          <depth>3</depth>
          <value>0.</value>
          <norm_class_idx>0</norm_class_idx>
          <splits>
            <_><var>250</var>
              <quality>179.29600524902344</quality>
              <le>0.0041048466227948666</le></_></splits></_>
        <_>
          <depth>4</depth>
          <value>0.</value>
          <norm_class_idx>0</norm_class_idx>
          <splits>
            <_><var>559</var>
              <quality>121.72727203369141</quality>
              <le>0.020418994128704071</le></_></splits></_>
        <_>
          <depth>5</depth>
          <value>1.</value>
          <norm_class_idx>1</norm_class_idx>
          <splits>
            <_><var>548</var>
              <quality>11.</quality>
              <le>0.11157198995351791</le></_></splits></_>
        <_>
          <depth>6</depth>
          <value>0.</value>
          <norm_class_idx>0</norm_class_idx></_>
        <_>
          <depth>6</depth>
          <value>1.</value>
          <norm_class_idx>1</norm_class_idx></_>
        <_>
          <depth>5</depth>
          <value>0.</value>
          <norm_class_idx>0</norm_class_idx></_>
        <_>
          <depth>4</depth>
          <value>1.</value>
          <norm_class_idx>1</norm_class_idx></_>
        <_>
          <depth>3</depth>
          <value>5.</value>
          <norm_class_idx>5</norm_class_idx>
          <splits>
            <_><var>266</var>
              <quality>121.55886840820312</quality>
              <le>0.22772805392742157</le></_></splits></_>
        <_>
          <depth>4</depth>
          <value>5.</value>
          <norm_class_idx>5</norm_class_idx>
          <splits>
            <_><var>560</var>
              <quality>106.21977996826172</quality>
              <le>0.023560447618365288</le></_></splits></_>
        <_>
          <depth>5</depth>
          <value>5.</value>
          <norm_class_idx>5</norm_class_idx>
          <splits>
            <_><var>147</var>
              <quality>104.</quality>
              <le>0.11159977316856384</le></_></splits></_>
        <_>
          <depth>6</depth>
          <value>5.</value>
          <norm_class_idx>5</norm_class_idx></_>
        <_>
          <depth>6</depth>
          <value>3.</value>
          <norm_class_idx>3</norm_class_idx></_>
        <_>
          <depth>5</depth>
          <value>4.</value>
          <norm_class_idx>4</norm_class_idx>
          <splits>
            <_><var>372</var>
              <quality>12.25</quality>
              <le>0.033033780753612518</le></_></splits></_>
        <_>
          <depth>6</depth>
          <value>2.</value>
          <norm_class_idx>2</norm_class_idx></_>
        <_>
          <depth>6</depth>
          <value>4.</value>
          <norm_class_idx>4</norm_class_idx>
          <splits>
            <_><var>322</var>
              <quality>8.</quality>
              <le>0.034179806709289551</le></_></splits></_>
        <_>
          <depth>7</depth>
          <value>0.</value>
          <norm_class_idx>0</norm_class_idx></_>
        <_>
          <depth>7</depth>
          <value>4.</value>
          <norm_class_idx>4</norm_class_idx></_>
        <_>
          <depth>4</depth>
          <value>3.</value>
          <norm_class_idx>3</norm_class_idx>
          <splits>
            <_><var>485</var>
              <quality>57.413791656494141</quality>
              <le>0.26153561472892761</le></_></splits></_>
        <_>
          <depth>5</depth>
          <value>4.</value>
          <norm_class_idx>4</norm_class_idx>
          <splits>
            <_><var>323</var>
              <quality>21.5</quality>
              <le>0.26478031277656555</le></_></splits></_>
        <_>
          <depth>6</depth>
          <value>4.</value>
          <norm_class_idx>4</norm_class_idx>
          <splits>
            <_><var>307</var>
              <quality>20.</quality>
              <le>0.024676168337464333</le></_></splits></_>
        <_>
          <depth>7</depth>
          <value>5.</value>
          <norm_class_idx>5</norm_class_idx></_>
        <_>
          <depth>7</depth>
          <value>4.</value>
          <norm_class_idx>4</norm_class_idx></_>
        <_>
          <depth>6</depth>
          <value>2.</value>
          <norm_class_idx>2</norm_class_idx></_>
        <_>
          <depth>5</depth>
          <value>3.</value>
          <norm_class_idx>3</norm_class_idx></_>
        <_>
          <depth>1</depth>
          <value>4.</value>
          <norm_class_idx>4</norm_class_idx>
          <splits>
            <_><var>428</var>
              <quality>132.37913513183594</quality>
              <le>0.11916635930538177</le></_></splits></_>
        <_>
          <depth>2</depth>
          <value>4.</value>
          <norm_class_idx>4</norm_class_idx>
          <splits>
            <_><var>436</var>
              <quality>129.</quality>
              <le>0.043631672859191895</le></_></splits></_>
        <_>
          <depth>3</depth>
          <value>2.</value>
          <norm_class_idx>2</norm_class_idx></_>
        <_>
          <depth>3</depth>
          <value>4.</value>
          <norm_class_idx>4</norm_class_idx></_>
        <_>
          <depth>2</depth>
          <value>0.</value>
          <norm_class_idx>0</norm_class_idx>
          <splits>
            <_><var>328</var>
              <quality>9.5</quality>
              <le>0.17629191279411316</le></_></splits></_>
        <_>
          <depth>3</depth>
          <value>2.</value>
          <norm_class_idx>2</norm_class_idx>
          <splits>
            <_><var>471</var>
              <quality>4.</quality>
              <le>0.20624841749668121</le></_></splits></_>
        <_>
          <depth>4</depth>
          <value>2.</value>
          <norm_class_idx>2</norm_class_idx></_>
        <_>
          <depth>4</depth>
          <value>4.</value>
          <norm_class_idx>4</norm_class_idx></_>
        <_>
          <depth>3</depth>
          <value>0.</value>
          <norm_class_idx>0</norm_class_idx></_></nodes></_>
    <_>
      <nodes>
        <_>
          <depth>0</depth>
          <value>4.</value>
          <norm_class_idx>4</norm_class_idx>
          <splits>
            <_><var>296</var>
              <quality>222.01602172851562</quality>
              <le>0.25576022267341614</le></_></splits></_>
        <_>
          <depth>1</depth>
          <value>4.</value>
          <norm_class_idx>4</norm_class_idx>
          <splits>
            <_><var>281</var>
              <quality>190.98783874511719</quality>
              <le>0.0029409974813461304</le></_></splits></_>
        <_>
          <depth>2</depth>
          <value>5.</value>
          <norm_class_idx>5</norm_class_idx>
          <splits>
            <_><var>487</var>
              <quality>95.1875</quality>
              <le>0.28225374221801758</le></_></splits></_>
        <_>
          <depth>3</depth>
          <value>5.</value>
          <norm_class_idx>5</norm_class_idx>
          <splits>
            <_><var>331</var>
              <quality>96.</quality>
              <le>0.03606666624546051</le></_></splits></_>
        <_>
          <depth>4</depth>
          <value>5.</value>
          <norm_class_idx>5</norm_class_idx></_>
        <_>
          <depth>4</depth>
          <value>1.</value>
          <norm_class_idx>1</norm_class_idx></_>
        <_>
          <depth>3</depth>
          <value>4.</value>
          <norm_class_idx>4</norm_class_idx></_>
        <_>
          <depth>2</depth>
          <value>4.</value>
          <norm_class_idx>4</norm_class_idx>
          <splits>
            <_><var>235</var>
              <quality>178.05262756347656</quality>
              <le>0.0042675924487411976</le></_></splits></_>
        <_>
          <depth>3</depth>
          <value>4.</value>
          <norm_class_idx>4</norm_class_idx>
          <splits>
            <_><var>375</var>
              <quality>178.34480285644531</quality>
              <le>0.15056070685386658</le></_></splits></_>
        <_>
          <depth>4</depth>
          <value>0.</value>
          <norm_class_idx>0</norm_class_idx>
          <splits>
            <_><var>132</var>
              <quality>106.80327606201172</quality>
              <le>0.016296034678816795</le></_></splits></_>
        <_>
          <depth>5</depth>
          <value>0.</value>
          <norm_class_idx>0</norm_class_idx>
          <splits>
            <_><var>270</var>
              <quality>112.31858062744141</quality>
              <le>0.0015354104107245803</le></_></splits></_>
        <_>
          <depth>6</depth>
          <value>5.</value>
          <norm_class_idx>5</norm_class_idx></_>
        <_>
          <depth>6</depth>
          <value>0.</value>
          <norm_class_idx>0</norm_class_idx>
          <splits>
            <_><var>554</var>
              <quality>107.55504608154297</quality>
              <le>0.0071461070328950882</le></_></splits></_>
        <_>
          <depth>7</depth>
          <value>5.</value>
          <norm_class_idx>5</norm_class_idx>
          <splits>
            <_><var>468</var>
              <quality>4.</quality>
              <le>0.12308122217655182</le></_></splits></_>
        <_>
          <depth>8</depth>
          <value>5.</value>
          <norm_class_idx>5</norm_class_idx></_>
        <_>
          <depth>8</depth>
          <value>0.</value>
          <norm_class_idx>0</norm_class_idx></_>
        <_>
          <depth>7</depth>
          <value>0.</value>
          <norm_class_idx>0</norm_class_idx>
          <splits>
            <_><var>363</var>
              <quality>107.01851654052734</quality>
              <le>0.3184167742729187</le></_></splits></_>
        <_>
          <depth>8</depth>
          <value>0.</value>
          <norm_class_idx>0</norm_class_idx>
          <splits>
            <_><var>298</var>
              <quality>108.</quality>
              <le>0.28820350766181946</le></_></splits></_>
        <_>
          <depth>9</depth>
          <value>0.</value>
          <norm_class_idx>0</norm_class_idx></_>
        <_>
          <depth>9</depth>
          <value>3.</value>
          <norm_class_idx>3</norm_class_idx></_>
        <_>
          <depth>8</depth>
          <value>4.</value>
          <norm_class_idx>4</norm_class_idx></_>
        <_>
          <depth>5</depth>
          <value>3.</value>
          <norm_class_idx>3</norm_class_idx>
          <splits>
            <_><var>519</var>
              <quality>17.688888549804688</quality>
              <le>0.070184387266635895</le></_></splits></_>
        <_>
          <depth>6</depth>
          <value>3.</value>
          <norm_class_idx>3</norm_class_idx>
          <splits>
            <_><var>487</var>
              <quality>15.</quality>
              <le>0.2973155677318573</le></_></splits></_>
        <_>
          <depth>7</depth>
          <value>3.</value>
          <norm_class_idx>3</norm_class_idx></_>
        <_>
          <depth>7</depth>
          <value>4.</value>
          <norm_class_idx>4</norm_class_idx></_>
        <_>
          <depth>6</depth>
          <value>2.</value>
          <norm_class_idx>2</norm_class_idx>
          <splits>
            <_><var>64</var>
              <quality>7.6666665077209473</quality>
              <le>0.0067840674892067909</le></_></splits></_>
        <_>
          <depth>7</depth>
          <value>0.</value>
          <norm_class_idx>0</norm_class_idx>
          <splits>
            <_><var>332</var>
              <quality>3.</quality>
              <le>0.16808304190635681</le></_></splits></_>
        <_>
          <depth>8</depth>
          <value>4.</value>
          <norm_class_idx>4</norm_class_idx></_>
        <_>
          <depth>8</depth>
          <value>0.</value>
          <norm_class_idx>0</norm_class_idx></_>
        <_>
          <depth>7</depth>
          <value>2.</value>
          <norm_class_idx>2</norm_class_idx></_>
        <_>
          <depth>4</depth>
          <value>4.</value>
          <norm_class_idx>4</norm_class_idx>
          <splits>
            <_><var>471</var>
              <quality>168.14854431152344</quality>
              <le>0.13344371318817139</le></_></splits></_>
        <_>
          <depth>5</depth>
          <value>3.</value>
          <norm_class_idx>3</norm_class_idx>
          <splits>
            <_><var>482</var>
              <quality>62.77960205078125</quality>
              <le>0.02907181903719902</le></_></splits></_>
        <_>
          <depth>6</depth>
          <value>3.</value>
          <norm_class_idx>3</norm_class_idx>
          <splits>
            <_><var>474</var>
              <quality>55.</quality>
              <le>0.03708229586482048</le></_></splits></_>
        <_>
          <depth>7</depth>
          <value>3.</value>
          <norm_class_idx>3</norm_class_idx></_>
        <_>
          <depth>7</depth>
          <value>2.</value>
          <norm_class_idx>2</norm_class_idx></_>
        <_>
          <depth>6</depth>
          <value>1.</value>
          <norm_class_idx>1</norm_class_idx>
          <splits>
            <_><var>348</var>
              <quality>22.352380752563477</quality>
              <le>0.12205471098423004</le></_></splits></_>
        <_>
          <depth>7</depth>
          <value>2.</value>
          <norm_class_idx>2</norm_class_idx>
          <splits>
            <_><var>440</var>
              <quality>10.722222328186035</quality>
              <le>0.22902125120162964</le></_></splits></_>
        <_>
          <depth>8</depth>
          <value>0.</value>
          <norm_class_idx>0</norm_class_idx>
          <splits>
            <_><var>150</var>
              <quality>9.</quality>
              <le>0.01023932546377182</le></_></splits></_>
        <_>
          <depth>9</depth>
          <value>0.</value>
          <norm_class_idx>0</norm_class_idx></_>
        <_>
          <depth>9</depth>
          <value>5.</value>
          <norm_class_idx>5</norm_class_idx></_>
        <_>
          <depth>8</depth>
          <value>2.</value>
          <norm_class_idx>2</norm_class_idx>
          <splits>
            <_><var>523</var>
              <quality>10.222222328186035</quality>
              <le>0.051684662699699402</le></_></splits></_>
        <_>
          <depth>9</depth>
          <value>3.</value>
          <norm_class_idx>3</norm_class_idx></_>
        <_>
          <depth>9</depth>
          <value>2.</value>
          <norm_class_idx>2</norm_class_idx>
          <splits>
            <_><var>288</var>
              <quality>9.</quality>
              <le>0.20322051644325256</le></_></splits></_>
        <_>
          <depth>10</depth>
          <value>2.</value>
          <norm_class_idx>2</norm_class_idx></_>
        <_>
          <depth>10</depth>
          <value>0.</value>
          <norm_class_idx>0</norm_class_idx></_>
        <_>
          <depth>7</depth>
          <value>1.</value>
          <norm_class_idx>1</norm_class_idx>
          <splits>
            <_><var>241</var>
              <quality>20.</quality>
              <le>0.010979725047945976</le></_></splits></_>
        <_>
          <depth>8</depth>
          <value>0.</value>
          <norm_class_idx>0</norm_class_idx></_>
        <_>
          <depth>8</depth>
          <value>1.</value>
          <norm_class_idx>1</norm_class_idx></_>
        <_>
          <depth>5</depth>
          <value>4.</value>
          <norm_class_idx>4</norm_class_idx>
          <splits>
            <_><var>434</var>
              <quality>136.01481628417969</quality>
              <le>0.13956828415393829</le></_></splits></_>
        <_>
          <depth>6</depth>
          <value>4.</value>
          <norm_class_idx>4</norm_class_idx>
          <splits>
            <_><var>517</var>
              <quality>135.</quality>
              <le>0.12806777656078339</le></_></splits></_>
        <_>
          <depth>7</depth>
          <value>0.</value>
          <norm_class_idx>0</norm_class_idx></_>
        <_>
          <depth>7</depth>
          <value>4.</value>
          <norm_class_idx>4</norm_class_idx></_>
        <_>
          <depth>6</depth>
          <value>0.</value>
          <norm_class_idx>0</norm_class_idx></_>
        <_>
          <depth>3</depth>
          <value>1.</value>
          <norm_class_idx>1</norm_class_idx>
          <splits>
            <_><var>160</var>
              <quality>76.</quality>
              <le>0.055689949542284012</le></_></splits></_>
        <_>
          <depth>4</depth>
          <value>1.</value>
          <norm_class_idx>1</norm_class_idx></_>
        <_>
          <depth>4</depth>
          <value>5.</value>
          <norm_class_idx>5</norm_class_idx></_>
        <_>
          <depth>1</depth>
          <value>2.</value>
          <norm_class_idx>2</norm_class_idx>
          <splits>
            <_><var>298</var>
              <quality>118.59999847412109</quality>
              <le>0.08535391092300415</le></_></splits></_>
        <_>
          <depth>2</depth>
          <value>2.</value>
          <norm_class_idx>2</norm_class_idx></_>
        <_>
          <depth>2</depth>
          <value>0.</value>
          <norm_class_idx>0</norm_class_idx>
          <splits>
            <_><var>495</var>
              <quality>5.</quality>
              <le>0.15619084239006042</le></_></splits></_>
        <_>
          <depth>3</depth>
          <value>0.</value>
          <norm_class_idx>0</norm_class_idx></_>
        <_>
          <depth>3</depth>
          <value>1.</value>
          <norm_class_idx>1</norm_class_idx></_></nodes></_>
    <_>
      <nodes>
        <_>
          <depth>0</depth>
          <value>4.</value>
          <norm_class_idx>4</norm_class_idx>
          <splits>
            <_><var>332</var>
              <quality>205.45277404785156</quality>
              <le>0.29463642835617065</le></_></splits></_>
        <_>
          <depth>1</depth>
          <value>4.</value>
          <norm_class_idx>4</norm_class_idx>
          <splits>
            <_><var>463</var>
              <quality>202.389404296875</quality>
              <le>0.24975433945655823</le></_></splits></_>
        <_>
          <depth>2</depth>
          <value>5.</value>
          <norm_class_idx>5</norm_class_idx>
          <splits>
            <_><var>461</var>
              <quality>184.16047668457031</quality>
              <le>0.015806827694177628</le></_></splits></_>
        <_>
          <depth>3</depth>
          <value>5.</value>
          <norm_class_idx>5</norm_class_idx>
          <splits>
            <_><var>208</var>
              <quality>113.</quality>
              <le>0.0026284318882972002</le></_></splits></_>
        <_>
          <depth>4</depth>
          <value>3.</value>
          <norm_class_idx>3</norm_class_idx>
          <splits>
            <_><var>389</var>
              <quality>6.</quality>
              <le>0.072408199310302734</le></_></splits></_>
        <_>
          <depth>5</depth>
          <value>3.</value>
          <norm_class_idx>3</norm_class_idx></_>
        <_>
          <depth>5</depth>
          <value>0.</value>
          <norm_class_idx>0</norm_class_idx>
          <splits>
            <_><var>436</var>
              <quality>4.</quality>
              <le>0.15107923746109009</le></_></splits></_>
        <_>
          <depth>6</depth>
          <value>0.</value>
          <norm_class_idx>0</norm_class_idx></_>
        <_>
          <depth>6</depth>
          <value>4.</value>
          <norm_class_idx>4</norm_class_idx></_>
        <_>
          <depth>4</depth>
          <value>5.</value>
          <norm_class_idx>5</norm_class_idx></_>
        <_>
          <depth>3</depth>
          <value>0.</value>
          <norm_class_idx>0</norm_class_idx>
          <splits>
            <_><var>525</var>
              <quality>149.4188232421875</quality>
              <le>0.03507116436958313</le></_></splits></_>
        <_>
          <depth>4</depth>
          <value>3.</value>
          <norm_class_idx>3</norm_class_idx>
          <splits>
            <_><var>309</var>
              <quality>69.5</quality>
              <le>0.28596040606498718</le></_></splits></_>
        <_>
          <depth>5</depth>
          <value>3.</value>
          <norm_class_idx>3</norm_class_idx></_>
        <_>
          <depth>5</depth>
          <value>5.</value>
          <norm_class_idx>5</norm_class_idx>
          <splits>
            <_><var>504</var>
              <quality>4.</quality>
              <le>0.016521552577614784</le></_></splits></_>
        <_>
          <depth>6</depth>
          <value>5.</value>
          <norm_class_idx>5</norm_class_idx></_>
        <_>
          <depth>6</depth>
          <value>2.</value>
          <norm_class_idx>2</norm_class_idx></_>
        <_>
          <depth>4</depth>
          <value>0.</value>
          <norm_class_idx>0</norm_class_idx>
          <splits>
            <_><var>249</var>
              <quality>158.53302001953125</quality>
              <le>0.0021143208723515272</le></_></splits></_>
        <_>
          <depth>5</depth>
          <value>0.</value>
          <norm_class_idx>0</norm_class_idx>
          <splits>
            <_><var>332</var>
              <quality>93.911544799804688</quality>
              <le>0.25360280275344849</le></_></splits></_>
        <_>
          <depth>6</depth>
          <value>0.</value>
          <norm_class_idx>0</norm_class_idx>
          <splits>
            <_><var>395</var>
              <quality>94.953269958496094</quality>
              <le>0.29082077741622925</le></_></splits></_>
        <_>
          <depth>7</depth>
          <value>0.</value>
          <norm_class_idx>0</norm_class_idx>
          <splits>
            <_><var>435</var>
              <quality>101.34571075439453</quality>
              <le>0.32529151439666748</le></_></splits></_>
        <_>
          <depth>8</depth>
          <value>0.</value>
          <norm_class_idx>0</norm_class_idx>
          <splits>
            <_><var>264</var>
              <quality>98.02020263671875</quality>
              <le>0.0067115388810634613</le></_></splits></_>
        <_>
          <depth>9</depth>
          <value>5.</value>
          <norm_class_idx>5</norm_class_idx></_>
        <_>
          <depth>9</depth>
          <value>0.</value>
          <norm_class_idx>0</norm_class_idx>
          <splits>
            <_><var>359</var>
              <quality>99.</quality>
              <le>0.29478192329406738</le></_></splits></_>
        <_>
          <depth>10</depth>
          <value>0.</value>
          <norm_class_idx>0</norm_class_idx></_>
        <_>
          <depth>10</depth>
          <value>2.</value>
          <norm_class_idx>2</norm_class_idx></_>
        <_>
          <depth>8</depth>
          <value>4.</value>
          <norm_class_idx>4</norm_class_idx>
          <splits>
            <_><var>497</var>
              <quality>7.</quality>
              <le>0.11813825368881226</le></_></splits></_>
        <_>
          <depth>9</depth>
          <value>4.</value>
          <norm_class_idx>4</norm_class_idx></_>
        <_>
          <depth>9</depth>
          <value>0.</value>
          <norm_class_idx>0</norm_class_idx></_>
        <_>
          <depth>7</depth>
          <value>5.</value>
          <norm_class_idx>5</norm_class_idx>
          <splits>
            <_><var>467</var>
              <quality>6.1999998092651367</quality>
              <le>0.36990547180175781</le></_></splits></_>
        <_>
          <depth>8</depth>
          <value>2.</value>
          <norm_class_idx>2</norm_class_idx>
          <splits>
            <_><var>517</var>
              <quality>4.</quality>
              <le>0.15632618963718414</le></_></splits></_>
        <_>
          <depth>9</depth>
          <value>2.</value>
          <norm_class_idx>2</norm_class_idx></_>
        <_>
          <depth>9</depth>
          <value>1.</value>
          <norm_class_idx>1</norm_class_idx></_>
        <_>
          <depth>8</depth>
          <value>5.</value>
          <norm_class_idx>5</norm_class_idx></_>
        <_>
          <depth>6</depth>
          <value>2.</value>
          <norm_class_idx>2</norm_class_idx>
          <splits>
            <_><var>155</var>
              <quality>17.666666030883789</quality>
              <le>0.12390212714672089</le></_></splits></_>
        <_>
          <depth>7</depth>
          <value>1.</value>
          <norm_class_idx>1</norm_class_idx>
          <splits>
            <_><var>231</var>
              <quality>12.</quality>
              <le>0.0066231703385710716</le></_></splits></_>
        <_>
          <depth>8</depth>
          <value>0.</value>
          <norm_class_idx>0</norm_class_idx></_>
        <_>
          <depth>8</depth>
          <value>1.</value>
          <norm_class_idx>1</norm_class_idx></_>
        <_>
          <depth>7</depth>
          <value>2.</value>
          <norm_class_idx>2</norm_class_idx></_>
        <_>
          <depth>5</depth>
          <value>1.</value>
          <norm_class_idx>1</norm_class_idx>
          <splits>
            <_><var>156</var>
              <quality>89.</quality>
              <le>0.18338994681835175</le></_></splits></_>
        <_>
          <depth>6</depth>
          <value>1.</value>
          <norm_class_idx>1</norm_class_idx></_>
        <_>
          <depth>6</depth>
          <value>5.</value>
          <norm_class_idx>5</norm_class_idx></_>
        <_>
          <depth>2</depth>
          <value>4.</value>
          <norm_class_idx>4</norm_class_idx>
          <splits>
            <_><var>153</var>
              <quality>137.</quality>
              <le>0.0040461462922394276</le></_></splits></_>
        <_>
          <depth>3</depth>
          <value>0.</value>
          <norm_class_idx>0</norm_class_idx></_>
        <_>
          <depth>3</depth>
          <value>4.</value>
          <norm_class_idx>4</norm_class_idx></_>
        <_>
          <depth>1</depth>
          <value>2.</value>
          <norm_class_idx>2</norm_class_idx>
          <splits>
            <_><var>305</var>
              <quality>110.51559448242188</quality>
              <le>0.28095382452011108</le></_></splits></_>
        <_>
          <depth>2</depth>
          <value>1.</value>
          <norm_class_idx>1</norm_class_idx>
          <splits>
            <_><var>434</var>
              <quality>7.5</quality>
              <le>0.17223915457725525</le></_></splits></_>
        <_>
          <depth>3</depth>
          <value>0.</value>
          <norm_class_idx>0</norm_class_idx>
          <splits>
            <_><var>317</var>
              <quality>5.1999998092651367</quality>
              <le>0.11711472272872925</le></_></splits></_>
        <_>
          <depth>4</depth>
          <value>3.</value>
          <norm_class_idx>3</norm_class_idx>
          <splits>
            <_><var>552</var>
              <quality>4.</quality>
              <le>0.041638713330030441</le></_></splits></_>
        <_>
          <depth>5</depth>
          <value>3.</value>
          <norm_class_idx>3</norm_class_idx></_>
        <_>
          <depth>5</depth>
          <value>4.</value>
          <norm_class_idx>4</norm_class_idx></_>
        <_>
          <depth>4</depth>
          <value>0.</value>
          <norm_class_idx>0</norm_class_idx></_>
        <_>
          <depth>3</depth>
          <value>1.</value>
          <norm_class_idx>1</norm_class_idx></_>
        <_>
          <depth>2</depth>
          <value>2.</value>
          <norm_class_idx>2</norm_class_idx>
          <splits>
            <_><var>526</var>
              <quality>110.</quality>
              <le>0.29017987847328186</le></_></splits></_>
        <_>
          <depth>3</depth>
          <value>2.</value>
          <norm_class_idx>2</norm_class_idx></_>
        <_>
          <depth>3</depth>
          <value>0.</value>
          <norm_class_idx>0</norm_class_idx></_></nodes></_>
    <_>
      <nodes>
        <_>
          <depth>0</depth>
          <value>4.</value>
          <norm_class_idx>4</norm_class_idx>
          <splits>
            <_><var>552</var>
              <quality>216.68165588378906</quality>
              <le>0.25667494535446167</le></_></splits></_>
        <_>
          <depth>1</depth>
          <value>2.</value>
          <norm_class_idx>2</norm_class_idx>
          <splits>
            <_><var>327</var>
              <quality>198.00543212890625</quality>
              <le>0.038703914731740952</le></_></splits></_>
        <_>
          <depth>2</depth>
          <value>2.</value>
          <norm_class_idx>2</norm_class_idx>
          <splits>
            <_><var>357</var>
              <quality>114.</quality>
              <le>0.10498771071434021</le></_></splits></_>
        <_>
          <depth>3</depth>
          <value>2.</value>
          <norm_class_idx>2</norm_class_idx></_>
        <_>
          <depth>3</depth>
          <value>0.</value>
          <norm_class_idx>0</norm_class_idx></_>
        <_>
          <depth>2</depth>
          <value>5.</value>
          <norm_class_idx>5</norm_class_idx>
          <splits>
            <_><var>307</var>
              <quality>169.71134948730469</quality>
              <le>0.021431781351566315</le></_></splits></_>
        <_>
          <depth>3</depth>
          <value>5.</value>
          <norm_class_idx>5</norm_class_idx>
          <splits>
            <_><var>377</var>
              <quality>114.5</quality>
              <le>0.18198780715465546</le></_></splits></_>
        <_>
          <depth>4</depth>
          <value>0.</value>
          <norm_class_idx>0</norm_class_idx>
          <splits>
            <_><var>460</var>
              <quality>12.</quality>
              <le>0.007299177348613739</le></_></splits></_>
        <_>
          <depth>5</depth>
          <value>4.</value>
          <norm_class_idx>4</norm_class_idx></_>
        <_>
          <depth>5</depth>
          <value>0.</value>
          <norm_class_idx>0</norm_class_idx></_>
        <_>
          <depth>4</depth>
          <value>5.</value>
          <norm_class_idx>5</norm_class_idx></_>
        <_>
          <depth>3</depth>
          <value>0.</value>
          <norm_class_idx>0</norm_class_idx>
          <splits>
            <_><var>262</var>
              <quality>120.61228942871094</quality>
              <le>0.03752068430185318</le></_></splits></_>
        <_>
          <depth>4</depth>
          <value>3.</value>
          <norm_class_idx>3</norm_class_idx>
          <splits>
            <_><var>517</var>
              <quality>121.11976623535156</quality>
              <le>0.061466678977012634</le></_></splits></_>
        <_>
          <depth>5</depth>
          <value>3.</value>
          <norm_class_idx>3</norm_class_idx>
          <splits>
            <_><var>9</var>
              <quality>77.</quality>
              <le>0.0034131084103137255</le></_></splits></_>
        <_>
          <depth>6</depth>
          <value>3.</value>
          <norm_class_idx>3</norm_class_idx></_>
        <_>
          <depth>6</depth>
          <value>5.</value>
          <norm_class_idx>5</norm_class_idx></_>
        <_>
          <depth>5</depth>
          <value>1.</value>
          <norm_class_idx>1</norm_class_idx>
          <splits>
            <_><var>251</var>
              <quality>79.83050537109375</quality>
              <le>0.0068641221150755882</le></_></splits></_>
        <_>
          <depth>6</depth>
          <value>0.</value>
          <norm_class_idx>0</norm_class_idx>
          <splits>
            <_><var>410</var>
              <quality>25.727272033691406</quality>
              <le>0.14377871155738831</le></_></splits></_>
        <_>
          <depth>7</depth>
          <value>2.</value>
          <norm_class_idx>2</norm_class_idx>
          <splits>
            <_><var>257</var>
              <quality>17.473684310913086</quality>
              <le>0.3484586775302887</le></_></splits></_>
        <_>
          <depth>8</depth>
          <value>2.</value>
          <norm_class_idx>2</norm_class_idx>
          <splits>
            <_><var>427</var>
              <quality>23.437681198120117</quality>
              <le>0.29729586839675903</le></_></splits></_>
        <_>
          <depth>9</depth>
          <value>2.</value>
          <norm_class_idx>2</norm_class_idx>
          <splits>
            <_><var>304</var>
              <quality>18.55555534362793</quality>
              <le>0.054377831518650055</le></_></splits></_>
        <_>
          <depth>10</depth>
          <value>5.</value>
          <norm_class_idx>5</norm_class_idx>
          <splits>
            <_><var>492</var>
              <quality>7.6666665077209473</quality>
              <le>0.048914641141891479</le></_></splits></_>
        <_>
          <depth>11</depth>
          <value>5.</value>
          <norm_class_idx>5</norm_class_idx></_>
        <_>
          <depth>11</depth>
          <value>3.</value>
          <norm_class_idx>3</norm_class_idx>
          <splits>
            <_><var>416</var>
              <quality>3.</quality>
              <le>0.14689579606056213</le></_></splits></_>
        <_>
          <depth>12</depth>
          <value>0.</value>
          <norm_class_idx>0</norm_class_idx></_>
        <_>
          <depth>12</depth>
          <value>3.</value>
          <norm_class_idx>3</norm_class_idx></_>
        <_>
          <depth>10</depth>
          <value>2.</value>
          <norm_class_idx>2</norm_class_idx></_>
        <_>
          <depth>9</depth>
          <value>4.</value>
          <norm_class_idx>4</norm_class_idx>
          <splits>
            <_><var>160</var>
              <quality>15.</quality>
              <le>0.11937312036752701</le></_></splits></_>
        <_>
          <depth>10</depth>
          <value>4.</value>
          <norm_class_idx>4</norm_class_idx></_>
        <_>
          <depth>10</depth>
          <value>0.</value>
          <norm_class_idx>0</norm_class_idx></_>
        <_>
          <depth>8</depth>
          <value>1.</value>
          <norm_class_idx>1</norm_class_idx></_>
        <_>
          <depth>7</depth>
          <value>0.</value>
          <norm_class_idx>0</norm_class_idx></_>
        <_>
          <depth>6</depth>
          <value>1.</value>
          <norm_class_idx>1</norm_class_idx></_>
        <_>
          <depth>4</depth>
          <value>0.</value>
          <norm_class_idx>0</norm_class_idx>
          <splits>
            <_><var>241</var>
              <quality>69.850578308105469</quality>
              <le>0.0022012125700712204</le></_></splits></_>
        <_>
          <depth>5</depth>
          <value>0.</value>
          <norm_class_idx>0</norm_class_idx>
          <splits>
            <_><var>518</var>
              <quality>76.686668395996094</quality>
              <le>0.23817691206932068</le></_></splits></_>
        <_>
          <depth>6</depth>
          <value>0.</value>
          <norm_class_idx>0</norm_class_idx>
          <splits>
            <_><var>523</var>
              <quality>73.027397155761719</quality>
              <le>0.020360328257083893</le></_></splits></_>
        <_>
          <depth>7</depth>
          <value>3.</value>
          <norm_class_idx>3</norm_class_idx></_>
        <_>
          <depth>7</depth>
          <value>0.</value>
          <norm_class_idx>0</norm_class_idx>
          <splits>
            <_><var>405</var>
              <quality>71.400001525878906</quality>
              <le>0.021270669996738434</le></_></splits></_>
        <_>
          <depth>8</depth>
          <value>0.</value>
          <norm_class_idx>0</norm_class_idx>
          <splits>
            <_><var>405</var>
              <quality>5.</quality>
              <le>0.015270540490746498</le></_></splits></_>
        <_>
          <depth>9</depth>
          <value>0.</value>
          <norm_class_idx>0</norm_class_idx></_>
        <_>
          <depth>9</depth>
          <value>2.</value>
          <norm_class_idx>2</norm_class_idx></_>
        <_>
          <depth>8</depth>
          <value>0.</value>
          <norm_class_idx>0</norm_class_idx></_>
        <_>
          <depth>6</depth>
          <value>2.</value>
          <norm_class_idx>2</norm_class_idx>
          <splits>
            <_><var>389</var>
              <quality>12.</quality>
              <le>0.065178155899047852</le></_></splits></_>
        <_>
          <depth>7</depth>
          <value>0.</value>
          <norm_class_idx>0</norm_class_idx></_>
        <_>
          <depth>7</depth>
          <value>2.</value>
          <norm_class_idx>2</norm_class_idx></_>
        <_>
          <depth>5</depth>
          <value>1.</value>
          <norm_class_idx>1</norm_class_idx>
          <splits>
            <_><var>433</var>
              <quality>8.</quality>
              <le>0.14924436807632446</le></_></splits></_>
        <_>
          <depth>6</depth>
          <value>2.</value>
          <norm_class_idx>2</norm_class_idx></_>
        <_>
          <depth>6</depth>
          <value>1.</value>
          <norm_class_idx>1</norm_class_idx></_>
        <_>
          <depth>1</depth>
          <value>4.</value>
          <norm_class_idx>4</norm_class_idx>
          <splits>
            <_><var>329</var>
              <quality>126.52971649169922</quality>
              <le>0.092220224440097809</le></_></splits></_>
        <_>
          <depth>2</depth>
          <value>4.</value>
          <norm_class_idx>4</norm_class_idx>
          <splits>
            <_><var>210</var>
              <quality>123.14286041259766</quality>
              <le>0.028574850410223007</le></_></splits></_>
        <_>
          <depth>3</depth>
          <value>4.</value>
          <norm_class_idx>4</norm_class_idx>
          <splits>
            <_><var>153</var>
              <quality>126.</quality>
              <le>0.0068226507864892483</le></_></splits></_>
        <_>
          <depth>4</depth>
          <value>0.</value>
          <norm_class_idx>0</norm_class_idx></_>
        <_>
          <depth>4</depth>
          <value>4.</value>
          <norm_class_idx>4</norm_class_idx></_>
        <_>
          <depth>3</depth>
          <value>1.</value>
          <norm_class_idx>1</norm_class_idx></_>
        <_>
          <depth>2</depth>
          <value>0.</value>
          <norm_class_idx>0</norm_class_idx>
          <splits>
            <_><var>500</var>
              <quality>15.333333015441895</quality>
              <le>0.051582865417003632</le></_></splits></_>
        <_>
          <depth>3</depth>
          <value>4.</value>
          <norm_class_idx>4</norm_class_idx>
          <splits>
            <_><var>148</var>
              <quality>6.</quality>
              <le>0.051417473703622818</le></_></splits></_>
        <_>
          <depth>4</depth>
          <value>1.</value>
          <norm_class_idx>1</norm_class_idx></_>
        <_>
          <depth>4</depth>
          <value>4.</value>
          <norm_class_idx>4</norm_class_idx></_>
        <_>
          <depth>3</depth>
          <value>0.</value>
          <norm_class_idx>0</norm_class_idx></_></nodes></_>
    <_>
      <nodes>
        <_>
          <depth>0</depth>
          <value>2.</value>
          <norm_class_idx>2</norm_class_idx>
          <splits>
            <_><var>460</var>
              <quality>191.73167419433594</quality>
              <le>0.023393228650093079</le></_></splits></_>
        <_>
          <depth>1</depth>
          <value>5.</value>
          <norm_class_idx>5</norm_class_idx>
          <splits>
            <_><var>439</var>
              <quality>165.30247497558594</quality>
              <le>0.017366461455821991</le></_></splits></_>
        <_>
          <depth>2</depth>
          <value>4.</value>
          <norm_class_idx>4</norm_class_idx>
          <splits>
            <_><var>496</var>
              <quality>91.5</quality>
              <le>0.20873582363128662</le></_></splits></_>
        <_>
          <depth>3</depth>
          <value>5.</value>
          <norm_class_idx>5</norm_class_idx>
          <splits>
            <_><var>392</var>
              <quality>4.</quality>
              <le>0.062291055917739868</le></_></splits></_>
        <_>
          <depth>4</depth>
          <value>0.</value>
          <norm_class_idx>0</norm_class_idx></_>
        <_>
          <depth>4</depth>
          <value>5.</value>
          <norm_class_idx>5</norm_class_idx></_>
        <_>
          <depth>3</depth>
          <value>4.</value>
          <norm_class_idx>4</norm_class_idx></_>
        <_>
          <depth>2</depth>
          <value>5.</value>
          <norm_class_idx>5</norm_class_idx>
          <splits>
            <_><var>162</var>
              <quality>100.98874664306641</quality>
              <le>0.0024465308524668217</le></_></splits></_>
        <_>
          <depth>3</depth>
          <value>2.</value>
          <norm_class_idx>2</norm_class_idx>
          <splits>
            <_><var>353</var>
              <quality>15.927272796630859</quality>
              <le>0.087427929043769836</le></_></splits></_>
        <_>
          <depth>4</depth>
          <value>2.</value>
          <norm_class_idx>2</norm_class_idx>
          <splits>
            <_><var>351</var>
              <quality>11.</quality>
              <le>0.044395267963409424</le></_></splits></_>
        <_>
          <depth>5</depth>
          <value>0.</value>
          <norm_class_idx>0</norm_class_idx></_>
        <_>
          <depth>5</depth>
          <value>2.</value>
          <norm_class_idx>2</norm_class_idx></_>
        <_>
          <depth>4</depth>
          <value>3.</value>
          <norm_class_idx>3</norm_class_idx>
          <splits>
            <_><var>318</var>
              <quality>10.</quality>
              <le>0.2347295880317688</le></_></splits></_>
        <_>
          <depth>5</depth>
          <value>3.</value>
          <norm_class_idx>3</norm_class_idx></_>
        <_>
          <depth>5</depth>
          <value>4.</value>
          <norm_class_idx>4</norm_class_idx></_>
        <_>
          <depth>3</depth>
          <value>5.</value>
          <norm_class_idx>5</norm_class_idx>
          <splits>
            <_><var>499</var>
              <quality>104.66666412353516</quality>
              <le>0.14205187559127808</le></_></splits></_>
        <_>
          <depth>4</depth>
          <value>4.</value>
          <norm_class_idx>4</norm_class_idx>
          <splits>
            <_><var>366</var>
              <quality>7.</quality>
              <le>0.19655878841876984</le></_></splits></_>
        <_>
          <depth>5</depth>
          <value>2.</value>
          <norm_class_idx>2</norm_class_idx>
          <splits>
            <_><var>535</var>
              <quality>4.</quality>
              <le>0.14535351097583771</le></_></splits></_>
        <_>
          <depth>6</depth>
          <value>2.</value>
          <norm_class_idx>2</norm_class_idx></_>
        <_>
          <depth>6</depth>
          <value>3.</value>
          <norm_class_idx>3</norm_class_idx></_>
        <_>
          <depth>5</depth>
          <value>4.</value>
          <norm_class_idx>4</norm_class_idx></_>
        <_>
          <depth>4</depth>
          <value>5.</value>
          <norm_class_idx>5</norm_class_idx></_>
        <_>
          <depth>1</depth>
          <value>2.</value>
          <norm_class_idx>2</norm_class_idx>
          <splits>
            <_><var>234</var>
              <quality>173.70079040527344</quality>
              <le>0.0043098432943224907</le></_></splits></_>
        <_>
          <depth>2</depth>
          <value>2.</value>
          <norm_class_idx>2</norm_class_idx>
          <splits>
            <_><var>404</var>
              <quality>186.9710693359375</quality>
              <le>0.28568542003631592</le></_></splits></_>
        <_>
          <depth>3</depth>
          <value>0.</value>
          <norm_class_idx>0</norm_class_idx>
          <splits>
            <_><var>148</var>
              <quality>119.82003784179688</quality>
              <le>0.20624899864196777</le></_></splits></_>
        <_>
          <depth>4</depth>
          <value>0.</value>
          <norm_class_idx>0</norm_class_idx>
          <splits>
            <_><var>558</var>
              <quality>109.57894897460938</quality>
              <le>0.033516649156808853</le></_></splits></_>
        <_>
          <depth>5</depth>
          <value>1.</value>
          <norm_class_idx>1</norm_class_idx>
          <splits>
            <_><var>323</var>
              <quality>24.577777862548828</quality>
              <le>0.18450053036212921</le></_></splits></_>
        <_>
          <depth>6</depth>
          <value>0.</value>
          <norm_class_idx>0</norm_class_idx>
          <splits>
            <_><var>12</var>
              <quality>11.833333015441895</quality>
              <le>0.01447434164583683</le></_></splits></_>
        <_>
          <depth>7</depth>
          <value>0.</value>
          <norm_class_idx>0</norm_class_idx>
          <splits>
            <_><var>322</var>
              <quality>12.</quality>
              <le>0.035470582544803619</le></_></splits></_>
        <_>
          <depth>8</depth>
          <value>3.</value>
          <norm_class_idx>3</norm_class_idx></_>
        <_>
          <depth>8</depth>
          <value>0.</value>
          <norm_class_idx>0</norm_class_idx></_>
        <_>
          <depth>7</depth>
          <value>5.</value>
          <norm_class_idx>5</norm_class_idx>
          <splits>
            <_><var>274</var>
              <quality>3.</quality>
              <le>0.0059638731181621552</le></_></splits></_>
        <_>
          <depth>8</depth>
          <value>5.</value>
          <norm_class_idx>5</norm_class_idx></_>
        <_>
          <depth>8</depth>
          <value>1.</value>
          <norm_class_idx>1</norm_class_idx></_>
        <_>
          <depth>6</depth>
          <value>1.</value>
          <norm_class_idx>1</norm_class_idx>
          <splits>
            <_><var>386</var>
              <quality>18.</quality>
              <le>0.23502683639526367</le></_></splits></_>
        <_>
          <depth>7</depth>
          <value>1.</value>
          <norm_class_idx>1</norm_class_idx></_>
        <_>
          <depth>7</depth>
          <value>0.</value>
          <norm_class_idx>0</norm_class_idx></_>
        <_>
          <depth>5</depth>
          <value>0.</value>
          <norm_class_idx>0</norm_class_idx>
          <splits>
            <_><var>501</var>
              <quality>101.38584899902344</quality>
              <le>0.011442795395851135</le></_></splits></_>
        <_>
          <depth>6</depth>
          <value>5.</value>
          <norm_class_idx>5</norm_class_idx>
          <splits>
            <_><var>358</var>
              <quality>4.5</quality>
              <le>0.080210953950881958</le></_></splits></_>
        <_>
          <depth>7</depth>
          <value>4.</value>
          <norm_class_idx>4</norm_class_idx>
          <splits>
            <_><var>155</var>
              <quality>3.</quality>
              <le>0.15962764620780945</le></_></splits></_>
        <_>
          <depth>8</depth>
          <value>0.</value>
          <norm_class_idx>0</norm_class_idx></_>
        <_>
          <depth>8</depth>
          <value>4.</value>
          <norm_class_idx>4</norm_class_idx></_>
        <_>
          <depth>7</depth>
          <value>5.</value>
          <norm_class_idx>5</norm_class_idx></_>
        <_>
          <depth>6</depth>
          <value>0.</value>
          <norm_class_idx>0</norm_class_idx>
          <splits>
            <_><var>155</var>
              <quality>105.5</quality>
              <le>0.10347303003072739</le></_></splits></_>
        <_>
          <depth>7</depth>
          <value>0.</value>
          <norm_class_idx>0</norm_class_idx></_>
        <_>
          <depth>7</depth>
          <value>4.</value>
          <norm_class_idx>4</norm_class_idx>
          <splits>
            <_><var>226</var>
              <quality>4.</quality>
              <le>0.0095181846991181374</le></_></splits></_>
        <_>
          <depth>8</depth>
          <value>4.</value>
          <norm_class_idx>4</norm_class_idx></_>
        <_>
          <depth>8</depth>
          <value>5.</value>
          <norm_class_idx>5</norm_class_idx></_>
        <_>
          <depth>4</depth>
          <value>4.</value>
          <norm_class_idx>4</norm_class_idx>
          <splits>
            <_><var>462</var>
              <quality>40.666667938232422</quality>
              <le>0.19273941218852997</le></_></splits></_>
        <_>
          <depth>5</depth>
          <value>2.</value>
          <norm_class_idx>2</norm_class_idx>
          <splits>
            <_><var>515</var>
              <quality>12.</quality>
              <le>0.20110248029232025</le></_></splits></_>
        <_>
          <depth>6</depth>
          <value>0.</value>
          <norm_class_idx>0</norm_class_idx></_>
        <_>
          <depth>6</depth>
          <value>2.</value>
          <norm_class_idx>2</norm_class_idx></_>
        <_>
          <depth>5</depth>
          <value>4.</value>
          <norm_class_idx>4</norm_class_idx></_>
        <_>
          <depth>3</depth>
          <value>2.</value>
          <norm_class_idx>2</norm_class_idx>
          <splits>
            <_><var>515</var>
              <quality>190.</quality>
              <le>0.039696000516414642</le></_></splits></_>
        <_>
          <depth>4</depth>
          <value>3.</value>
          <norm_class_idx>3</norm_class_idx></_>
        <_>
          <depth>4</depth>
          <value>2.</value>
          <norm_class_idx>2</norm_class_idx></_>
        <_>
          <depth>2</depth>
          <value>1.</value>
          <norm_class_idx>1</norm_class_idx></_></nodes></_>
    <_>
      <nodes>
        <_>
          <depth>0</depth>
          <value>4.</value>
          <norm_class_idx>4</norm_class_idx>
          <splits>
            <_><var>155</var>
              <quality>236.81886291503906</quality>
              <le>0.010017251595854759</le></_></splits></_>
        <_>
          <depth>1</depth>
          <value>0.</value>
          <norm_class_idx>0</norm_class_idx>
          <splits>
            <_><var>242</var>
              <quality>192.60835266113281</quality>
              <le>0.0016137094935402274</le></_></splits></_>
        <_>
          <depth>2</depth>
          <value>0.</value>
          <norm_class_idx>0</norm_class_idx>
          <splits>
            <_><var>236</var>
              <quality>152.</quality>
              <le>0.054370071738958359</le></_></splits></_>
        <_>
          <depth>3</depth>
          <value>0.</value>
          <norm_class_idx>0</norm_class_idx></_>
        <_>
          <depth>3</depth>
          <value>1.</value>
          <norm_class_idx>1</norm_class_idx></_>
        <_>
          <depth>2</depth>
          <value>1.</value>
          <norm_class_idx>1</norm_class_idx>
          <splits>
            <_><var>442</var>
              <quality>68.</quality>
              <le>0.029353832826018333</le></_></splits></_>
        <_>
          <depth>3</depth>
          <value>5.</value>
          <norm_class_idx>5</norm_class_idx></_>
        <_>
          <depth>3</depth>
          <value>1.</value>
          <norm_class_idx>1</norm_class_idx></_>
        <_>
          <depth>1</depth>
          <value>4.</value>
          <norm_class_idx>4</norm_class_idx>
          <splits>
            <_><var>516</var>
              <quality>216.67483520507812</quality>
              <le>0.17416158318519592</le></_></splits></_>
        <_>
          <depth>2</depth>
          <value>2.</value>
          <norm_class_idx>2</norm_class_idx>
          <splits>
            <_><var>397</var>
              <quality>178.58119201660156</quality>
              <le>0.11033047735691071</le></_></splits></_>
        <_>
          <depth>3</depth>
          <value>3.</value>
          <norm_class_idx>3</norm_class_idx>
          <splits>
            <_><var>512</var>
              <quality>82.199996948242188</quality>
              <le>0.29957413673400879</le></_></splits></_>
        <_>
          <depth>4</depth>
          <value>5.</value>
          <norm_class_idx>5</norm_class_idx>
          <splits>
            <_><var>540</var>
              <quality>12.142857551574707</quality>
              <le>0.018563227728009224</le></_></splits></_>
        <_>
          <depth>5</depth>
          <value>5.</value>
          <norm_class_idx>5</norm_class_idx></_>
        <_>
          <depth>5</depth>
          <value>2.</value>
          <norm_class_idx>2</norm_class_idx>
          <splits>
            <_><var>406</var>
              <quality>7.</quality>
              <le>0.024869382381439209</le></_></splits></_>
        <_>
          <depth>6</depth>
          <value>2.</value>
          <norm_class_idx>2</norm_class_idx></_>
        <_>
          <depth>6</depth>
          <value>3.</value>
          <norm_class_idx>3</norm_class_idx></_>
        <_>
          <depth>4</depth>
          <value>3.</value>
          <norm_class_idx>3</norm_class_idx></_>
        <_>
          <depth>3</depth>
          <value>2.</value>
          <norm_class_idx>2</norm_class_idx>
          <splits>
            <_><var>318</var>
              <quality>121.75</quality>
              <le>0.10144716501235962</le></_></splits></_>
        <_>
          <depth>4</depth>
          <value>2.</value>
          <norm_class_idx>2</norm_class_idx></_>
        <_>
          <depth>4</depth>
          <value>5.</value>
          <norm_class_idx>5</norm_class_idx>
          <splits>
            <_><var>385</var>
              <quality>6.6666665077209473</quality>
              <le>0.082157768309116364</le></_></splits></_>
        <_>
          <depth>5</depth>
          <value>5.</value>
          <norm_class_idx>5</norm_class_idx></_>
        <_>
          <depth>5</depth>
          <value>4.</value>
          <norm_class_idx>4</norm_class_idx>
          <splits>
            <_><var>332</var>
              <quality>3.</quality>
              <le>0.093624129891395569</le></_></splits></_>
        <_>
          <depth>6</depth>
          <value>3.</value>
          <norm_class_idx>3</norm_class_idx></_>
        <_>
          <depth>6</depth>
          <value>4.</value>
          <norm_class_idx>4</norm_class_idx></_>
        <_>
          <depth>2</depth>
          <value>4.</value>
          <norm_class_idx>4</norm_class_idx>
          <splits>
            <_><var>328</var>
              <quality>210.71592712402344</quality>
              <le>0.19336377084255219</le></_></splits></_>
        <_>
          <depth>3</depth>
          <value>4.</value>
          <norm_class_idx>4</norm_class_idx>
          <splits>
            <_><var>305</var>
              <quality>142.12586975097656</quality>
              <le>0.24895180761814117</le></_></splits></_>
        <_>
          <depth>4</depth>
          <value>4.</value>
          <norm_class_idx>4</norm_class_idx>
          <splits>
            <_><var>10</var>
              <quality>143.</quality>
              <le>0.019879305735230446</le></_></splits></_>
        <_>
          <depth>5</depth>
          <value>4.</value>
          <norm_class_idx>4</norm_class_idx></_>
        <_>
          <depth>5</depth>
          <value>5.</value>
          <norm_class_idx>5</norm_class_idx></_>
        <_>
          <depth>4</depth>
          <value>2.</value>
          <norm_class_idx>2</norm_class_idx></_>
        <_>
          <depth>3</depth>
          <value>5.</value>
          <norm_class_idx>5</norm_class_idx>
          <splits>
            <_><var>113</var>
              <quality>89.25</quality>
              <le>0.0018379620742052794</le></_></splits></_>
        <_>
          <depth>4</depth>
          <value>5.</value>
          <norm_class_idx>5</norm_class_idx></_>
        <_>
          <depth>4</depth>
          <value>2.</value>
          <norm_class_idx>2</norm_class_idx>
          <splits>
            <_><var>577</var>
              <quality>8.</quality>
              <le>0.033764287829399109</le></_></splits></_>
        <_>
          <depth>5</depth>
          <value>4.</value>
          <norm_class_idx>4</norm_class_idx></_>
        <_>
          <depth>5</depth>
          <value>2.</value>
          <norm_class_idx>2</norm_class_idx></_></nodes></_>
    <_>
      <nodes>
        <_>
          <depth>0</depth>
          <value>4.</value>
          <norm_class_idx>4</norm_class_idx>
          <splits>
            <_><var>253</var>
              <quality>217.20552062988281</quality>
              <le>0.044104393571615219</le></_></splits></_>
        <_>
          <depth>1</depth>
          <value>4.</value>
          <norm_class_idx>4</norm_class_idx>
          <splits>
            <_><var>296</var>
              <quality>213.04060363769531</quality>
              <le>0.25922900438308716</le></_></splits></_>
        <_>
          <depth>2</depth>
          <value>4.</value>
          <norm_class_idx>4</norm_class_idx>
          <splits>
            <_><var>426</var>
              <quality>201.98751831054688</quality>
              <le>0.29178795218467712</le></_></splits></_>
        <_>
          <depth>3</depth>
          <value>5.</value>
          <norm_class_idx>5</norm_class_idx>
          <splits>
            <_><var>512</var>
              <quality>182.70646667480469</quality>
              <le>0.29957413673400879</le></_></splits></_>
        <_>
          <depth>4</depth>
          <value>5.</value>
          <norm_class_idx>5</norm_class_idx>
          <splits>
            <_><var>386</var>
              <quality>174.76388549804688</quality>
              <le>0.25359725952148438</le></_></splits></_>
        <_>
          <depth>5</depth>
          <value>0.</value>
          <norm_class_idx>0</norm_class_idx>
          <splits>
            <_><var>131</var>
              <quality>108.06095886230469</quality>
              <le>0.069022685289382935</le></_></splits></_>
        <_>
          <depth>6</depth>
          <value>0.</value>
          <norm_class_idx>0</norm_class_idx>
          <splits>
            <_><var>510</var>
              <quality>104.20755004882812</quality>
              <le>0.22063842415809631</le></_></splits></_>
        <_>
          <depth>7</depth>
          <value>0.</value>
          <norm_class_idx>0</norm_class_idx>
          <splits>
            <_><var>462</var>
              <quality>100.13333129882812</quality>
              <le>0.30028784275054932</le></_></splits></_>
        <_>
          <depth>8</depth>
          <value>0.</value>
          <norm_class_idx>0</norm_class_idx>
          <splits>
            <_><var>424</var>
              <quality>101.07691955566406</quality>
              <le>0.011109113693237305</le></_></splits></_>
        <_>
          <depth>9</depth>
          <value>3.</value>
          <norm_class_idx>3</norm_class_idx></_>
        <_>
          <depth>9</depth>
          <value>0.</value>
          <norm_class_idx>0</norm_class_idx>
          <splits>
            <_><var>443</var>
              <quality>100.88888549804688</quality>
              <le>0.039329666644334793</le></_></splits></_>
        <_>
          <depth>10</depth>
          <value>0.</value>
          <norm_class_idx>0</norm_class_idx>
          <splits>
            <_><var>144</var>
              <quality>9.</quality>
              <le>0.024060823023319244</le></_></splits></_>
        <_>
          <depth>11</depth>
          <value>0.</value>
          <norm_class_idx>0</norm_class_idx></_>
        <_>
          <depth>11</depth>
          <value>2.</value>
          <norm_class_idx>2</norm_class_idx></_>
        <_>
          <depth>10</depth>
          <value>0.</value>
          <norm_class_idx>0</norm_class_idx></_>
        <_>
          <depth>8</depth>
          <value>4.</value>
          <norm_class_idx>4</norm_class_idx></_>
        <_>
          <depth>7</depth>
          <value>5.</value>
          <norm_class_idx>5</norm_class_idx></_>
        <_>
          <depth>6</depth>
          <value>4.</value>
          <norm_class_idx>4</norm_class_idx>
          <splits>
            <_><var>323</var>
              <quality>25.799999237060547</quality>
              <le>0.24634674191474915</le></_></splits></_>
        <_>
          <depth>7</depth>
          <value>4.</value>
          <norm_class_idx>4</norm_class_idx></_>
        <_>
          <depth>7</depth>
          <value>2.</value>
          <norm_class_idx>2</norm_class_idx>
          <splits>
            <_><var>489</var>
              <quality>10.</quality>
              <le>0.25098389387130737</le></_></splits></_>
        <_>
          <depth>8</depth>
          <value>2.</value>
          <norm_class_idx>2</norm_class_idx></_>
        <_>
          <depth>8</depth>
          <value>0.</value>
          <norm_class_idx>0</norm_class_idx></_>
        <_>
          <depth>5</depth>
          <value>5.</value>
          <norm_class_idx>5</norm_class_idx>
          <splits>
            <_><var>154</var>
              <quality>111.26667022705078</quality>
              <le>0.015588306821882725</le></_></splits></_>
        <_>
          <depth>6</depth>
          <value>0.</value>
          <norm_class_idx>0</norm_class_idx></_>
        <_>
          <depth>6</depth>
          <value>5.</value>
          <norm_class_idx>5</norm_class_idx>
          <splits>
            <_><var>147</var>
              <quality>115.19999694824219</quality>
              <le>0.087562307715415955</le></_></splits></_>
        <_>
          <depth>7</depth>
          <value>5.</value>
          <norm_class_idx>5</norm_class_idx></_>
        <_>
          <depth>7</depth>
          <value>2.</value>
          <norm_class_idx>2</norm_class_idx>
          <splits>
            <_><var>67</var>
              <quality>10.</quality>
              <le>0.015115500427782536</le></_></splits></_>
        <_>
          <depth>8</depth>
          <value>2.</value>
          <norm_class_idx>2</norm_class_idx></_>
        <_>
          <depth>8</depth>
          <value>4.</value>
          <norm_class_idx>4</norm_class_idx></_>
        <_>
          <depth>4</depth>
          <value>3.</value>
          <norm_class_idx>3</norm_class_idx>
          <splits>
            <_><var>313</var>
              <quality>84.</quality>
              <le>0.01659473218023777</le></_></splits></_>
        <_>
          <depth>5</depth>
          <value>2.</value>
          <norm_class_idx>2</norm_class_idx></_>
        <_>
          <depth>5</depth>
          <value>3.</value>
          <norm_class_idx>3</norm_class_idx></_>
        <_>
          <depth>3</depth>
          <value>4.</value>
          <norm_class_idx>4</norm_class_idx>
          <splits>
            <_><var>375</var>
              <quality>111.</quality>
              <le>0.060396663844585419</le></_></splits></_>
        <_>
          <depth>4</depth>
          <value>0.</value>
          <norm_class_idx>0</norm_class_idx></_>
        <_>
          <depth>4</depth>
          <value>4.</value>
          <norm_class_idx>4</norm_class_idx></_>
        <_>
          <depth>2</depth>
          <value>2.</value>
          <norm_class_idx>2</norm_class_idx>
          <splits>
            <_><var>404</var>
              <quality>113.</quality>
              <le>0.27999913692474365</le></_></splits></_>
        <_>
          <depth>3</depth>
          <value>0.</value>
          <norm_class_idx>0</norm_class_idx></_>
        <_>
          <depth>3</depth>
          <value>2.</value>
          <norm_class_idx>2</norm_class_idx></_>
        <_>
          <depth>1</depth>
          <value>1.</value>
          <norm_class_idx>1</norm_class_idx></_></nodes></_>
    <_>
      <nodes>
        <_>
          <depth>0</depth>
          <value>4.</value>
          <norm_class_idx>4</norm_class_idx>
          <splits>
            <_><var>253</var>
              <quality>227.02816772460938</quality>
              <le>0.038939971476793289</le></_></splits></_>
        <_>
          <depth>1</depth>
          <value>4.</value>
          <norm_class_idx>4</norm_class_idx>
          <splits>
            <_><var>463</var>
              <quality>220.85111999511719</quality>
              <le>0.22783908247947693</le></_></splits></_>
        <_>
          <depth>2</depth>
          <value>5.</value>
          <norm_class_idx>5</norm_class_idx>
          <splits>
            <_><var>307</var>
              <quality>181.59054565429688</quality>
              <le>0.019135057926177979</le></_></splits></_>
        <_>
          <depth>3</depth>
          <value>5.</value>
          <norm_class_idx>5</norm_class_idx>
          <splits>
            <_><var>177</var>
              <quality>114.33333587646484</quality>
              <le>0.0069854492321610451</le></_></splits></_>
        <_>
          <depth>4</depth>
          <value>2.</value>
          <norm_class_idx>2</norm_class_idx>
          <splits>
            <_><var>265</var>
              <quality>15.</quality>
              <le>0.22491678595542908</le></_></splits></_>
        <_>
          <depth>5</depth>
          <value>2.</value>
          <norm_class_idx>2</norm_class_idx></_>
        <_>
          <depth>5</depth>
          <value>0.</value>
          <norm_class_idx>0</norm_class_idx></_>
        <_>
          <depth>4</depth>
          <value>5.</value>
          <norm_class_idx>5</norm_class_idx></_>
        <_>
          <depth>3</depth>
          <value>2.</value>
          <norm_class_idx>2</norm_class_idx>
          <splits>
            <_><var>155</var>
              <quality>178.00929260253906</quality>
              <le>0.0070611028932034969</le></_></splits></_>
        <_>
          <depth>4</depth>
          <value>0.</value>
          <norm_class_idx>0</norm_class_idx>
          <splits>
            <_><var>433</var>
              <quality>100.</quality>
              <le>0.0087387263774871826</le></_></splits></_>
        <_>
          <depth>5</depth>
          <value>3.</value>
          <norm_class_idx>3</norm_class_idx></_>
        <_>
          <depth>5</depth>
          <value>0.</value>
          <norm_class_idx>0</norm_class_idx></_>
        <_>
          <depth>4</depth>
          <value>2.</value>
          <norm_class_idx>2</norm_class_idx>
          <splits>
            <_><var>428</var>
              <quality>133.53953552246094</quality>
              <le>0.028241895139217377</le></_></splits></_>
        <_>
          <depth>5</depth>
          <value>3.</value>
          <norm_class_idx>3</norm_class_idx>
          <splits>
            <_><var>320</var>
              <quality>65.888389587402344</quality>
              <le>0.011807673610746861</le></_></splits></_>
        <_>
          <depth>6</depth>
          <value>2.</value>
          <norm_class_idx>2</norm_class_idx>
          <splits>
            <_><var>542</var>
              <quality>6.</quality>
              <le>0.072456531226634979</le></_></splits></_>
        <_>
          <depth>7</depth>
          <value>3.</value>
          <norm_class_idx>3</norm_class_idx></_>
        <_>
          <depth>7</depth>
          <value>2.</value>
          <norm_class_idx>2</norm_class_idx></_>
        <_>
          <depth>6</depth>
          <value>3.</value>
          <norm_class_idx>3</norm_class_idx>
          <splits>
            <_><var>231</var>
              <quality>64.</quality>
              <le>0.0051066922023892403</le></_></splits></_>
        <_>
          <depth>7</depth>
          <value>3.</value>
          <norm_class_idx>3</norm_class_idx></_>
        <_>
          <depth>7</depth>
          <value>4.</value>
          <norm_class_idx>4</norm_class_idx></_>
        <_>
          <depth>5</depth>
          <value>2.</value>
          <norm_class_idx>2</norm_class_idx>
          <splits>
            <_><var>323</var>
              <quality>102.20296478271484</quality>
              <le>0.2094818502664566</le></_></splits></_>
        <_>
          <depth>6</depth>
          <value>5.</value>
          <norm_class_idx>5</norm_class_idx>
          <splits>
            <_><var>562</var>
              <quality>20.333333969116211</quality>
              <le>0.046598996967077255</le></_></splits></_>
        <_>
          <depth>7</depth>
          <value>5.</value>
          <norm_class_idx>5</norm_class_idx></_>
        <_>
          <depth>7</depth>
          <value>3.</value>
          <norm_class_idx>3</norm_class_idx>
