<?xml version="1.0"?>
<opencv_storage>
<opencv_ml_svm>
  <format>3</format>
  <svmType>C_SVC</svmType>
  <kernel>
    <type>RBF</type>
    <gamma>0.033750000000000002</gamma></kernel>
  <C>12.5</C>
  <term_criteria><epsilon>1.1920928955078125e-07</epsilon>
    <iterations>1000</iterations></term_criteria>
  <var_count>580</var_count>
  <class_count>6</class_count>
  <class_labels type_id="opencv-matrix">
    <rows>6</rows>
    <cols>1</cols>
    <dt>i</dt>
    <data>
      0 1 2 3 4 5</data></class_labels>
  <sv_total>178</sv_total>
  <support_vectors>
    <_>
      0. 0. 0. 0. 0. 0. 0. 0. 0. 0. 0. 0. 0. 0. 0. 0. 0. 0.354263723
      0.921085656 0.140229389 0. 0. 0. 0. 0. 0. 0. 0. 0. 0. 0. 0. 0.
      0.0782332346 0.0177131854 0. 0. 0. 0. 0. 0. 0. 0. 0. 0. 0. 0. 0.
      0. 0. 0. 0. 0. 0. 0. 0. 0. 0. 0. 0. 0. 0. 0. 0. 0. 0. 0. 0. 0. 0.
      0. 0. 0. 0. 0. 0. 0. 0. 0. 0. 0. 0. 0. 0. 0. 0. 0. 0. 0. 0. 0. 0.
      0. 0. 0. 0. 0. 0. 0. 0. 0. 0. 0. 0. 0. 0. 0. 0. 0. 0. 0. 0. 0. 0.
      0. 0. 0. 0. 0. 0. 0. 0. 0. 0. 0. 0. 0. 0. 0. 0. 0. 0. 0. 0. 0. 0.
      0. 0. 0. 0. 0. 0. 0. 0. 0. 0. 0. 0. 0. 0. 0. 0. 0. 0. 0. 0. 0. 0.
      0. 0. 0. 0. 0. 0. 0. 0. 0. 0. 0. 0. 0. 0. 0. 0. 0. 0. 0. 0. 0. 0.
      0. 0. 0. 0. 0. 0. 0. 0. 0. 0. 0. 0. 0. 0. 0. 0. 0. 0. 0. 0. 0. 0.
      0. 0. 0. 0. 0. 0. 0. 0. 0. 0. 0. 0. 0. 0. 0. 0. 0. 0. 0. 0. 0. 0.
      0. 0. 0. 0. 0. 0. 0. 0. 0. 0. 0. 0. 0. 0. 0. 0. 0. 0. 0. 0. 0. 0.
      0. 0. 0. 0. 0. 0. 0. 0. 0. 0. 0.0429418311 0.0936687812
      0.0588359684 0.0777120516 0.245611548 0.245611548 0.163317725
      0.206132978 0.162329137 0.0871851668 0.0798003823 0.0898535922
      0.0714692324 0.0443202853 0.0479021817 0.0344352238 0.0393521227
      0.0464675277 0.147490591 0.186195925 0.076603815 0.175507233
      0.223608047 0.245611548 0.197983608 0.245611548 0.223576233
      0.245611548 0.245611548 0.245611548 0.245611548 0.102418199
      0.126974598 0.102573432 0.182408333 0.245611548 0.0731171444
      0.104585133 0.243258238 0.243258238 0.127019078 0.0211702939
      0.0173651986 0.0128081748 0.0291372035 0.0578757562 0.15685451
      0.243258238 0.243258238 0.243258238 0.0292320382 0.023916591
      0.00602366822 0.0211690161 0.243258238 0.206174999 0.243258238
      0.243258238 0.107757948 0.154540479 0.243258238 0.128107652
      0.105874225 0.0753252432 0.0624089912 0.243258238 0.243258238
      0.182501689 0.231737241 0.243258238 0.128538832 0.0685975775
      0.0978836864 0.24968043 0.24968043 0.24968043 0.24968043
      0.0579518825 0.0488577634 0.0422497764 0.0941434652 0.134947181
      0.100793406 0.0686458647 0.0197614189 0.15732044 0.136509404
      0.0956407562 0.0790757164 0.216224104 0.0992787182 0.0656880364
      0.176976159 0.20048368 0.204829216 0.241846219 0.24968043
      0.194656879 0.228863582 0.194770306 0.137302682 0.24968043
      0.233679011 0.106488965 0.0773925558 0.0688661337 0.0838818029
      0.203902677 0.201150581 0.250767082 0.141443461 0.250767082
      0.250767082 0.157244295 0.0501615964 0.108697683 0.122638404
      0.250767082 0.250767082 0.206862599 0.232924014 0.148257196
      0.099671863 0.0793259591 0.144373298 0.220353171 0.215339258
      0.250767082 0.173474029 0.250767082 0.250767082 0.0813962594
      0.0337191634 0.0594428815 0.063265942 0.14033103 0.131469741
      0.0710835233 0.114256926 0.139495149 0.0319618434 0.0365555547
      0.0525682643 0.0614499673 0.232680053 0.111916624 0.12009082
      0.089020662 0.082649909 0.232926726 0.3118487 0.144476205
      0.0902613699 0.0453639291 0.0161208194 0.0512350202 0.0500797853
      0.0778009221 0.3118487 0.3118487 0.231566831 0.0808639601
      0.0489052385 0.0354976952 0.0386620276 0.048247572 0.0943784118
      0.162818432 0.265595108 0.0425494909 0.0252132472 0.117207624
      0.0600615181 0.147001058 0.0770450979 0.205712646 0.3118487
      0.3118487 0.183324262 0.145456791 0.117951557 0.0257284064
      0.00765231159 0.0134084253 0.0189841334 0.131893665 0.277594477
      0.163621277 0.155733272 0.230428264 0.164259851 0.255614519
      0.103080399 0.0182213821 0.0196336731 0.0196286328 0.0364188217
      0.124147862 0.277594477 0.132894173 0.0871231928 0.0345327705
      0.11284484 0.193096608 0.277594477 0.211114854 0.277594477
      0.277594477 0.277594477 0.185248286 0.0775402784 0.0728280172
      0.112089127 0.0694862157 0.127582431 0.277594477 0.231895536
      0.202726483 0.104021311 0.166588873 0.255745143 0.255745143
      0.255745143 0.101882644 0.115199171 0.0742702335 0.0467853397
      0.0398484953 0.0474678986 0.103986114 0.0688987821 0.0608767979
      0.0477630012 0.0440167636 0.148889184 0.0516424365 0.0576960668
      0.0748493224 0.255745143 0.255745143 0.255745143 0.214407384
      0.164862916 0.255745143 0.0736788884 0.0755658895 0.0955794677
      0.146856204 0.242681727 0.224800825 0.154546514 0.255745143
      0.0267269611 0.038436465 0.165016264 0.139330164 0.0745867416
      0.0371591486 0.0520891622 0.0144585297 0.0142740225 0.124888666
      0.122468911 0.310646057 0.310646057 0.272061199 0.159429863
      0.19261992 0.0437297113 0.109462604 0.161310613 0.0767128468
      0.310646057 0.310646057 0.124326266 0.0191947296 0.017053403
      0.0229889415 0.117416665 0.0400506221 0.0812693238 0.310646057
      0.310646057 0.310646057 0.0702203214 0.0535904318 0.0225253645
      0.0509883128 0.252849102 0.187799647 0.252849102 0.23665534
      0.213742241 0.10442917 0.119904473 0.062399026 0.252849102
      0.252849102 0.218113109 0.0936470702 0.0942025259 0.203011408
      0.204006374 0.0738853365 0.117436461 0.252849102 0.0946803689
      0.0861624107 0.230556652 0.252849102 0.249344274 0.0558042154
      0.0514561012 0.0312209167 0.0645456612 0.0936793983 0.0878948048
      0.102800697 0.123966306 0.252849102 0.134487495 0.0706926435
      0.0712624267 0.0573459119</_>
    <_>
      0. 0. 0. 0. 0. 0. 0. 0. 0. 0. 0. 0. 0. 0. 0. 0. 0. 0.853465915
      0.490480393 0.00149994006 0. 0. 0. 0. 0. 0. 0. 0. 0. 0. 0. 0. 0.
      0.175492987 0.0149994008 0. 0. 0. 0. 0. 0. 0. 0. 0. 0. 0. 0. 0. 0.
      0. 0. 0. 0. 0. 0. 0. 0. 0. 0. 0. 0. 0. 0. 0. 0. 0. 0. 0. 0. 0. 0.
      0. 0. 0. 0. 0. 0. 0. 0. 0. 0. 0. 0. 0. 0. 0. 0. 0. 0. 0. 0. 0. 0.
      0. 0. 0. 0. 0. 0. 0. 0. 0. 0. 0. 0. 0. 0. 0. 0. 0. 0. 0. 0. 0. 0.
      0. 0. 0. 0. 0. 0. 0. 0. 0. 0. 0. 0. 0. 0. 0. 0. 0. 0. 0. 0. 0. 0.
      0. 0. 0. 0. 0. 0. 0. 0. 0. 0. 0. 0. 0. 0. 0. 0. 0. 0. 0. 0. 0. 0.
      0. 0. 0. 0. 0. 0. 0. 0. 0. 0. 0. 0. 0. 0. 0. 0. 0. 0. 0. 0. 0. 0.
      0. 0. 0. 0. 0. 0. 0. 0. 0. 0. 0. 0. 0. 0. 0. 0. 0. 0. 0. 0. 0. 0.
      0. 0. 0. 0. 0. 0. 0. 0. 0. 0. 0. 0. 0. 0. 0. 0. 0. 0. 0. 0. 0. 0.
      0. 0. 0. 0. 0. 0. 0. 0. 0. 0. 0. 0. 0. 0. 0. 0. 0. 0. 0. 0. 0. 0.
      0. 0. 0. 0. 0. 0. 0. 0. 0. 0.450836152 0.334708393 0.256080925
      0.0640313327 0.0420411788 0.00729960948 0.0162882749 0.00992311258
      0.259998769 0.450836152 0.101273686 0.040833246 0.0125409868
      0.0260101315 0.00198692386 0.00864216313 0.00484123267 0.450836152
      0.13946189 0.104842126 0.15395996 0.0762034282 0.0625204667
      0.0387116186 0.0916657448 0.0468144938 0.0560281277 0.133678898
      0.0883986577 0.0549148954 0.0291317534 0.043397449 0.0232237931
      0.0479877628 0.0310347956 0.0840010345 0.334832609 0.0449464917
      0.023883881 0.00625499245 0.0197250415 0.0996234939 0.145702273
      0.0809722543 0.28251335 0.191837922 0.0177271869 0.0291867945
      0.0869004801 0.0714421049 0.334832609 0.334832609 0.334787697
      0.168398857 0.0534236804 0.0372572877 0.0401023068 0.017126007
      0.0291116629 0.0481408499 0.0891539529 0.034990035 0.0460467748
      0.0915847123 0.0365977809 0.0887716115 0.209142938 0.0793834999
      0.27298221 0.334832609 0.235093534 0.136217743 0.0105081042
      0.00829395279 0.0218230747 0.0732399598 0.0485958196 0.216563344
      0.286186278 0.256853849 0.0373929851 0.0167756472 0.0105304318
      0.015102962 0.024831865 0.0362603776 0.114874482 0.286186278
      0.208563656 0.038063176 0.0598466545 0.0257247947 0.0490603633
      0.179843545 0.0793889165 0.186907768 0.286186278 0.286186278
      0.243849471 0.0621696338 0.0370649397 0.0335031636 0.0516512431
      0.104934052 0.286186278 0.286186278 0.286186278 0.284147114
      0.120329343 0.160197631 0.231157973 0.231157973 0.211427912
      0.115627147 0.231157973 0.139463961 0.126908749 0.125834927
      0.143987134 0.141479298 0.0852063522 0.203651398 0.105838418
      0.190797016 0.135056138 0.182829276 0.182719901 0.158125475
      0.231157973 0.153868094 0.185764551 0.188255399 0.231157973
      0.144055277 0.19562085 0.168198809 0.144365773 0.0951026827
      0.0252532698 0.151899934 0.0453688577 0.140105844 0.172732741
      0.218436137 0.118993536 0.0950764418 0.0832453743 0.043727424
      0.0770360678 0.0529156178 0.117044583 0.0785453245 0.104387157
      0.275322229 0.22517395 0.202793941 0.275322229 0.138878644
      0.273233712 0.275322229 0.275322229 0.275322229 0.0956986025
      0.0613494888 0.0414482318 0.0205170196 0.0858582109 0.0362880826
      0.0900929496 0.110232085 0.124669239 0.210893393 0.168362722
      0.275322229 0.275322229 0.131592408 0.153231621 0.0934484899
      0.0997158289 0.132154837 0.0838685483 0.0491888262 0.0897166282
      0.119871952 0.0540220886 0.0785492435 0.138107091 0.282023728
      0.210595876 0.129237548 0.121545278 0.173843399 0.128893897
      0.154246747 0.255362839 0.282023728 0.282023728 0.282023728
      0.0339660682 0.0731376857 0.282023728 0.282023728 0.0402064733
      0.0330408588 0.0283832848 0.0250253025 0.0210486501 0.0883105621
      0.196399838 0.282023728 0.282023728 0.108942002 0.0884968415
      0.078143917 0.0456768163 0.061925035 0.0498462506 0.0101142488
      0.016620433 0.0144495191 0.0354761705 0.21555154 0.303633034
      0.0966811404 0.0682046115 0.062176045 0.02647838 0.0149143115
      0.00819475204 0.0255704913 0.0226741787 0.0599064007 0.0623778887
      0.0816218108 0.267096847 0.0301797315 0.0173328351 0.0120894387
      0.0563471131 0.279421777 0.354386002 0.354386002 0.354386002
      0.354386002 0.0440936983 0.0222278945 0.0262364149 0.0454315282
      0.0387767851 0.0920413733 0.149147347 0.354386002 0.0584887266
      0.0265477113 0.0260048769 0.0301812869 0.0223528668 0.0133395065
      0.0303002428 0.03563511 0.0581193678 0.063454099 0.0724978
      0.279942185 0.324865431 0.0551023558 0.0302847568 0.024539046
      0.0250202119 0.0433886051 0.324865431 0.0798785612 0.0431332961
      0.0665288866 0.0266408343 0.01994293 0.0574318394 0.0544067025
      0.324865431 0.324865431 0.324725986 0.324865431 0.324865431
      0.106689453 0.0468222052 0.0913440362 0.0626262352 0.324865431
      0.0358599573 0.0916769728 0.337778538 0.337778538 0.0446503535
      0.0159794837 0.00484471302 0.00327982777 0.0148077048 0.0401686206
      0.128779769 0.337778538 0.337778538 0.0440033562 0.0163931251
      0.0085742576 0.00616948493 0.0386878327 0.13414821 0.173543632
      0.337778538 0.337778538 0.127425268 0.0584245287 0.050906878
      0.0275427159 0.0676609799 0.0475544594 0.0748358369 0.263111413
      0.337778538 0.0778767839 0.0427004136 0.0268833768 0.0361382589
      0.0325943604</_>
    <_>
      0.457451761 0. 0. 0. 0. 0. 0. 0. 0. 0. 0. 0. 0. 0. 0. 0. 0. 0. 0.
      0. 0. 0. 0. 0. 0. 0. 0. 0. 0. 0. 0. 0. 0.532307506 0. 0. 0. 0. 0.
      0. 0. 0. 0. 0. 0. 0. 0. 0. 0. 0.0499038287 0. 0. 0. 0. 0. 0. 0. 0.
      0. 0. 0. 0. 0. 0. 0. 0.138621747 0.013862174 0. 0. 0. 0. 0. 0. 0.
      0. 0. 0. 0. 0. 0. 0. 0.213477477 0.00554486969 0. 0. 0. 0. 0. 0.
      0. 0. 0. 0. 0. 0. 0. 0. 0.0776281729 0.0166346096 0. 0. 0. 0. 0.
      0. 0. 0. 0. 0. 0. 0. 0. 0. 0.196842879 0. 0. 0. 0. 0. 0. 0. 0. 0.
      0. 0. 0. 0. 0. 0. 0.191298008 0. 0. 0. 0. 0. 0. 0. 0. 0. 0. 0. 0.
      0. 0. 0. 0.335464627 0. 0. 0. 0. 0. 0. 0. 0. 0. 0. 0. 0. 0. 0. 0.
      0.485176086 0. 0. 0. 0. 0. 0. 0. 0. 0. 0. 0. 0. 0. 0. 0.
      0.0998076573 0. 0. 0. 0. 0. 0. 0. 0. 0. 0. 0. 0. 0. 0. 0.
      0.0166346096 0. 0. 0. 0. 0. 0. 0. 0. 0. 0. 0. 0. 0. 0. 0.
      0.00831730478 0. 0. 0. 0. 0. 0. 0. 0. 0. 0. 0. 0. 0. 0. 0. 0. 0.
      0. 0. 0. 0. 0. 0. 0. 0. 0. 0. 0. 0. 0. 0. 0. 0. 0. 0. 0. 0. 0. 0.
      0. 0. 0. 0. 0. 0. 0. 0. 0.0426190756 0.138195246 0.297130525
      0.297130525 0.214865729 0.0315786675 0.00966271665 0.0182673074
      0.0249892976 0.0885803252 0.297130525 0.297130525 0.297130525
      0.161489815 0.0752234831 0.0161840692 0.0425939485 0.0536812805
      0.012421431 0.127908334 0.297130525 0.297130525 0.101715691
      0.0262902528 0.0155705726 0.00862836745 0.0158254225 0.0531846993
      0.216296792 0.297130525 0.290892333 0.0886083469 0.0523856468
      0.0236032419 0.0314268246 0.0507461615 0.0556916632 0.255759627
      0.255759627 0.255759627 0.122040682 0.086544238 0.122824699
      0.189950615 0.0957815126 0.022291733 0.0760589689 0.136210591
      0.193011254 0.129786298 0.15329285 0.255759627 0.255759627
      0.180807129 0.0999260321 0.144261941 0.255759627 0.209046826
      0.106139794 0.0778816491 0.0503269508 0.0587048754 0.0817577988
      0.111633807 0.137820378 0.255759627 0.219429821 0.129335359
      0.0963239595 0.255759627 0.181896269 0.100002855 0.0308335815
      0.0296779759 0.0511240251 0.103072532 0.159545168 0.244447634
      0.28287679 0.28287679 0.0734219402 0.0673063099 0.0218783729
      0.0312333163 0.048396986 0.204858139 0.247909546 0.269362003
      0.191333443 0.049149435 0.0675020814 0.0660834834 0.134241462
      0.119585797 0.12881501 0.140504822 0.28287679 0.28287679
      0.0487431251 0.0674034432 0.023948811 0.0751639679 0.0983791575
      0.209327504 0.199794531 0.28287679 0.28287679 0.0626035482
      0.0158418268 0.0856423825 0.341157854 0.341157854 0.0863571241
      0.0230737925 0.0186433345 0.00957902614 0.030313082 0.0724940971
      0.179218292 0.341157854 0.314717293 0.0735490099 0.0451528281
      0.0682027191 0.0557046272 0.119832695 0.0220268313 0.0437135063
      0.341157854 0.341157854 0.215476364 0.0498794094 0.0216214024
      0.0191693325 0.0313128717 0.0477900356 0.0576266311 0.188641205
      0.248829424 0.211519927 0.0844849423 0.114240311 0.0511951298
      0.0891290233 0.16110611 0.199693516 0.254055381 0.171992272
      0.120687172 0.110014819 0.101924703 0.0841075405 0.169001549
      0.206954643 0.254055381 0.254055381 0.243543744 0.17703639
      0.161359072 0.120713733 0.0695074573 0.0978750288 0.0415127836
      0.0626815259 0.14602764 0.141074285 0.254055381 0.254055381
      0.177440003 0.0720102862 0.135501027 0.0480207205 0.0968944728
      0.105021805 0.1808687 0.254055381 0.254055381 0.159749955
      0.0414538644 0.0667444542 0.0504440814 0.0844111741 0.129084781
      0.166068539 0.227453575 0.184490249 0.177220359 0.084083423
      0.0154343275 0.0251531024 0.0295542311 0.0834005848 0.131921396
      0.264388949 0.264388949 0.264388949 0.264388949 0.0472975075
      0.0145516982 0.0651289448 0.0888648629 0.205611005 0.264388949
      0.264388949 0.113367021 0.0148197133 0.0043187975 0.061217621
      0.062365517 0.0898382217 0.211210743 0.264388949 0.264388949
      0.264388949 0.174342304 0.0575640202 0.0383737795 0.0892848447
      0.306332856 0.306332856 0.306332856 0.130508989 0.0256658047
      0.0245876499 0.0334030241 0.0346551239 0.048448801 0.0842849389
      0.198833331 0.267143518 0.127609998 0.0823419169 0.0463900007
      0.0711276904 0.0530416779 0.147082716 0.306332856 0.306332856
      0.306332856 0.161818042 0.0366139673 0.0412623212 0.0625288263
      0.0613109656 0.15438664 0.195942476 0.281656623 0.167522326
      0.0523130298 0.0511141978 0.0665939525 0.1116466 0.0707925856
      0.0547808707 0.060975492 0.148575261 0.275880963 0.275880963
      0.129049361 0.0653965399 0.170676664 0.0661797747 0.0898333713
      0.0673893988 0.144304305 0.275880963 0.275880963 0.136463389
      0.0707714334 0.139990106 0.184218347 0.214200094 0.152245834
      0.169010565 0.131865352 0.0687148795 0.046299208 0.15232259
      0.257644951 0.16231966 0.17017208 0.158967003 0.100181386
      0.184718534 0.129160345 0.0673647076 0.245824724 0.275880963
      0.0387664475 0.114287905 0.0974778831 0.182166398 0.253590286
      0.253590286 0.124827757 0.0426081792 0.0526093766 0.0926617235
      0.105057687 0.204435199 0.253590286 0.253590286 0.253590286
      0.214985102 0.0695748478 0.0902092978 0.0734511167 0.105423741
      0.189402997 0.116430253 0.17795977 0.232004642 0.0976712927
      0.0679310262 0.14353846 0.0530165844 0.0755822882 0.253590286
      0.253590286 0.253590286 0.253590286 0.142663494 0.0358149
      0.0656653941</_>
    <_>
      0. 0. 0. 0. 0. 0. 0. 0. 0. 0. 0. 0. 0. 0. 0. 0. 0.776235282
      0.257414788 0.0139682442 0. 0. 0. 0. 0. 0. 0. 0. 0. 0. 0. 0. 0.
      0.490884006 0.161632538 0. 0. 0. 0. 0. 0. 0. 0. 0. 0. 0. 0. 0. 0.
      0.229478285 0.105759561 0. 0. 0. 0. 0. 0. 0. 0. 0. 0. 0. 0. 0. 0.
      0.00798185356 0. 0. 0. 0. 0. 0. 0. 0. 0. 0. 0. 0. 0. 0. 0. 0. 0.
      0. 0. 0. 0. 0. 0. 0. 0. 0. 0. 0. 0. 0. 0. 0. 0. 0. 0. 0. 0. 0. 0.
      0. 0. 0. 0. 0. 0. 0. 0. 0. 0. 0. 0. 0. 0. 0. 0. 0. 0. 0. 0. 0. 0.
      0. 0. 0. 0. 0. 0. 0. 0. 0. 0. 0. 0. 0. 0. 0. 0. 0. 0. 0. 0. 0. 0.
      0. 0. 0. 0. 0. 0. 0. 0. 0. 0. 0. 0. 0. 0. 0. 0. 0. 0. 0. 0. 0. 0.
      0. 0. 0. 0. 0. 0. 0. 0. 0. 0. 0. 0. 0. 0. 0. 0. 0. 0. 0. 0. 0. 0.
      0. 0. 0. 0. 0. 0. 0. 0. 0. 0. 0. 0. 0. 0. 0. 0. 0. 0. 0. 0. 0. 0.
      0. 0. 0. 0. 0. 0. 0. 0. 0. 0. 0. 0. 0. 0. 0. 0. 0. 0. 0. 0. 0. 0.
      0. 0. 0. 0. 0. 0. 0. 0. 0. 0. 0. 0. 0. 0. 0. 0. 0. 0. 0. 0.
      0.0853941962 0.0993712842 0.105485372 0.198881254 0.241721705
      0.231205106 0.0783586502 0.119647779 0.0570011549 0.18027921
      0.174350485 0.179671884 0.155036658 0.241721705 0.241721705
      0.17258805 0.241721705 0.0928682163 0.104078047 0.102029875
      0.124188907 0.241721705 0.241721705 0.138910174 0.0705941096
      0.0856155157 0.0803282559 0.0869187862 0.120540343 0.0762077048
      0.164159238 0.241721705 0.241721705 0.231564835 0.17395623
      0.118581288 0.0921378061 0.193289086 0.239268303 0.188633382
      0.291102022 0.268302679 0.170396283 0.160751089 0.0452802591
      0.00502155721 0.0769827962 0.0769350231 0.0709846169 0.20685865
      0.094809629 0.0682623386 0.0311816819 0.00696416106 0.02934324
      0.0384083726 0.0433544181 0.10247045 0.291102022 0.291102022
      0.291102022 0.174631953 0.0805063769 0.00493804412 0.000648813671
      0.00729281269 0.050331682 0.281816334 0.291102022 0.291102022
      0.105044998 0.0438784175 0.0435783789 0.0669088662 0.105196826
      0.0717308968 0.246806502 0.0876385942 0.156744063 0.104330547
      0.0647073016 0.0849543437 0.00349598844 0.0104612894 0.
      0.114828907 0.00218078424 0.0587137938 0.0294701587 0.0987978354
      0.107905298 0.00516481139 0.0294729229 0.141993359 0.331509084
      0.28880617 0.331509084 0.331509084 0.331509084 0.183164805
      0.00135699974 0.00406064512 0.00375078572 0.0792118534
      0.00221840292 0.126089275 0.331509084 0.331509084 0.187012434
      0.107131943 0.0920264572 0.226324961 0.227368265 0.101147152
      0.0866491795 0.0985880196 0.128515407 0.110749193 0.104149543
      0.0793274567 0.182534888 0.231967121 0.231967121 0.21518968
      0.0843935385 0.120521277 0.22878325 0.0782004446 0.0532028824
      0.0615916811 0.149213865 0.231967121 0.231967121 0.231967121
      0.218105376 0.162482738 0.056271553 0.0877623186 0.122657381
      0.231967121 0.231967121 0.231967121 0.158900544 0.14913027
      0.020920774 0.0213971827 0.0455139317 0.164642766 0.272049695
      0.272049695 0.272049695 0.0501880012 0.0469584316 0.00607218314
      0.00383797195 0.0218896531 0.16256392 0.272049695 0.272049695
      0.228967294 0.0574147925 0.0316198841 0.0765625089 0.0294642635
      0.0708008781 0.176303908 0.272049695 0.272049695 0.194448873
      0.0883448273 0.0691373125 0.0313973241 0.018746268 0.0438909531
      0.190197289 0.272049695 0.272049695 0.251335889 0.124800891
      0.03604443 0.0365209281 0.0239201076 0.0495649576 0.210280567
      0.28032735 0.163031712 0.181709975 0.260946393 0.210682079
      0.074139446 0.0300365202 0.0172711592 0.0270471536 0.0139439451
      0.00575054623 0.0802790448 0.28032735 0.244948879 0.0657777041
      0.0713778213 0.113724619 0.28032735 0.28032735 0.28032735
      0.28032735 0.28032735 0.117464021 0.119163118 0.090071395
      0.0757112205 0.103116311 0.065118596 0.0602657236 0.0875134543
      0.19064483 0.160151556 0.138530508 0.0322940201 0.0578710064
      0.0438460447 0.164855719 0.242903516 0.242903516 0.242903516
      0.144519359 0.151243389 0.0268983152 0.114971638 0.125336692
      0.242903516 0.242903516 0.242903516 0.179676592 0.103872836
      0.108867556 0.0429212824 0.0763780326 0.0830082446 0.119125821
      0.165242985 0.242903516 0.241021901 0.117007099 0.151273087
      0.0349754393 0.0584730096 0.094550021 0.242903516 0.242903516
      0.211311981 0.242903516 0.132546768 0.112774126 0.05896632
      0.113832079 0.0912114307 0.251175195 0.251175195 0.16567421
      0.102949098 0.0706641749 0.07756681 0.0553801507 0.0810140893
      0.0774654374 0.251175195 0.251175195 0.251175195 0.251175195
      0.075341925 0.134603158 0.0631075129 0.075269416 0.0641611591
      0.250399351 0.237056881 0.130504787 0.0900825188 0.119153768
      0.152419403 0.0647387952 0.0828079432 0.066606842 0.251175195
      0.251175195 0.251175195 0.251175195 0.172988057 0.0458541214
      0.0218246952 0.0374457054 0.0628189072 0.162122622 0.153672636
      0.249679685 0.295379698 0.149436355 0.0768505782 0.0214654487
      0.0197366327 0.0270143263 0.0186893232 0.0412575975 0.0640767962
      0.202135682 0.176291704 0.086337924 0.0198554005 0.0746468082
      0.0736426488 0.195744053 0.295379698 0.295379698 0.295379698
      0.295379698 0.154236197 0.019128764 0.0459285453 0.0474389195
      0.0646403804 0.135776103 0.223468021 0.295379698 0.295379698</_>
    <_>
      0.0432849266 0.0360707715 0.00360707729 0. 0. 0. 0. 0. 0. 0. 0. 0.
      0. 0. 0. 0. 0.0324636959 0.0324636959 0.0180353858 0. 0. 0. 0. 0.
      0. 0. 0. 0. 0. 0. 0. 0. 0.0252495408 0.0901769325 0.00721415458 0.
      0. 0. 0. 0. 0. 0. 0. 0. 0. 0. 0. 0. 0.0288566183 0.0685344711
      0.0396778509 0. 0. 0. 0. 0. 0. 0. 0. 0. 0. 0. 0. 0. 0.0144283092
      0.0144283092 0.0793557018 0.00360707729 0.0757486224 0.0144283092
      0. 0. 0. 0. 0. 0. 0. 0. 0. 0. 0.0108212316 0.108212322 0.292173266
      0.642059743 0.432849288 0.046892006 0. 0. 0. 0. 0. 0. 0. 0. 0. 0.
      0.00360707729 0.227245867 0.223638788 0.119033553 0.054106161 0.
      0. 0. 0. 0. 0. 0. 0. 0. 0. 0. 0.0396778509 0.176746786 0.122640625
      0.0432849266 0.00360707729 0. 0. 0. 0. 0. 0. 0. 0. 0. 0. 0.
      0.0613203123 0.295780331 0.0577132367 0. 0. 0. 0. 0. 0. 0. 0. 0.
      0. 0. 0. 0. 0.0288566183 0.0396778509 0. 0. 0. 0. 0. 0. 0. 0. 0.
      0. 0. 0. 0. 0. 0.0360707715 0. 0. 0. 0. 0. 0. 0. 0. 0. 0. 0. 0. 0.
      0. 0. 0. 0. 0. 0. 0. 0. 0. 0. 0. 0. 0. 0. 0. 0. 0. 0. 0. 0. 0. 0.
      0. 0. 0. 0. 0. 0. 0. 0. 0. 0. 0. 0. 0. 0. 0. 0. 0. 0. 0. 0. 0. 0.
      0. 0. 0. 0. 0. 0. 0. 0. 0. 0. 0. 0. 0. 0. 0. 0. 0. 0. 0. 0. 0. 0.
      0. 0. 0. 0. 0. 0. 0. 0. 0. 0. 0. 0. 0. 0. 0. 0. 0.268906146
      0.136823088 0.0927799717 0.0637407675 0.140073434 0.0774580687
      0.0396151766 0.107948728 0.268906146 0.268906146 0.160880893
      0.0502738208 0.0455030128 0.0287789218 0.0306281261 0.0476814844
      0.180102468 0.268906146 0.268906146 0.184859052 0.134311751
      0.0419180356 0.0857125372 0.161250353 0.18127425 0.147157207
      0.268906146 0.268906146 0.268906146 0.140022159 0.0356804803
      0.0347239561 0.0884799808 0.114253193 0.156606272 0.268906146
      0.324916869 0.102933191 0.0309454985 0.0205239821 0.00756482733
      0.0215450805 0.0309755988 0.162956715 0.324916869 0.324916869
      0.0497746691 0.0158218462 0.00107851741 0.00597184151
      0.00982003473 0.0132004479 0.111268707 0.324916869 0.324916869
      0.189882323 0.0631509051 0.0155823538 0.0101013584 0.0290543977
      0.0514500402 0.145262212 0.324916869 0.324916869 0.0861216784
      0.0255041383 0.00578773813 0.00640959246 0.00992717966
      0.0127025777 0.152896389 0.324916869 0.320036292 0.0519681387
      0.00630689925 0.00273422757 0.0108900554 0.00586309144
      0.0275978241 0.126147211 0.320036292 0.320036292 0.104234502
      0.0563652888 0.0270147733 0.0146122696 0.0240910072 0.0616435632
      0.174150303 0.320036292 0.281593114 0.0890224129 0.0481568538
      0.0308812205 0.0369840227 0.0128279822 0.0487581901 0.125732571
      0.320036292 0.320036292 0.123316705 0.0670201853 0.0720976442
      0.0912858918 0.0905277953 0.142329589 0.196663126 0.320036292
      0.195102334 0.249050364 0.249050364 0.0687144548 0.0464315303
      0.127499133 0.112451963 0.0794989616 0.171875581 0.249050364
      0.249050364 0.249050364 0.0512685478 0.0218981691 0.0535000227
      0.0508944541 0.037797939 0.22227186 0.244514599 0.249050364
      0.249050364 0.0946986303 0.0597283542 0.0966025442 0.0481086485
      0.0995840132 0.21636647 0.249050364 0.249050364 0.249050364
      0.0661568865 0.0309088007 0.0274013486 0.0242886003 0.0460038967
      0.242200896 0.314954281 0.139497563 0.0753369704 0.019528212
      0.0168552324 0.0301946532 0.0360499248 0.110818043 0.314954281
      0.219566107 0.0920952484 0.05554666 0.0114369588 0.0138697578
      0.0181304794 0.0341725685 0.226295099 0.314954281 0.314954281
      0.273226231 0.0796307251 0.0337232985 0.041882854 0.0400570147
      0.0349528566 0.105744265 0.218826175 0.314954281 0.314954281
      0.155679151 0.0234275833 0.0412016585 0.04005602 0.0420568287
      0.191416293 0.190535426 0.107319638 0.104295827 0.135299325
      0.0491488464 0.0258900784 0.0441336706 0.0590920188 0.0850907862
      0.170567408 0.162872419 0.141865194 0.130738929 0.124902792
      0.0964464918 0.199010178 0.198652089 0.12088573 0.264052927
      0.175587729 0.279686749 0.279686749 0.0670394897 0.021876689
      0.0713703111 0.0397816151 0.074752681 0.102362715 0.100188881
      0.279686749 0.279686749 0.279686749 0.101936787 0.279686749
      0.279686749 0.106452405 0.147347555 0.259330571 0.141140074
      0.0902847499 0.0500541329 0.073595494 0.0955694318 0.0286319591
      0.104209594 0.27854681 0.286036134 0.177196205 0.092073746
      0.0253519192 0.0337345898 0.0393623449 0.0222238731 0.0468771383
      0.286036134 0.274792343 0.12497928 0.054443676 0.0339023545
      0.0804324225 0.0771324262 0.0538440719 0.282054633 0.286036134
      0.286036134 0.286036134 0.139129862 0.0578379184 0.0988420621
      0.0617436394 0.0593295097 0.169634044 0.286036134 0.330955237
      0.226775005 0.0291703586 0.00808641594 0.0138643002 0.0149320085
      0.0123046115 0.0322180726 0.137216523 0.330955237 0.330955237
      0.0644130334 0.00500643533 0.0134556582 0.0099346498 0.00657221815
      0.0309507176 0.0841316357 0.330955237 0.138595879 0.0403290838
      0.0157826226 0.0411928669 0.0139074717 0.0200975984 0.105355985
      0.330955237 0.330955237 0.330955237 0.0875932276 0.0158149395
      0.0512957349 0.00894331001 0.00836518779 0.0545196384 0.310659975
      0.248253599 0.311657727 0.311657727 0.0203839187 0.0116744125
      0.0164585877 0.00915171858 0.0197832435 0.0249822345 0.068404004
      0.311657727 0.311657727 0.204324767 0.0639485866 0.0859847143
      0.106236026 0.0364644229 0.0325820372 0.311657727 0.311657727
      0.207815364 0.0261643045 0.0679881349 0.0173980296 0.052550789
      0.0564061143 0.0881843269 0.150932595 0.306585401 0.229816854
      0.0317929648 0.0974530503 0.053778857 0.137494281 0.0981129929
      0.0701752007</_>
    <_>
      0. 0. 0. 0. 0. 0. 0. 0. 0. 0. 0. 0. 0. 0. 0. 0. 0. 0. 0. 0. 0. 0.
      0. 0. 0. 0. 0. 0. 0. 0. 0. 0. 0. 0. 0. 0. 0. 0. 0. 0. 0. 0. 0. 0.
      0. 0. 0. 0. 0. 0. 0. 0. 0. 0. 0. 0. 0. 0. 0. 0. 0. 0. 0. 0.
      0.0156935174 0. 0. 0. 0. 0. 0. 0. 0. 0. 0. 0. 0. 0. 0. 0.
      0.0431571715 0.023540277 0. 0. 0. 0. 0. 0. 0. 0. 0. 0. 0. 0. 0. 0.
      0.0156935174 0.482575655 0. 0. 0. 0. 0. 0. 0. 0. 0. 0. 0. 0. 0. 0.
      0.0117701385 0.260904729 0.0078467587 0. 0. 0. 0. 0. 0. 0. 0. 0.
      0. 0. 0. 0. 0.0078467587 0.804292738 0.194207281 0. 0. 0. 0. 0. 0.
      0. 0. 0. 0. 0. 0. 0. 0. 0.0961227939 0.0451188609 0. 0. 0. 0. 0.
      0. 0. 0. 0. 0. 0. 0. 0. 0. 0. 0. 0. 0. 0. 0. 0. 0. 0. 0. 0. 0. 0.
      0. 0. 0. 0. 0. 0. 0. 0. 0. 0. 0. 0. 0. 0. 0. 0. 0. 0. 0. 0. 0. 0.
      0. 0. 0. 0. 0. 0. 0. 0. 0. 0. 0. 0. 0. 0. 0. 0. 0. 0. 0. 0. 0. 0.
      0. 0. 0. 0. 0. 0. 0. 0. 0. 0. 0. 0. 0. 0. 0. 0. 0. 0. 0. 0. 0. 0.
      0. 0. 0. 0. 0. 0. 0. 0. 0. 0. 0. 0. 0. 0. 0. 0. 0.0999906883
      0.0665535852 0.0793908089 0.21511744 0.286521137 0.106880099
      0.168237939 0.170202613 0.139273584 0.094434455 0.102725454
      0.0778377652 0.101948842 0.155340329 0.107043914 0.208611295
      0.126731053 0.133925855 0.0470306911 0.0507949255 0.0989431068
      0.286521137 0.286521137 0.263710439 0.193990171 0.16091679
      0.111210778 0.0866584852 0.0845387876 0.100452684 0.213330507
      0.286521137 0.209140778 0.226754487 0.136435777 0.143472239
      0.140636057 0.152292013 0.157735631 0.219959691 0.189649433
      0.177252993 0.224032104 0.0869385451 0.118327267 0.0738213807
      0.066228047 0.0630745217 0.222943932 0.237390026 0.141377807
      0.146188676 0.163571164 0.091209203 0.237390026 0.208506793
      0.126579046 0.237390026 0.237390026 0.197667167 0.177087203
      0.0645652562 0.205221921 0.171867445 0.113854058 0.094634451
      0.237390026 0.237390026 0.155418709 0.0599861592 0.0207359679
      0.0912563577 0.0505234934 0.0679473355 0.059926223 0.281272233
      0.281272233 0.157779679 0.146203697 0.184922665 0.149485096
      0.118108124 0.0920798182 0.152284503 0.196774706 0.281272233
      0.204077393 0.0490958057 0.0925656185 0.169311985 0.0223210305
      0.0233177636 0.0620208308 0.281272233 0.281272233 0.281272233
      0.0702796578 0.0300068222 0.0229685828 0.0519321039 0.0566463582
      0.110605277 0.199104249 0.281272233 0.281272233 0.0776581243
      0.0868887305 0.0495378748 0.0182516053 0.00879306067 0.0255172644
      0.213178098 0.331617236 0.275033057 0.0510690473 0.0299323406
      0.0321588814 0.101784416 0.0419395156 0.0648231283 0.137619376
      0.331617236 0.239353269 0.0719547421 0.0566220768 0.0919186324
      0.0355240032 0.00969302189 0.00761269126 0.100102395 0.331617236
      0.331617236 0.0434553958 0.0259781182 0.0435600765 0.229667678
      0.070100449 0.0512608476 0.0968143493 0.331617236 0.280820042
      0.0725840777 0.0856267363 0.183708057 0.247613505 0.162486762
      0.179023668 0.247613505 0.247613505 0.162253544 0.0829321966
      0.0915097669 0.187876165 0.131186664 0.0866860971 0.125447765
      0.2194525 0.247613505 0.0798516199 0.0192913394 0.0431869514
      0.0722682476 0.247613505 0.194053084 0.185451791 0.23994346
      0.247613505 0.214958832 0.0965313092 0.182844684 0.247613505
      0.0948613286 0.0944501236 0.125396162 0.174119011 0.157231763
      0.0706769675 0.0511019491 0.103161164 0.0710121244 0.0449687839
      0.0566844009 0.12241336 0.144538015 0.258978724 0.149930343
      0.0338594206 0.0361179039 0.0494174883 0.0710786805 0.0697108582
      0.113429047 0.166201517 0.258978724 0.242292508 0.0401501097
      0.050187882 0.0726725012 0.189497158 0.258978724 0.19677864
      0.169165656 0.160372421 0.0642785653 0.0715423971 0.12853691
      0.147238269 0.258978724 0.258978724 0.14031218 0.158696592
      0.258978724 0.101318836 0.21631968 0.258978724 0.250138879
      0.0400956944 0.0372152403 0.0401478484 0.249215603 0.249215603
      0.222719535 0.0378182083 0.0176875852 0.0332640558 0.246055186
      0.13139917 0.0807516798 0.193088159 0.225978553 0.149710014
      0.0741024241 0.0684736073 0.204449698 0.0270914566 0.0612803549
      0.0528803021 0.249215603 0.249215603 0.218720973 0.147387117
      0.0943880826 0.0266495775 0.249215603 0.164564013 0.070137389
      0.149622023 0.180540934 0.214971498 0.245922312 0.247087523
      0.20407328 0.265700132 0.154917136 0.0949224606 0.0589517988
      0.0837894231 0.0834148303 0.106871709 0.111986957 0.248306036
      0.191546887 0.154000118 0.0568950661 0.0450470485 0.0527534522
      0.0438488796 0.07903184 0.0999503806 0.0787343979 0.265700132
      0.256869018 0.0803469047 0.0389057137 0.0718358308 0.113388844
      0.265700132 0.265700132 0.265700132 0.265700132 0.265700132
      0.0397211984 0.0199981164 0.135611787 0.104591124 0.19114168
      0.209441185 0.265700132 0.170761138 0.301904321 0.116821736
      0.0299263373 0.0213593524 0.011491945 0.0248032119 0.0396867469
      0.0444988944 0.159408897 0.288722306 0.170468852 0.0578334555
      0.0657882765 0.0382841453 0.121993773 0.104159437 0.0886484534
      0.323999733 0.323999733 0.163384572 0.0211493913 0.0619020462
      0.0241000634 0.0246815998 0.0393208154 0.238606274 0.323999733
      0.323999733 0.323999733 0.125594333 0.0871874169 0.0319320224
      0.0705153048 0.0920817405 0.15240337</_>
    <_>
      0.0390079431 0.00975198578 0. 0. 0. 0. 0. 0. 0. 0. 0. 0. 0. 0. 0.
      0. 0.0292559583 0.0455092676 0.0227546338 0.003250662 0. 0. 0. 0.
      0. 0. 0. 0. 0. 0. 0. 0. 0.0227546338 0.0422586054 0.0195039716 0.
      0. 0. 0. 0. 0. 0. 0. 0. 0. 0. 0. 0. 0. 0.0162533093 0.0162533093
      0. 0. 0. 0. 0. 0. 0. 0. 0. 0. 0. 0. 0. 0. 0.0487599298
      0.0617625788 0. 0.00650132401 0. 0. 0. 0. 0. 0. 0. 0. 0. 0. 0. 0.
      0.136527807 0.341319501 0.73139894 0.390079439 0.026005296 0. 0.
      0. 0. 0. 0. 0. 0. 0. 0. 0. 0.162533104 0.240548983 0.100770526
      0.0975198597 0.013002648 0. 0. 0. 0. 0. 0. 0. 0. 0. 0.
      0.00650132401 0.120274492 0.100770526 0.026005296 0. 0. 0. 0. 0.
      0. 0. 0. 0. 0. 0. 0. 0.013002648 0.110522509 0.113773167 0. 0. 0.
      0. 0. 0. 0. 0. 0. 0. 0. 0. 0. 0.026005296 0.0650132373
      0.0390079431 0. 0. 0. 0. 0. 0. 0. 0. 0. 0. 0. 0. 0. 0.003250662
      0.00975198578 0. 0. 0. 0. 0. 0. 0. 0. 0. 0. 0. 0. 0. 0.
      0.026005296 0. 0. 0. 0. 0. 0. 0. 0. 0. 0. 0. 0. 0. 0. 0.
      0.0162533093 0. 0. 0. 0. 0. 0. 0. 0. 0. 0. 0. 0. 0. 0. 0.
      0.013002648 0. 0. 0. 0. 0. 0. 0. 0. 0. 0. 0. 0. 0. 0. 0.
      0.00650132401 0. 0. 0. 0. 0. 0. 0. 0. 0. 0. 0. 0. 0. 0. 0.
      0.00975198578 0. 0. 0. 0. 0. 0. 0. 0. 0. 0. 0. 0. 0. 0. 0.
      0.287233561 0.0672570169 0.0619831607 0.0507760905 0.0240366161
      0.0232704915 0.0430056527 0.12206959 0.287233561 0.287233561
      0.0845838413 0.0682769194 0.0111045185 0.0126871895 0.0204210877
      0.0388048813 0.210484609 0.287233561 0.281997919 0.239039108
      0.113124087 0.0446301699 0.0561469495 0.0824873 0.106924064
      0.169377074 0.287233561 0.287233561 0.253838062 0.10397125
      0.0306784231 0.0351037681 0.0384781621 0.0528718047 0.221911788
      0.287233561 0.32422635 0.0755540729 0.0281334594 0.0155618154
      0.0146696623 0.0133303339 0.0163488016 0.199431077 0.32422635
      0.32422635 0.0489505157 0.00734562567 0.0126376385 0.0139327701
      0.0101190861 0.0189195927 0.126207829 0.32422635 0.32422635
      0.0986296833 0.0417609699 0.0242455471 0.023573475 0.0249619875
      0.0351677015 0.207421362 0.32422635 0.32422635 0.0823786557
      0.0110592935 0.00939636305 0.0202036034 0.0288793109 0.0313397124
      0.150634274 0.32422635 0.294197768 0.0571672097 0.0127389058
      0.00170376268 0.0101584718 0.0130285649 0.0358227193 0.13842991
      0.294197768 0.294197768 0.124328762 0.0376451612 0.0737718567
      0.172615275 0.0608883761 0.0501563698 0.176444948 0.294197768
      0.245560721 0.103000619 0.0319853164 0.017697705 0.0191891193
      0.0572058707 0.0334317386 0.183478668 0.294197768 0.294197768
      0.115069002 0.0724535659 0.154320762 0.242728144 0.155231223
      0.0769892484 0.188833073 0.294197768 0.254669487 0.279791743
      0.227600336 0.0589593537 0.0361650586 0.0574410968 0.0624611005
      0.0709887743 0.226178929 0.279791743 0.220134944 0.0950593427
      0.0182602908 0.0149199534 0.0165838227 0.03010533 0.0880039111
      0.279791743 0.279791743 0.279791743 0.248455808 0.0810791701
      0.0274467897 0.0165707059 0.0265006963 0.0465639308 0.267028689
      0.279791743 0.204027995 0.0745031461 0.0167496651 0.0222184137
      0.0185595285 0.0202581566 0.0720318779 0.279791743 0.291241527
      0.0353005752 0.00896868668 0.00686189532 0.0092727486
      0.00918027759 0.0299566686 0.133608788 0.311491311 0.173853025
      0.141112044 0.0778602958 0.0150641054 0.0105412537 0.0207130779
      0.0414486565 0.129710838 0.311491311 0.311491311 0.311491311
      0.0143709816 0.000839351676 0.0137561243 0.00867831986 0.019375829
      0.115868442 0.271717101 0.311491311 0.311491311 0.306542128
      0.0164373238 0.0108168554 0.0113154417 0.03049233 0.0890895799
      0.20651786 0.113970131 0.159468338 0.111632153 0.0530907847
      0.0249962285 0.101021305 0.0758922845 0.113436244 0.0934030041
      0.24652034 0.0961375982 0.0865963027 0.142192647 0.257953942
      0.193866119 0.125207931 0.145683914 0.154528528 0.129442677
      0.257953942 0.257953942 0.0982857794 0.054925669 0.152229831
      0.124406382 0.0692892671 0.050843332 0.16779168 0.194217771
      0.257953942 0.257953942 0.257953942 0.257953942 0.257953942
      0.175179526 0.071349822 0.317767203 0.16087769 0.0536457263
      0.0351591557 0.0394775681 0.0275965836 0.0274205655 0.0393214524
      0.304642677 0.317767203 0.212689117 0.0143968267 0.00598713243
      0.014006909 0.0174764376 0.0140953753 0.0433691479 0.291171819
      0.317767203 0.179507747 0.0509728193 0.0642379522 0.0503915995
      0.0517997108 0.0476067774 0.130104169 0.317767203 0.317767203
      0.212230667 0.0308840722 0.0469098426 0.0352158993 0.0233132131
      0.0404264927 0.125411451 0.317767203 0.328581005 0.328581005
      0.00895748101 0.00039994283 0.0046894378 0.00284457323
      0.00465411134 0.0228159986 0.123166531 0.328581005 0.328581005
      0.144558668 0.00295168813 0.00238127401 0.00134168507
      0.00387403462 0.0146658774 0.0639804602 0.328581005 0.230944693
      0.0159494486 0.0044076913 0.022563003 0.00265973131 0.011034702
      0.0399202183 0.328581005 0.328581005 0.328581005 0.119068258
      0.0125585124 0.0278605521 0.00127907912 0.00794821419 0.0242614299
      0.142576203 0.22756736 0.298571587 0.298571587 0.0649541393
      0.0328527465 0.0465628728 0.0394637994 0.0185932871 0.02061476
      0.0574369393 0.272272378 0.298571587 0.241062403 0.2004641
      0.154958859 0.19704853 0.0900921673 0.0206426047 0.298571587
      0.298571587 0.232964396 0.0262309574 0.0358570851 0.0185337383
      0.0702040195 0.093780838 0.0738974288 0.119472422 0.211343527
      0.203096256 0.0515258759 0.0655004978 0.0792496055 0.178205028
      0.113616064 0.0935181305</_>
    <_>
      0.0128651289 0. 0. 0. 0. 0. 0. 0. 0. 0. 0. 0. 0. 0. 0. 0.
      0.0257302579 0. 0. 0. 0. 0. 0. 0. 0. 0. 0. 0. 0. 0. 0. 0. 0.
      0.0257302579 0. 0. 0. 0. 0. 0. 0. 0. 0. 0. 0. 0. 0. 0.
      0.00321628223 0.0192976929 0.00643256446 0. 0. 0. 0. 0. 0. 0. 0.
      0. 0. 0. 0. 0. 0.00321628223 0.0321628228 0.0739744902
      0.0321628228 0. 0. 0. 0. 0. 0. 0. 0. 0. 0. 0. 0. 0.0225139763
      0.135083854 0.247653738 0.691500664 0.46314463 0.0225139763 0. 0.
      0. 0. 0. 0. 0. 0. 0. 0. 0. 0.218707189 0.279816568 0.109353594
      0.0868396237 0.0225139763 0. 0. 0. 0. 0. 0. 0. 0. 0. 0. 0.
      0.157597825 0.115786158 0.0289465394 0. 0. 0. 0. 0. 0. 0. 0. 0. 0.
      0. 0. 0.00964884646 0.122218728 0.0707582086 0. 0. 0. 0. 0. 0. 0.
      0. 0. 0. 0. 0. 0. 0.0128651289 0.0900559053 0.0418116674 0. 0. 0.
      0. 0. 0. 0. 0. 0. 0. 0. 0. 0. 0.0225139763 0.0192976929 0. 0. 0.
      0. 0. 0. 0. 0. 0. 0. 0. 0. 0. 0. 0.0128651289 0.0225139763 0. 0.
      0. 0. 0. 0. 0. 0. 0. 0. 0. 0. 0. 0. 0.0160814114 0. 0. 0. 0. 0. 0.
      0. 0. 0. 0. 0. 0. 0. 0. 0. 0.00321628223 0. 0. 0. 0. 0. 0. 0. 0.
      0. 0. 0. 0. 0. 0. 0. 0.0128651289 0. 0. 0. 0. 0. 0. 0. 0. 0. 0. 0.
      0. 0. 0. 0. 0. 0. 0. 0. 0. 0. 0. 0. 0. 0. 0. 0. 0. 0. 0. 0.
      0.287222892 0.108210146 0.0313218795 0.0847334638 0.0236817989
      0.0076843733 0.0458576493 0.130067408 0.287222892 0.287222892
      0.111433826 0.0255471207 0.0248288773 0.0216530263 0.00240182783
      0.0300503094 0.223646149 0.287222892 0.287222892 0.223896727
      0.0342331156 0.0332065374 0.0724352151 0.0818094462 0.120948292
      0.151206911 0.287222892 0.287222892 0.241808116 0.0701512769
      0.0333463401 0.0277040787 0.0390151255 0.0850977525 0.238096014
      0.287222892 0.320628613 0.0605257265 0.0162312761 0.0084169507
      0.0153400619 0.00104233401 0.0106647508 0.188001469 0.320628613
      0.320628613 0.0339426249 0.00494594406 0.00530703738 0.0230155494
      0.0027618024 0.00684426073 0.118072793 0.320628613 0.320628613
      0.102532044 0.0644290522 0.0173595157 0.00722026452 0.0167814661
      0.0277486611 0.245647341 0.320628613 0.320628613 0.0613994896
      0.0403366275 0.0133177247 0.0176020358 0.00939649995 0.00977848843
      0.190977782 0.320628613 0.281039178 0.0368117727 0.0170044675
      0.0115356352 0.0295786597 0.00569247361 0.0178636294 0.140210107
      0.290341765 0.290341765 0.0860196874 0.100611463 0.0957166255
      0.192785993 0.0474112518 0.0576015189 0.204202384 0.290341765
      0.26508984 0.0594370179 0.0339976996 0.0243684407 0.0320071913
      0.0329592079 0.0262937099 0.197293013 0.290341765 0.290341765
      0.0866323113 0.0800592527 0.152106896 0.259503305 0.128829718
      0.0427245423 0.196089447 0.290341765 0.281870365 0.281870365
      0.14999716 0.0665487126 0.0503930561 0.0712678358 0.0863306075
      0.0778438449 0.186244845 0.281870365 0.255453885 0.0728835613
      0.0295754634 0.0146234883 0.0242383555 0.0451759882 0.0882174671
      0.281870365 0.281870365 0.281870365 0.281870365 0.098047629
      0.020657612 0.0259107631 0.0298308618 0.0344463959 0.207980543
      0.281870365 0.214807168 0.0797643289 0.0353528857 0.0184647609
      0.0202537272 0.0275445338 0.077479884 0.281870365 0.291049957
      0.0507692732 0.030641051 0.00818802882 0.00329153542 0.0137411337
      0.0246371124 0.161461979 0.291049957 0.235818729 0.0907520875
      0.0776323974 0.018858932 0.0134110162 0.0239525028 0.0284864437
      0.17143631 0.291049957 0.291049957 0.291049957 0.02143736
      0.0131316613 0.0102127753 0.0118154669 0.0291616358 0.182034552
      0.291049957 0.276412904 0.291049957 0.291049957 0.0351051949
      0.0059674019 0.0226066094 0.0526755415 0.139498994 0.229097798
      0.167874604 0.0643484294 0.0828248486 0.0456522927 0.026890127
      0.0900667682 0.0478615873 0.113892034 0.101746239 0.24631916
      0.0369898118 0.0824882612 0.127913654 0.24631916 0.17040053
      0.0480128787 0.13616012 0.195637137 0.202702045 0.24631916
      0.24631916 0.116203927 0.0290918928 0.230230033 0.132587641
      0.0882143229 0.0626228899 0.229481265 0.106770404 0.24631916
      0.24631916 0.24631916 0.24631916 0.233707026 0.218156055
      0.140529364 0.326391876 0.223908871 0.11776413 0.0470338725
      0.02733179 0.0426894166 0.0315176323 0.0156520829 0.299708128
      0.326391876 0.182862237 0.025675524 0.0175940692 0.0212228447
      0.0302409213 0.0229279939 0.0314859226 0.259766161 0.326391876
      0.174731418 0.0496415533 0.0151874609 0.0539389364 0.0547175482
      0.0339846984 0.0739106238 0.326391876 0.326391876 0.198150307
      0.0206293222 0.00374222174 0.0377869345 0.0280022211 0.0222183578
      0.0691132396 0.326391876 0.329534441 0.329534441 0.0141926901
      0.00782374199 0.00605531083 0.00556131825 0.0100002615
      0.0383510813 0.101449467 0.284812272 0.329534441 0.224355668
      0.00822184607 0.000602342072 0.00225514174 0.0117173614
      0.0218511131 0.0605872273 0.329534441 0.29320091 0.0181206428
      0.000860122615 0.00920954533 0.00157191104 0.00260927668
      0.0210766103 0.282071471 0.329534441 0.329534441 0.143910289
      0.00663767336 0.00872233696 0.000493049738 0.0034153366
      0.0132843666 0.0986272097 0.142778575 0.290277869 0.290277869
      0.0900709629 0.0186438803 0.102296747 0.0580960214 0.0181092732
      0.0208403971 0.0607248284 0.212363109 0.290277869 0.287848085
      0.159818724 0.290277869 0.194529012 0.0942104608 0.024358958
      0.230252132 0.290277869 0.290277869 0.0317391045 0.02606971
      0.0111127943 0.0197572019 0.0341189615 0.0451858751 0.0644362196
      0.213693276 0.290277869 0.0918726176 0.0588803329 0.107272245
      0.143932521 0.065494068 0.0516464077</_>
    <_>
      0. 0. 0. 0. 0. 0. 0. 0. 0. 0. 0. 0. 0. 0. 0. 0. 0. 0. 0. 0. 0. 0.
      0. 0. 0. 0. 0. 0. 0. 0. 0. 0. 0. 0. 0. 0. 0. 0. 0. 0. 0. 0. 0. 0.
      0. 0. 0. 0. 0. 0. 0. 0. 0. 0. 0. 0. 0. 0. 0. 0. 0. 0. 0. 0. 0.
      0.0276205856 0.0175767355 0.178278327 0.21343179 0. 0. 0. 0. 0. 0.
      0. 0. 0. 0. 0. 0.0175767355 0.256118149 0.527302086 0.660383105
      0.296293557 0. 0. 0. 0. 0. 0. 0. 0. 0. 0. 0. 0.0200876985
      0.220964685 0.0251096226 0.00251096231 0. 0. 0. 0. 0. 0. 0. 0. 0.
      0. 0. 0. 0.0426863581 0.0251096226 0. 0. 0. 0. 0. 0. 0. 0. 0. 0.
      0. 0. 0. 0. 0.0376644358 0.00251096231 0. 0. 0. 0. 0. 0. 0. 0. 0.
      0. 0. 0. 0. 0. 0. 0. 0. 0. 0. 0. 0. 0. 0. 0. 0. 0. 0. 0. 0. 0. 0.
      0. 0. 0. 0. 0. 0. 0. 0. 0. 0. 0. 0. 0. 0. 0. 0. 0. 0. 0. 0. 0. 0.
      0. 0. 0. 0. 0. 0. 0. 0. 0. 0. 0. 0. 0. 0. 0. 0. 0. 0. 0. 0. 0. 0.
      0. 0. 0. 0. 0. 0. 0. 0. 0. 0. 0. 0. 0. 0. 0. 0. 0. 0. 0. 0. 0. 0.
      0. 0. 0. 0. 0. 0. 0. 0. 0. 0. 0. 0. 0. 0. 0. 0. 0. 0. 0. 0. 0. 0.
      0. 0. 0. 0. 0. 0. 0. 0.195986807 0.117460981 0.0664833412
      0.206537426 0.191833347 0.0422596931 0.0722761005 0.125947297
      0.258137167 0.249095127 0.258737415 0.0960146859 0.0560727268
      0.103605382 0.0685987249 0.0880789459 0.151747897 0.267740965
      0.267740965 0.241094887 0.110800706 0.0922198594 0.0820769817
      0.0289294329 0.141082495 0.111555457 0.267740965 0.267740965
      0.267740965 0.0865743682 0.0390856378 0.0446337201 0.0221880507
      0.0710786358 0.136559978 0.267740965 0.262787908 0.262787908
      0.0908353627 0.0141686033 0.104815178 0.0655606464 0.048922509
      0.145623192 0.262787908 0.262787908 0.145210385 0.0677195117
      0.0192356333 0.0534855202 0.114634588 0.12775895 0.262787908
      0.262787908 0.262787908 0.206203148 0.0549510792 0.0147986123
      0.0414003916 0.014136428 0.0346015133 0.235662252 0.262787908
      0.262787908 0.14280574 0.0674582273 0.0237561502 0.0233505964
      0.0160547271 0.036361713 0.262787908 0.262787908 0.16945608
      0.0992508233 0.111360058 0.0532857031 0.0393084064 0.188542649
      0.217353165 0.233791262 0.233791262 0.233791262 0.192896798
      0.233791262 0.201382667 0.130624488 0.086602807 0.1457894
      0.228098795 0.233791262 0.222409606 0.118781477 0.0767490193
      0.0357732959 0.0299263652 0.0416890942 0.0528665408 0.233791262
      0.233791262 0.233791262 0.175478101 0.15579018 0.0964071751
      0.142736226 0.0637245998 0.0710333735 0.148236454 0.233791262
      0.169882238 0.256612808 0.238068134 0.0953994766 0.0613812059
      0.0189293027 0.0881087258 0.0624125339 0.235938773 0.247538954
      0.240528196 0.157991916 0.0364671424 0.0236139279 0.0067596985
      0.0498573072 0.106051989 0.256612808 0.245955572 0.256612808
      0.252806664 0.0707692578 0.0338639244 0.0420096517 0.0885605812
      0.128216043 0.256612808 0.256612808 0.226916313 0.188066319
      0.0336526483 0.0130641563 0.0310318656 0.0745632723 0.158731163
      0.256612808 0.212825105 0.170112491 0.0613973364 0.0108927106
      0.00938225351 0.00756568275 0.0282297656 0.229812294 0.28380236
      0.216132805 0.161617428 0.0648964792 0.0242227241 0.0287552048
      0.016017193 0.0181526765 0.283367574 0.28380236 0.28380236
      0.204941392 0.0691083521 0.01036717 0.00926135667 0.0322668031
      0.0446864031 0.201374829 0.28380236 0.28380236 0.199393809
      0.0464418866 0.0162825417 0.0435315557 0.056026008 0.0660680532
      0.28380236 0.28380236 0.246922895 0.162160188 0.0824503154
      0.0613952056 0.0726178735 0.0348156467 0.0227914527 0.216513619
      0.241133347 0.246922895 0.144261524 0.0777537897 0.158072129
      0.237671152 0.070261389 0.0546593517 0.134118721 0.161189422
      0.246922895 0.190397412 0.0679500327 0.0330022797 0.0666849092
      0.0584726892 0.0635997206 0.246922895 0.246922895 0.246922895
      0.142934427 0.110468298 0.246922895 0.246922895 0.0701910481
      0.107819155 0.246922895 0.19137159 0.276719481 0.194244787
      0.0786367357 0.0401780307 0.00836640131 0.0543937087 0.11332202
      0.158025578 0.276719481 0.276719481 0.117920734 0.0574684627
      0.025049774 0.00247337949 0.051144328 0.0766086653 0.183011442
      0.276719481 0.276719481 0.221779898 0.0773712471 0.172225341
      0.0580946878 0.032618314 0.148610622 0.21816951 0.276719481
      0.276719481 0.109559417 0.0676864013 0.0766686872 0.0129084233
      0.0589197204 0.0717601627 0.219653323 0.276719481 0.319360584
      0.14221999 0.0362235345 0.0163841788 0.00380512537 0.0223242156
      0.0321484767 0.126036882 0.319360584 0.319360584 0.211560011
      0.0583906844 0.0168739427 0.0141079742 0.0198026709 0.0622763857
      0.139106974 0.319360584 0.319360584 0.0600694194 0.0351001248
      0.0132039022 0.00738954125 0.0455473848 0.0350663401 0.170446515
      0.319360584 0.319360584 0.146617755 0.0406225435 0.0116527649
      0.00986224599 0.00795783661 0.0183671489 0.0903453305 0.319360584
      0.25609526 0.127921671 0.0426045917 0.00988781638 0.0176108219
      0.0121309338 0.035703633 0.174474746 0.27206254 0.153315842
      0.0677277073 0.0844490305 0.200880274 0.241970181 0.0413037129
      0.0457008556 0.21480839 0.236577749 0.27206254 0.103952684
      0.0275700316 0.0155282784 0.0165365525 0.00889856648 0.0104069132
      0.134547666 0.27206254 0.267922521 0.113553323 0.075438872
      0.268498719 0.27206254 0.0902149454 0.0419974178 0.261513472
      0.27206254</_>
    <_>
      0. 0. 0. 0. 0. 0. 0. 0. 0. 0. 0. 0. 0. 0. 0. 0. 0. 0. 0. 0. 0. 0.
      0. 0. 0. 0. 0. 0. 0. 0. 0. 0. 0. 0.00347406557 0. 0. 0. 0. 0. 0.
      0. 0. 0. 0. 0. 0. 0. 0. 0.0277925245 0.107696034 0.0208443925 0.
      0. 0. 0. 0. 0. 0. 0. 0. 0. 0. 0. 0. 0.20844394 0.552376449
      0.28139931 0. 0. 0. 0. 0. 0. 0. 0. 0. 0. 0. 0. 0. 0.114644162
      0.34393248 0.125066355 0. 0. 0. 0. 0. 0. 0. 0. 0. 0. 0. 0. 0.
      0.0799035057 0.0729553774 0.0347406566 0. 0. 0. 0. 0. 0. 0. 0. 0.
      0. 0. 0. 0. 0.0694813132 0.0660072491 0.0208443925 0. 0. 0. 0. 0.
      0. 0. 0. 0. 0. 0. 0. 0. 0.246658653 0.458576649 0.0937997699
      0.0138962623 0.00347406557 0. 0. 0. 0. 0. 0. 0. 0. 0. 0. 0.
      0.0903257057 0.239710525 0.204969868 0.0104221962 0.00694813114 0.
      0. 0. 0. 0. 0. 0. 0. 0. 0. 0. 0.0104221962 0.00694813114
      0.041688785 0. 0. 0. 0. 0. 0. 0. 0. 0. 0. 0. 0. 0. 0. 0. 0. 0. 0.
      0. 0. 0. 0. 0. 0. 0. 0. 0. 0. 0. 0. 0. 0. 0. 0. 0. 0. 0. 0. 0. 0.
      0. 0. 0. 0. 0. 0. 0. 0. 0. 0. 0. 0. 0. 0. 0. 0. 0. 0. 0. 0. 0. 0.
      0. 0. 0. 0. 0. 0. 0. 0. 0. 0. 0. 0. 0. 0. 0. 0. 0. 0. 0. 0. 0. 0.
      0. 0. 0. 0. 0. 0. 0. 0. 0. 0.16850844 0.192011014 0.124964662
      0.172865853 0.127394259 0.132159159 0.156899467 0.199740753
      0.139386013 0.206565365 0.158795342 0.164456397 0.0978825167
      0.0548717752 0.190918669 0.206565365 0.201244771 0.181217477
      0.206565365 0.206565365 0.206565365 0.173270762 0.137545452
      0.117666818 0.153279945 0.139863446 0.206565365 0.161259502
      0.200748205 0.144074827 0.126965702 0.132915512 0.178369552
      0.176230952 0.14045608 0.171999976 0.233718678 0.198914975
      0.123872809 0.047858011 0.049560301 0.134778336 0.200087354
      0.233718678 0.233718678 0.212137222 0.0798397288 0.0487713851
      0.0562114157 0.107342705 0.108603172 0.184238136 0.233718678
      0.233718678 0.154718027 0.233718678 0.154762343 0.0887858868
      0.0900866613 0.222845986 0.183963165 0.233718678 0.133175492
      0.159180179 0.123688444 0.0691395104 0.0638637692 0.103179611
      0.19234924 0.199412525 0.233718678 0.163104221 0.164468706
      0.0789949819 0.0672299638 0.0628978387 0.184671924 0.102609254
      0.103143834 0.241306499 0.241306499 0.188825279 0.128647596
      0.110118322 0.167552412 0.241306499 0.223339543 0.214679629
      0.241306499 0.231452703 0.123702399 0.0893352851 0.0886594877
      0.101926662 0.107834078 0.0984297544 0.169444591 0.241306499
      0.163870052 0.0882699862 0.0834758133 0.0807598755 0.237341821
      0.241306499 0.145396441 0.122196287 0.233731538 0.150017887
      0.215078339 0.195672765 0.159110352 0.071647428 0.136702329
      0.140589565 0.0980641171 0.194971547 0.215078339 0.142076463
      0.146805763 0.0820644125 0.106272198 0.15508455 0.127701238
      0.102888077 0.103921473 0.182659701 0.195021719 0.192468107
      0.181942269 0.158603787 0.215078339 0.215078339 0.151181683
      0.215078339 0.215078339 0.141683936 0.146024987 0.0897100717
      0.180920511 0.207374692 0.201456368 0.162981614 0.125787809
      0.215078339 0.215302348 0.17966634 0.12936902 0.157956541
      0.126960903 0.188673496 0.11679206 0.176746935 0.188355222
      0.185259417 0.149524152 0.0784696713 0.102619007 0.0938915685
      0.182936937 0.141165972 0.215302348 0.175506562 0.215302348
      0.155720085 0.0800756067 0.143049583 0.167466924 0.215302348
      0.190097764 0.20083575 0.215302348 0.169385955 0.201131895
      0.0741092488 0.0652201325 0.0955500379 0.16647993 0.171943784
      0.215302348 0.215302348 0.086944744 0.118851133 0.0988402143
      0.110571101 0.091249682 0.165957555 0.153359205 0.236551195
      0.160604656 0.0398025289 0.0704939589 0.101151682 0.236551195
      0.236551195 0.236551195 0.172800913 0.194868729 0.116934448
      0.0884696171 0.197180092 0.0817203969 0.101851575 0.109662749
      0.159579054 0.142350793 0.221531644 0.236551195 0.0418102928
      0.10547062 0.0834259391 0.236551195 0.236551195 0.236551195
      0.236551195 0.190552324 0.200351074 0.219150305 0.224912792
      0.224912792 0.12503688 0.135475233 0.115317583 0.146715939
      0.140221313 0.141850546 0.120165721 0.211382493 0.134729251
      0.164730147 0.154519275 0.133370087 0.168599784 0.106819108
      0.114653341 0.224912792 0.224912792 0.195861012 0.050781589
      0.129048839 0.204293564 0.139721021 0.141421393 0.187454402
      0.224912792 0.224912792 0.147495866 0.100785069 0.111808516
      0.12134786 0.182896927 0.146262616 0.224912792 0.0868537799
      0.130220324 0.0480527878 0.109440088 0.139519796 0.165583268
      0.1734384 0.196856603 0.151977301 0.0821892396 0.107981429
      0.0746021494 0.0822664574 0.0932281688 0.143001184 0.184023097
      0.212748513 0.213218123 0.174676195 0.223443702 0.102537885
      0.109941475 0.0986547396 0.137042955 0.232337907 0.232337907
      0.212014005 0.232337907 0.232337907 0.191142976 0.105999008
      0.0864630118 0.161189675 0.232337907 0.232337907 0.232337907
      0.0726630464 0.0879683793 0.0798888877 0.100454032 0.0628139824
      0.0758020058 0.107239693 0.0969666988 0.167100236 0.0738145784
      0.0821102932 0.0872926489 0.213294923 0.247892633 0.18417573
      0.147970557 0.081844613 0.139444023 0.254814327 0.254814327
      0.240950108 0.110799767 0.060860306 0.0903026685 0.126960635
      0.0502398238 0.254814327 0.254814327 0.254814327 0.167202771
      0.0967914462 0.24150534 0.254814327 0.184831053 0.124776907
      0.254814327</_>
    <_>
      0. 0. 0. 0. 0. 0. 0. 0. 0. 0. 0. 0. 0. 0. 0. 0. 0. 0. 0. 0. 0. 0.
      0. 0. 0. 0. 0. 0. 0. 0. 0. 0. 0. 0. 0. 0. 0. 0. 0. 0. 0. 0. 0. 0.
      0. 0. 0. 0. 0. 0. 0. 0. 0. 0. 0. 0. 0. 0. 0. 0. 0. 0. 0. 0. 0.
      0.0133190863 0. 0.0133190863 0.0452848934 0. 0. 0. 0. 0. 0. 0. 0.
      0. 0. 0. 0. 0.191794842 0.319658071 0.673945785 0.364942968 0. 0.
      0. 0. 0. 0. 0. 0. 0. 0. 0. 0.00532763451 0.255726457 0.394244969
      0.149173766 0.0506125279 0. 0. 0. 0. 0. 0. 0. 0. 0. 0. 0.
      0.00266381726 0.135854676 0.0825783312 0.00799145177 0. 0. 0. 0.
      0. 0. 0. 0. 0. 0. 0. 0. 0. 0.010655269 0.010655269 0. 0. 0. 0. 0.
      0. 0. 0. 0. 0. 0. 0. 0. 0. 0. 0. 0. 0. 0. 0. 0. 0. 0. 0. 0. 0. 0.
      0. 0. 0. 0. 0. 0. 0. 0. 0. 0. 0. 0. 0. 0. 0. 0. 0. 0. 0. 0. 0. 0.
      0. 0. 0. 0. 0. 0. 0. 0. 0. 0. 0. 0. 0. 0. 0. 0. 0. 0. 0. 0. 0. 0.
      0. 0. 0. 0. 0. 0. 0. 0. 0. 0. 0. 0. 0. 0. 0. 0. 0. 0. 0. 0. 0. 0.
      0. 0. 0. 0. 0. 0. 0. 0. 0. 0. 0. 0. 0. 0. 0. 0. 0. 0. 0. 0. 0. 0.
      0. 0. 0. 0. 0. 0. 0. 0. 0. 0. 0.247279271 0.247279271 0.188284427
      0.071079962 0.132646635 0.128691554 0.0601526462 0.0752653927
      0.192512155 0.247279271 0.247279271 0.247279271 0.147146493
      0.0522871502 0.0422144271 0.059581697 0.0874327272 0.247279271
      0.178305134 0.227581933 0.177314773 0.103162438 0.120513253
      0.163102165 0.121409528 0.0807432234 0.224301532 0.247279271
      0.193520039 0.114468344 0.0901455581 0.118185319 0.0917765871
      0.100893877 0.142724112 0.247279271 0.260478646 0.185888425
      0.242772609 0.109575137 0.0471222177 0.0521777645 0.0922718421
      0.140738934 0.260478646 0.260478646 0.139721513 0.0809264332
      0.0153519148 0.0314229801 0.0228195563 0.0851737782 0.203903824
      0.260478646 0.260478646 0.195836693 0.0818918347 0.0683013946
      0.0983610228 0.109294459 0.128966719 0.201928347 0.260478646
      0.174125493 0.110596322 0.111646235 0.0547687337 0.0222913995
      0.0805206746 0.213180631 0.260478646 0.260478646 0.2226675
      0.118876211 0.0505169928 0.0229389537 0.0232401285 0.0204546582
      0.107435815 0.178987771 0.242582396 0.219900683 0.145655632
      0.124517761 0.0911659822 0.146876901 0.199081004 0.242582396
      0.242582396 0.242582396 0.216235667 0.100153893 0.0935664102
      0.0597631335 0.00512279198 0.0352264456 0.161679566 0.191014364
      0.242582396 0.242582396 0.199643135 0.0966725126 0.0656955317
      0.153625533 0.101049505 0.242582396 0.201356351 0.242582396
      0.169273689 0.236387417 0.153985828 0.0953933597 0.0914787874
      0.0780557543 0.105009131 0.131974623 0.184565783 0.236387417
      0.134992585 0.0582759045 0.0453208834 0.0678892136 0.0794394091
      0.115473606 0.204758897 0.236387417 0.236387417 0.236387417
      0.236387417 0.236387417 0.109110586 0.127309963 0.0811476633
      0.162413731 0.190898001 0.236387417 0.236387417 0.173070446
      0.0813321769 0.0505883619 0.102694012 0.134977192 0.212482512
      0.236387417 0.284332573 0.159269527 0.0419504717 0.0291420035
      0.0437594205 0.0491806045 0.086983718 0.174169362 0.284332573
      0.284332573 0.111708827 0.0599754415 0.0366418324 0.0216064993
      0.0605280921 0.154391527 0.185515866 0.284332573 0.284332573
      0.220623672 0.1326074 0.0390820913 0.0229620785 0.0341167524
      0.0885605663 0.227067232 0.284332573 0.284332573 0.126624525
      0.0374084339 0.022722045 0.0236799791 0.049842 0.0906548277
      0.205651999 0.284332573 0.274475902 0.0824525803 0.0436050631
      0.033101514 0.00771595212 0.0336900912 0.114413291 0.116095819
      0.274475902 0.274475902 0.197251886 0.0502661057 0.100101039
      0.221181735 0.0612472929 0.129307434 0.115031108 0.274475902
      0.274475902 0.105543151 0.0337887071 0.0149278566 0.00729521224
      0.0235224366 0.053672716 0.116889134 0.274475902 0.274475902
      0.144185349 0.0520831756 0.194263399 0.274475902 0.043410562
      0.107545577 0.207941651 0.274475902 0.242225081 0.242225081
      0.197025284 0.186204851 0.0857959241 0.106263809 0.0472207628
      0.12018314 0.192888126 0.242225081 0.242225081 0.242225081
      0.120680444 0.036537651 0.0317645706 0.0422156155 0.0950885862
      0.23020564 0.242225081 0.205721557 0.137123793 0.0784421638
      0.0902992785 0.189805642 0.0910562798 0.167287916 0.228783414
      0.242225081 0.231672332 0.152561814 0.0701984689 0.0358640999
      0.0131845204 0.0285520032 0.131220698 0.242225081 0.275500298
      0.27440238 0.210643366 0.0754961297 0.0194379631 0.0122938231
      0.0534018762 0.171781376 0.275500298 0.275500298 0.123338684
      0.0428132117 0.016754292 0.0158172455 0.027505571 0.077399075
      0.168736041 0.275500298 0.275500298 0.147949129 0.122447208
      0.0533744693 0.047648903 0.01469291 0.0593871102 0.211043596
      0.275500298 0.275500298 0.128514022 0.11288818 0.104064323
      0.0732241645 0.0484676845 0.114872091 0.166471362 0.275500298
      0.245179564 0.151953518 0.0621334128 0.0191654358 0.0186961144
      0.0183614586 0.0401718505 0.090052411 0.245179564 0.245179564
      0.106821358 0.0765374601 0.153904691 0.245179564 0.0816956609
      0.152157962 0.212194368 0.245179564 0.245179564 0.159738928
      0.0944615081 0.0848269612 0.0587834753 0.043273665 0.0773180574
      0.0827952251 0.214595407 0.245179564 0.1064528 0.132631943
      0.17657119 0.244647413 0.213309139 0.245179564 0.178032234
      0.245179564</_>
    <_>
      0. 0. 0. 0. 0. 0. 0. 0. 0. 0. 0. 0. 0. 0. 0. 0. 0. 0. 0. 0. 0. 0.
      0. 0. 0. 0. 0. 0. 0. 0. 0. 0. 0. 0. 0. 0. 0. 0. 0. 0. 0. 0. 0. 0.
      0. 0. 0. 0. 0. 0. 0. 0. 0. 0. 0. 0. 0. 0. 0. 0. 0. 0. 0. 0. 0. 0.
      0. 0. 0. 0. 0. 0. 0. 0. 0. 0. 0. 0. 0. 0. 0. 0. 0. 0. 0. 0. 0. 0.
      0. 0. 0. 0. 0. 0. 0. 0. 0. 0. 0. 0. 0. 0. 0. 0. 0. 0. 0. 0. 0. 0.
      0. 0. 0. 0.0362159833 0. 0. 0. 0. 0. 0. 0. 0. 0. 0. 0. 0. 0. 0.
      0.123560414 0.705146492 0.178949565 0.00852140784 0. 0. 0. 0. 0.
      0. 0. 0. 0. 0. 0. 0. 0.0596498549 0.626323462 0.181079924 0. 0. 0.
      0. 0. 0. 0. 0. 0. 0. 0. 0. 0. 0.136342525 0.0106517598 0. 0. 0. 0.
      0. 0. 0. 0. 0. 0. 0. 0. 0. 0. 0.0489980951 0. 0. 0. 0. 0. 0. 0. 0.
      0. 0. 0. 0. 0. 0. 0. 0.0660409108 0. 0. 0. 0. 0. 0. 0. 0. 0. 0. 0.
      0. 0. 0. 0. 0. 0. 0. 0. 0. 0. 0. 0. 0. 0. 0. 0. 0. 0. 0. 0. 0. 0.
      0. 0. 0. 0. 0. 0. 0. 0. 0. 0. 0. 0. 0. 0. 0. 0. 0. 0. 0. 0. 0. 0.
      0. 0. 0. 0. 0. 0. 0. 0. 0.21699743 0.193504423 0.0705488101
      0.199889749 0.26998201 0.118793882 0.0290680826 0.0317121893
      0.0501890033 0.26998201 0.26998201 0.159756839 0.141577095
      0.0819766521 0.0653240904 0.0346242562 0.0860771909 0.26998201
      0.0632006302 0.0631959513 0.0583149418 0.226949215 0.26998201
      0.252040356 0.0306751318 0.0137946289 0.0176794007 0.157017753
      0.157959178 0.26998201 0.26998201 0.267590433 0.133353144
      0.0427616984 0.0382529125 0.0617557317 0.261982292 0.18115361
      0.1987492 0.144243732 0.029909512 0.0748107955 0.042863965
      0.142895207 0.261982292 0.261982292 0.120534912 0.0966020748
      0.104040995 0.0804028884 0.0701829866 0.0405146889 0.118193366
      0.232439071 0.25611195 0.210765377 0.261982292 0.261982292
      0.112809606 0.0533893071 0.0371216796 0.0692806691 0.199279815
      0.261982292 0.189957082 0.137432992 0.16788438 0.0892947763
      0.0768952742 0.0565987714 0.0873162448 0.261982292 0.190360814
      0.107456006 0.161172673 0.131195188 0.107241213 0.0701517984
      0.0735191852 0.134165287 0.176642224 0.280657917 0.100265682
      0.0886952132 0.058854606 0.0434721373 0.0311889555 0.125689745
      0.292591065 0.292591065 0.172973141 0.144895032 0.164616883
      0.168821022 0.136845738 0.122316822 0.0887124687 0.127122506
      0.292591065 0.292591065 0.129704073 0.0794446692 0.0632604957
      0.0535501838 0.0582212806 0.0953490809 0.285474241 0.292591065
      0.0377664901 0.0329034515 0.0794412345 0.272105336 0.272105336
      0.272105336 0.0519885048 0.0217431132 0.0296919961 0.0628839731
      0.0816476196 0.210140154 0.272105336 0.272105336 0.148544982
      0.103148073 0.0818568841 0.0567937009 0.0443999916 0.0339019783
      0.0740281269 0.272105336 0.272105336 0.236547351 0.091105327
      0.0610411167 0.055938784 0.0677405447 0.0536766201 0.0984097123
      0.261288106 0.272105336 0.219597057 0.208507299 0.150011569
      0.123790301 0.207885027 0.131518766 0.201409683 0.233384162
      0.169347048 0.0990022868 0.130843773 0.10512086 0.154978052
      0.233384162 0.215440229 0.108024344 0.128255829 0.0629084483
      0.065512307 0.0752670541 0.10858582 0.233384162 0.166447893
      0.110155672 0.108619243 0.191440687 0.233384162 0.233384162
      0.233384162 0.171813086 0.15389958 0.233384162 0.217814252
      0.133457854 0.122160584 0.103902675 0.0766636431 0.109720215
      0.185354561 0.199166283 0.228607535 0.203341022 0.151538253
      0.130172715 0.0713630021 0.0805061683 0.0671954304 0.143528223
      0.299062073 0.299062073 0.0938402116 0.0587617196 0.0445237197
      0.0317645557 0.0317790024 0.0571887456 0.169990674 0.299062073
      0.299062073 0.261514425 0.204602063 0.108557478 0.0423511155
      0.0224898756 0.0534938052 0.153145224 0.181297183 0.299062073
      0.266635329 0.117891185 0.0498416536 0.0227393601 0.0127534289
      0.02398213 0.0661809146 0.233569816 0.0151558919 0.00866606273
      0.0218017697 0.277371109 0.28652373 0.258646399 0.0568382218
      0.0269858912 0.0215367079 0.0418099351 0.027498791 0.0384442396
      0.168548763 0.28652373 0.268530756 0.134551153 0.0779558197
      0.0754573941 0.0143464664 0.0486820377 0.12283653 0.28652373
      0.28652373 0.28208977 0.0952337906 0.0574246123 0.0612028018
      0.0486361347 0.0601492487 0.158814803 0.278184235 0.28652373
      0.235928863 0.119064629 0.0913873762 0.055794064 0.195448771
      0.0732776001 0.0646394268 0.121992543 0.272909582 0.209858686
      0.130037382 0.121609926 0.203545138 0.272909582 0.177600771
      0.123389006 0.113098875 0.100876637 0.0447355136 0.0483856313
      0.0965163335 0.26985094 0.272909582 0.135257706 0.136417106
      0.128846362 0.170737773 0.126306593 0.114004426 0.189531013
      0.272909582 0.272909582 0.168470323 0.0731778443 0.0761996806
      0.0769141614 0.0221632216 0.0256482605 0.142285302 0.272909582
      0.278885126 0.278885126 0.257018119 0.163184717 0.0728120804
      0.0140177747 0.0360384248 0.0727495477 0.213952631 0.278885126
      0.202893198 0.102751613 0.0450441614 0.0200268477 0.0105802631
      0.0113292756 0.0247288831 0.216323286 0.278885126 0.224223703
      0.139350936 0.167547956 0.100112289 0.0164889228 0.0412721373
      0.177171648 0.278885126 0.278885126 0.16045244 0.0819625631
      0.0588574931 0.0679963902 0.0271048248 0.0617901534 0.119007669
      0.278885126</_>
    <_>
      0. 0. 0. 0. 0. 0. 0. 0. 0. 0. 0. 0. 0. 0. 0. 0. 0. 0. 0. 0. 0. 0.
      0. 0. 0. 0. 0. 0. 0. 0. 0. 0. 0. 0. 0. 0. 0. 0. 0. 0. 0. 0. 0. 0.
      0. 0. 0. 0. 0. 0. 0. 0. 0. 0. 0. 0. 0. 0. 0. 0. 0. 0. 0. 0. 0. 0.
      0. 0. 0. 0. 0. 0. 0. 0. 0. 0. 0. 0. 0. 0. 0. 0. 0. 0. 0. 0. 0. 0.
      0. 0. 0. 0. 0. 0. 0. 0. 0. 0. 0. 0. 0. 0. 0. 0. 0. 0. 0. 0. 0. 0.
      0. 0. 0.113627695 0.0110856285 0. 0. 0. 0. 0. 0. 0. 0. 0. 0. 0. 0.
      0. 0. 0.978306711 0.0498853289 0. 0. 0. 0. 0. 0. 0. 0. 0. 0. 0. 0.
      0. 0. 0.151041687 0.0484996252 0. 0. 0. 0. 0. 0. 0. 0. 0. 0. 0. 0.
      0. 0. 0.036028292 0. 0. 0. 0. 0. 0. 0. 0. 0. 0. 0. 0. 0. 0. 0.
      0.0304854792 0. 0. 0. 0. 0. 0. 0. 0. 0. 0. 0. 0. 0. 0. 0. 0. 0. 0.
      0. 0. 0. 0. 0. 0. 0. 0. 0. 0. 0. 0. 0. 0. 0. 0. 0. 0. 0. 0. 0. 0.
      0. 0. 0. 0. 0. 0. 0. 0. 0. 0. 0. 0. 0. 0. 0. 0. 0. 0. 0. 0. 0. 0.
      0. 0. 0. 0. 0. 0. 0. 0. 0. 0. 0. 0. 0. 0. 0. 0. 0. 0.057013236
      0.0564704798 0.138396382 0.301388919 0.301388919 0.217308968
      0.0538026355 0.0220438559 0.083900094 0.228687987 0.0986973643
      0.131542951 0.167505026 0.142229751 0.066527985 0.0719321445
      0.0909484923 0.214595079 0.10128589 0.0461686887 0.161174729
      0.301388919 0.301388919 0.0957548469 0.0221101139 0.0163149331
      0.154931337 0.301388919 0.0593755916 0.111566082 0.239920452
      0.166947514 0.0231593344 0.0157491211 0.0519806892 0.301388919
      0.231550142 0.0804954693 0.0399844833 0.0686607808 0.0764562115
      0.0666915402 0.0993419215 0.193045303 0.312149912 0.234315217
      0.0673986152 0.0143432487 0.0255451798 0.0433334745 0.0678626969
      0.144927129 0.312149912 0.312149912 0.312149912 0.0397108681
      0.00173171167 0.00311643095 0.0216199681 0.0381857567 0.0378244333
      0.13327989 0.312149912 0.312149912 0.0526753925 0.0107106986
      0.00689157657 0.02733876 0.0578245111 0.0940285027 0.254187077
      0.312149912 0.145539105 0.040925663 0.0124089662 0.00290445145
      0.0116435932 0.0203668568 0.109562181 0.290308625 0.290308625
      0.269961476 0.0903006569 0.0152170025 0.00303853652 0.0159188677
      0.0182054061 0.0660416707 0.157825932 0.290308625 0.290308625
      0.0257412661 0.0142566599 0.00292814942 0.00793819595 0.0249755345
      0.165096566 0.290308625 0.290308625 0.290308625 0.0522737466
      0.0248746406 0.0198776443 0.020694023 0.0388458148 0.239546716
      0.290308625 0.290308625 0.0570030324 0.0229067989 0.0575636998
      0.301055551 0.301055551 0.140555277 0.0134828594 0.00971265417
      0.0688014403 0.301055551 0.0465515591 0.0349947885 0.130422682
      0.262070835 0.040938165 0.00624482287 0.0189975686 0.255858272
      0.127941892 0.0675926134 0.0665882379 0.182103217 0.301055551
      0.301055551 0.10255459 0.059621878 0.10621044 0.301055551
      0.0670201257 0.0112555176 0.0512514748 0.223670468 0.164838627
      0.0625487119 0.0427916609 0.301055551 0.348702163 0.0292738806
      0.00256836717 0.0017334359 0.00056724617 0.00204964844
      0.00248107105 0.0248585474 0.348702163 0.348702163 0.0171328783
      0.00224238285 0.000882701832 0.00209759176 0.00255712355
      0.0100477505 0.0799621865 0.348702163 0.348702163 0.0341808498
      0.00402313191 0.00439741043 0.00516644353 0.000288418349 0.
      0.0416297503 0.348702163 0.348702163 0.0155190909 0.00184910954
      0.00313636614 0.00518807909 0. 0.010897045 0.110030353 0.348702163
      0.27128914 0.00790078193 0.00475984719 0.000597480917
      0.00103981839 0.00559378974 0.124025255 0.27128914 0.27128914
      0.202903688 0.0163092483 0.0129401367 0.0131177194 0.0217312947
      0.0327904597 0.27128914 0.27128914 0.27128914 0.27128914
      0.00726792729 0.0052109058 0.00058206619 0.000865204958
      0.00530150486 0.0978584662 0.27128914 0.27128914 0.234285921
      0.0314841978 0.0335205197 0.0569349527 0.0681959614 0.0424577408
      0.229139999 0.27128914 0.27128914 0.284962595 0.179855093
      0.0698088333 0.115562126 0.266973138 0.284962595 0.116450734
      0.163959175 0.284962595 0.284962595 0.118530191 0.0124459835
      0.0351912528 0.0927745327 0.122026049 0.0688068122 0.0501306057
      0.284962595 0.284962595 0.14090246 0.0190561805 0.031107761
      0.0333973691 0.0216911379 0.0206292663 0.132259563 0.284962595
      0.284962595 0.120217919 0.0122860586 0.0119366273 0.0206890032
      0.0133948 0.0154860346 0.0394522361 0.284962595 0.343140244
      0.0674122125 0.00814282894 0.0118701207 0.0217458922 0.00403168192
      0.00319723645 0.0793591738 0.343140244 0.343140244 0.0676550642
      0.0104361987 0.0183058102 0.0216112398 0.0628629848 0.0751928538
      0.233599737 0.343140244 0.343140244 0.100539126 0.00986900646
      0.00658890512 0.0179141238 0.0275823101 0.0384080224 0.0611714534
      0.309794635 0.276998639 0.0917211249 0.0116891246 0.0286499318
      0.0177746434 0.150188923 0.16088064 0.221067637 0.174323633
      0.229634956 0.0203138571 0.0059376182 0.00571511127 0.00590241281
      0.061537724 0.150158197 0.294610739 0.294610739 0.294610739
      0.0688609704 0.0519083254 0.0624900013 0.0499078035 0.0346424952
      0.154766992 0.294610739 0.294610739 0.103112318 0.0281932708
      0.006104731 0.0147131095 0.0146208517 0.121387444 0.147945091
      0.294610739 0.197369114 0.294610739 0.0723961368 0.0168186426
      0.0151109463 0.0241922662 0.0346124507 0.0481879935 0.294610739
      0.294610739</_>
    <_>
      0.13398537 0.00812032539 0. 0. 0. 0. 0. 0. 0. 0. 0. 0. 0. 0. 0. 0.
      0.341053665 0.63338536 0.00203008135 0. 0. 0. 0. 0. 0. 0. 0. 0. 0.
      0. 0. 0. 0.5217309 0.438497573 0. 0. 0. 0. 0. 0. 0. 0. 0. 0. 0. 0.
      0. 0. 0. 0. 0. 0. 0. 0. 0. 0. 0. 0. 0. 0. 0. 0. 0. 0. 0. 0. 0. 0.
      0. 0. 0. 0. 0. 0. 0. 0. 0. 0. 0. 0. 0. 0. 0. 0. 0. 0. 0. 0. 0. 0.
      0. 0. 0. 0. 0. 0. 0. 0. 0. 0. 0. 0. 0. 0. 0. 0. 0. 0. 0. 0. 0. 0.
      0. 0. 0. 0. 0. 0. 0. 0. 0. 0. 0. 0. 0. 0. 0. 0. 0. 0. 0. 0. 0. 0.
      0. 0. 0. 0. 0. 0. 0. 0. 0. 0. 0. 0. 0. 0. 0. 0. 0. 0. 0. 0. 0. 0.
      0. 0. 0. 0. 0. 0. 0. 0. 0. 0. 0. 0. 0. 0. 0. 0. 0. 0. 0. 0. 0. 0.
      0. 0. 0. 0. 0. 0. 0. 0. 0. 0. 0. 0. 0. 0. 0. 0. 0. 0. 0. 0. 0. 0.
      0. 0. 0. 0. 0. 0. 0. 0. 0. 0. 0. 0. 0. 0. 0. 0. 0. 0. 0. 0. 0. 0.
      0. 0. 0. 0. 0. 0. 0. 0. 0. 0. 0. 0. 0. 0. 0. 0. 0. 0. 0. 0. 0. 0.
      0. 0. 0. 0. 0. 0. 0. 0. 0. 0. 0. 0. 0.102173217 0.0755567923
      0.0624125414 0.195773542 0.289419353 0.289419353 0.179035768
      0.134922162 0.104680985 0.0248374324 0.0199082326 0.0528383218
      0.113502629 0.268509746 0.0956914574 0.0803851709 0.0584279969
      0.0208355878 0.117123716 0.0678306744 0.0611929968 0.115462624
      0.289419353 0.289419353 0.289419353 0.289419353 0.160478145
      0.0609876141 0.0553877875 0.0597143695 0.0649131685 0.218729466
      0.26194346 0.199310377 0.182214126 0.039863918 0.14741002
      0.0908268616 0.146054655 0.139991477 0.256843776 0.0629566461
      0.0866691247 0.0667062029 0.145538539 0.228695706 0.160240129
      0.105359152 0.0194396023 0.156528622 0.0394186713 0.0640517846
      0.0735500455 0.20300816 0.256843776 0.212207228 0.162552238
      0.155847251 0.256843776 0.219149143 0.131630734 0.14263463
      0.256843776 0.256843776 0.104800776 0.136337429 0.108870164
      0.256843776 0.123569891 0.126586318 0.0850988403 0.256843776
      0.0395918824 0.0347207114 0.0510676131 0.0649451837 0.0923966169
      0.0561342053 0.0390412658 0.029153388 0.0339149237 0.207402095
      0.107367761 0.286922753 0.331981212 0.331981212 0.271555513
      0.114633419 0.0441480689 0.154677197 0.0300391149 0.0275141317
      0.0565283448 0.177701518 0.331981212 0.0365888551 0.0138289602
      0.00756253675 0.0236309245 0.0592151321 0.0644437671 0.331981212
      0.331981212 0.331981212 0.112919152 0.021098882 0.00451924372
      0.0390274823 0.034997765 0.0423567854 0.0438424088 0.0342144445
      0.241006806 0.304097176 0.304097176 0.169895366 0.0431987569
      0.0435153991 0.0633337125 0.034706194 0.0628699809 0.172638044
      0.304097176 0.198930249 0.0938836411 0.0257471707 0.0497759841
      0.0313805453 0.0363352001 0.0335394442 0.212608188 0.304097176
      0.304097176 0.0777690038 0.0553323552 0.0692046732 0.0578857213
      0.046707876 0.0910677761 0.273296386 0.304097176 0.304097176
      0.0879440606 0.0594427213 0.165328771 0.121297136 0.0804696605
      0.112704024 0.154591501 0.152965352 0.0836744905 0.0590741672
      0.0843629912 0.103519537 0.0932390839 0.178476587 0.121794291
      0.213123292 0.0429475978 0.0446160771 0.0249467604 0.0538210943
      0.267127365 0.230120197 0.154224485 0.184588298 0.267127365
      0.267127365 0.267127365 0.0719664395 0.2017252 0.267127365
      0.267127365 0.267127365 0.180561677 0.194205344 0.0671559349
      0.0532739386 0.0208024587 0.134328753 0.0118275275 0.0193394311
      0.0419548489 0.15319632 0.374565303 0.0333913639 0.00885076821
      0.00332247955 0.0067045223 0.00808982179 0.00684957718 0.145999074
      0.374565303 0.374565303 0.0711905733 0.00764038181 0.00242858194
      0.00722159492 0.0882756934 0.0920301974 0.0784252435 0.188253388
      0.374565303 0.0781919286 0.00672229333 0.00366428378 0.0128916027
      0.0110822869 0.0147986002 0.0578248687 0.374565303 0.374565303
      0.181543469 0.00322129577 0.000706672901 0.00354197505
      0.0562190004 0.0081982892 0.0116849197 0.0359856077 0.101982236
      0.3006984 0.3006984 0.0588426068 0.0616578609 0.0659567043
      0.0263742469 0.0214393195 0.0742280334 0.261579484 0.3006984
      0.3006984 0.185500219 0.0933854505 0.0323459245 0.010335532
      0.00900928304 0.0328370631 0.113916576 0.231585816 0.199316949
      0.0364128761 0.0464691259 0.137889907 0.0330552496 0.00935301278
      0.0612083822 0.3006984 0.3006984 0.3006984 0.208831117 0.198695242
      0.173865438 0.0469605289 0.0298512895 0.0518486425 0.08710704
      0.184298202 0.211884618 0.107681915 0.160936818 0.338686883
      0.128154397 0.0621026792 0.0491675846 0.0272262339 0.0255679637
      0.0387605429 0.0247810595 0.215056479 0.338686883 0.0386665389
      0.0176231079 0.0458784774 0.111686774 0.266733199 0.248723745
      0.16562742 0.338686883 0.338686883 0.075224936 0.0313391648
      0.0305600781 0.0196151417 0.0255244188 0.044346042 0.057013128
      0.338686883 0.278656363 0.13218531 0.0792818218 0.150629506
      0.156687602 0.0488100983 0.00815359782 0.00976374559 0.105605751
      0.0625857115 0.0415269546 0.0649536699 0.322263032 0.322263032
      0.14332673 0.00433088886 0.012871813 0.0234061629 0.322263032
      0.139978051 0.0703525767 0.156492755 0.0781873837 0.0392101407
      0.0129006244 0.0473923497 0.322263032 0.253607273 0.102410771
      0.102125265 0.322263032 0.322263032 0.120911874 0.0360296667
      0.0744877532 0.119925536</_>
    <_>
      0. 0. 0. 0. 0. 0. 0. 0. 0. 0. 0. 0. 0. 0. 0. 0. 0.0029357532
      0.813203633 0.0528435558 0. 0. 0. 0. 0. 0. 0. 0. 0. 0. 0. 0. 0.
      0.0557793118 0.576875508 0.0014678766 0. 0. 0. 0. 0. 0. 0. 0. 0.
      0. 0. 0. 0. 0. 0. 0. 0. 0. 0. 0. 0. 0. 0. 0. 0. 0. 0. 0. 0. 0. 0.
      0. 0. 0. 0. 0. 0. 0. 0. 0. 0. 0. 0. 0. 0. 0. 0. 0. 0. 0. 0. 0. 0.
      0. 0. 0. 0. 0. 0. 0. 0. 0. 0. 0. 0. 0. 0. 0. 0. 0. 0. 0. 0. 0. 0.
      0. 0. 0. 0. 0. 0. 0. 0. 0. 0. 0. 0. 0. 0. 0. 0. 0. 0. 0. 0. 0. 0.
      0. 0. 0. 0. 0. 0. 0. 0. 0. 0. 0. 0. 0. 0. 0. 0. 0. 0. 0. 0. 0. 0.
      0. 0. 0. 0. 0. 0. 0. 0. 0. 0. 0. 0. 0. 0. 0. 0. 0. 0. 0. 0. 0. 0.
      0. 0. 0. 0. 0. 0. 0. 0. 0. 0. 0. 0. 0. 0. 0. 0. 0. 0. 0. 0. 0. 0.
      0. 0. 0. 0. 0. 0. 0. 0. 0. 0. 0. 0. 0. 0. 0. 0. 0. 0. 0. 0. 0. 0.
      0. 0. 0. 0. 0. 0. 0. 0. 0. 0. 0. 0. 0. 0. 0. 0. 0. 0. 0. 0. 0. 0.
      0. 0. 0. 0. 0. 0. 0. 0. 0. 0. 0. 0. 0. 0. 0.261860549 0.261860549
      0.201335117 0.0959234089 0.2213808 0.0089660855 0.0589954704
      0.0823857784 0.165274844 0.261860549 0.261860549 0.192842558
      0.0855716094 0.228776544 0.050860852 0.0564578287 0.0480882004
      0.0984238386 0.261860549 0.203781277 0.184997529 0.139617667
      0.0971380919 0.0293904655 0.0580299124 0.0956886262 0.165127084
      0.261860549 0.261860549 0.220370844 0.136644393 0.120553792
      0.0911706835 0.0621976927 0.0955903828 0.133908927 0.239382491
      0.140967131 0.0687603205 0.0929330662 0.285755873 0.0527663641
      0.064669691 0.0657368451 0.108735599 0.285755873 0.155387402
      0.08910276 0.285755873 0.285755873 0.223545551 0.126290813
      0.193135008 0.280483097 0.154384837 0.158442676 0.0982036814
      0.044011239 0.0996991023 0.0404240154 0.0456869788 0.0554379821
      0.0856063738 0.285755873 0.104897089 0.122044422 0.163324937
      0.285755873 0.112737074 0.0726936683 0.0615109876 0.14367412
      0.230878934 0.0657399669 0.0660860986 0.171122983 0.178451031
      0.175478503 0.106008798 0.127432808 0.160185307 0.0938369334
      0.113476753 0.177571103 0.263346404 0.147814497 0.186447829
      0.245273262 0.243889987 0.246343493 0.137831315 0.0729262978
      0.164691314 0.206332773 0.174054965 0.0930175781 0.0476063788
      0.0133064017 0.0572787933 0.0949703902 0.211964607 0.263346404
      0.263346404 0.235309675 0.163651496 0.0862569287 0.0243764129
      0.0963948369 0.238539562 0.178330809 0.158994973 0.167308494
      0.113170333 0.0794926509 0.0701322407 0.0876479298 0.238539562
      0.238539562 0.203475013 0.145884514 0.143503472 0.128622726
      0.107674889 0.0687369928 0.180101857 0.238539562 0.238539562
      0.200839341 0.107702076 0.127094343 0.157534197 0.0631445348
      0.0717986897 0.129880562 0.238539562 0.238539562 0.238539562
      0.0834125131 0.163009495 0.192496076 0.0616948195 0.0662727058
      0.149760693 0.238539562 0.195930883 0.133580849 0.0881347731
      0.040574234 0.0666475818 0.0463086329 0.0798608661 0.112621769
      0.184657559 0.227689505 0.114830792 0.22345534 0.079661265
      0.172006041 0.168623805 0.1696527 0.10359592 0.15966095
      0.185631648 0.129013285 0.0540075712 0.0695576221 0.155549869
      0.0300708041 0.0770879164 0.0926920846 0.183351576 0.25635466
      0.25635466 0.25635466 0.25635466 0.25635466 0.206348404
      0.169905543 0.172764748 0.25635466 0.0776428729 0.063804701
      0.256884009 0.166391209 0.103306197 0.0902024806 0.0550741218
      0.0193070192 0.0228586309 0.14012064 0.194063261 0.304042757
      0.304042757 0.160535187 0.107949525 0.039521452 0.0128067005
      0.0715759248 0.133899361 0.131865814 0.304042757 0.304042757
      0.186002493 0.0846034139 0.0567963086 0.0445660949 0.0626036823
      0.139136314 0.128287986 0.304042757 0.304042757 0.271510839
      0.098931931 0.0479817726 0.0372954272 0.0707866848 0.0951510072
      0.0597442389 0.0233769249 0.0214611087 0.0447083488 0.0128090465
      0.0309860427 0.0655129626 0.104414076 0.112765588 0.140910327
      0.0877649933 0.0567488968 0.0431759655 0.00827707257 0.0282862689
      0.0541773587 0.110756151 0.286169797 0.286169797 0.236139148
      0.107741371 0.239782766 0.133419305 0.286169797 0.286169797
      0.286169797 0.286169797 0.286169797 0.286169797 0.132537603
      0.115205213 0.0196050275 0.0596146993 0.110365532 0.242887154
      0.0906046405 0.127973169 0.13614738 0.0475381799 0.0369455069
      0.00883757789 0.0288467947 0.0368820615 0.0663957298 0.285291046
      0.272388875 0.285291046 0.138370782 0.0763804913 0.0725037158
      0.0535683334 0.108962789 0.149611592 0.277892888 0.285291046
      0.285291046 0.0866900608 0.0394978188 0.0118882433 0.0293724909
      0.0367972702 0.150372237 0.285291046 0.285291046 0.285291046
      0.136409208 0.0564277358 0.0615544021 0.0549428612 0.137393385
      0.27144292 0.214036658 0.197359592 0.238063842 0.238063842
      0.213310897 0.109625526 0.0613702126 0.111657202 0.124988914
      0.0641950667 0.102393739 0.147683516 0.238063842 0.238063842
      0.141025022 0.0849999711 0.114272937 0.0686103478 0.238063842
      0.207299516 0.238063842 0.139390081 0.12044777 0.0920245126
      0.157155231 0.238063842 0.185126156 0.101729855 0.0555453673
      0.0620633811 0.0955875218 0.157969907 0.115298182 0.238063842
      0.238063842 0.151985273</_>
    <_>
      0. 0. 0. 0. 0. 0. 0. 0. 0. 0. 0. 0. 0. 0. 0. 0. 0. 0.167890593
      0.0668832436 0.00545985671 0. 0. 0. 0. 0. 0. 0. 0. 0. 0. 0. 0. 0.
      0.967759609 0.174715415 0.0150146056 0. 0. 0. 0. 0. 0. 0. 0. 0. 0.
      0. 0. 0. 0. 0. 0. 0. 0. 0. 0. 0. 0. 0. 0. 0. 0. 0. 0. 0. 0. 0. 0.
      0. 0. 0. 0. 0. 0. 0. 0. 0. 0. 0. 0. 0. 0. 0. 0. 0. 0. 0. 0. 0. 0.
      0. 0. 0. 0. 0. 0. 0. 0. 0. 0. 0. 0. 0. 0. 0. 0. 0. 0. 0. 0. 0. 0.
      0. 0. 0. 0. 0. 0. 0. 0. 0. 0. 0. 0. 0. 0. 0. 0. 0. 0. 0. 0. 0. 0.
      0. 0. 0. 0. 0. 0. 0. 0. 0. 0. 0. 0. 0. 0. 0. 0. 0. 0. 0. 0. 0. 0.
      0. 0. 0. 0. 0. 0. 0. 0. 0. 0. 0. 0. 0. 0. 0. 0. 0. 0. 0. 0. 0. 0.
      0. 0. 0. 0. 0. 0. 0. 0. 0. 0. 0. 0. 0. 0. 0. 0. 0. 0. 0. 0. 0. 0.
      0. 0. 0. 0. 0. 0. 0. 0. 0. 0. 0. 0. 0. 0. 0. 0. 0. 0. 0. 0. 0. 0.
      0. 0. 0. 0. 0. 0. 0. 0. 0. 0. 0. 0. 0. 0. 0. 0. 0. 0. 0. 0. 0. 0.
      0. 0. 0. 0. 0. 0. 0. 0. 0. 0. 0. 0. 0.0998756513 0.186199084
      0.17323713 0.244310647 0.244310647 0.122579344 0.0348209292
      0.0562763698 0.0423906296 0.0301932655 0.0412751585 0.112808928
      0.244310647 0.244310647 0.0961544737 0.0282526556 0.0300767645
      0.0156314801 0.244310647 0.240182891 0.115015738 0.160032421
      0.244310647 0.244310647 0.244310647 0.17024231 0.244310647
      0.0386612266 0.0366479643 0.0445959046 0.147211671 0.244310647
      0.244310647 0.244310647 0.0711297765 0.0429756977 0.109566219
      0.0850781798 0.274280012 0.29333052 0.29333052 0.132694885
      0.086414583 0.112200938 0.134257138 0.0908955187 0.0249806829
      0.0343753435 0.00403509382 0.134859607 0.0198125727 0.0633989275
      0.0687166378 0.100474313 0.251566619 0.113480963 0.116739623
      0.266990751 0.29333052 0.29333052 0.29333052 0.238535583
      0.219570011 0.107276976 0.0796200261 0.0670809522 0.0304783769
      0.139428541 0.065812014 0.17534256 0.117934935 0.106324174
      0.144701317 0.0373728201 0.0651072636 0. 0.275866687 0.00771097932
      0.108717151 0.0525874831 0.14509517 0.205813751 0.0513247252
      0.151019707 0. 0.275866687 0. 0.175342441 0.0808224604 0.210241735
      0.247290373 0.163207635 0.197628021 0. 0.258580536 0.022775935
      0.168999404 0.087239936 0.234302431 0.275866687 0.0918783322
      0.263826787 0. 0.275866687 0. 0.178373024 0.100098014 0.275866687
      0.190003023 0.0515115783 0.0339182727 0.0279976223 0.0965375006
      0.324928731 0.324928731 0.148904517 0.237313837 0.023992274
      0.0220945831 0.0297951382 0.0286095366 0.119492278 0.324928731
      0.324928731 0.0864374414 0.0355277881 0.0217930842 0.00882010721
      0.00968446396 0.0103401132 0.0218521133 0.272441953 0.324928731
      0.0385673828 0.0272913128 0.00903137121 0.015214242 0.0165169295
      0.00986304693 0.0326054506 0.324928731 0.324928731 0.153068379
      0.0236133579 0.0583454445 0.0435384363 0.0446257815 0.0464506373
      0.102594189 0.26029709 0.415009469 0.129411772 0.0580047444
      0.0278970525 0.0196892004 0.023225747 0.0178629141 0.0524979569
      0.021768203 0.0652928501 0.0347631127 0.0246388819 0.0394609533
      0.0374848098 0.0445861146 0.0216531847 0.103046916 0.415009469
      0.415009469 0.415009469 0.0656303391 0.0615056008 0.0279373769
      0.028599238 0.00708961207 0.118786484 0.192552596 0.294900775
      0.140298665 0.064305447 0.1665373 0.0825844184 0.151313663 0.
      0.23082462 0.0214334335 0.169465497 0.0784077719 0.165703356
      0.202611402 0.0514657311 0.131758571 0. 0.235176146 0.00013891593
      0.198843464 0.136889279 0.215671435 0.247572571 0.0931122303
      0.138249099 0. 0.247572571 0.0946781859 0.247572571 0.164194778
      0.247572571 0.247572571 0.0616996698 0.130373001 0.00644920953
      0.247572571 0.0020837388 0.247572571 0.16920346 0.246212527
      0.0427999571 0.0276943836 0.0263136588 0.0107623804 0.0338792875
      0.228747606 0.265384555 0.0317427032 0.0404085629 0.0183549281
      0.0186675973 0.0156563763 0.0117801186 0.0727628469 0.44024229
      0.44024229 0.19604443 0.040766865 0.0509852767 0.0402071029
      0.0334443189 0.00809204951 0.0254688822 0.0526140444 0.0527619123
      0.0234047826 0.0399538577 0.0248723309 0.0140726035 0.013017985
      0.0362781286 0.127649382 0.44024229 0.44024229 0.100731835
      0.0381055512 0.0109478096 0.00914512668 0.00737620331 0.0129719274
      0.050523445 0.282218784 0.282218784 0.189753696 0.0761404186
      0.0850785598 0.0247463528 0.0100850193 0.00891350023 0.0888128951
      0.162729174 0.200286329 0.171716779 0.138522774 0.0307482779
      0.0207550749 0.00504675321 0.0459007248 0.157973573 0.282218784
      0.282218784 0.156057894 0.117591083 0.282218784 0.100872032
      0.00523993233 0.0414806381 0.225700691 0.280709475 0.282218784
      0.23530221 0.282218784 0.224304199 0.0593324266 0.0129065644
      0.0025156613 0.0445072055 0.0368539281 0.027303962 0.0435236469
      0.0714515448 0.443312496 0.0805371255 0.0113441097 0.000891608477
      0.0114478236 0.000209798294 0.0101729976 0.00764770899
      0.0598687604 0.443312496 0.272734076 0.0127385212 0.0129348673
      0.0844493881 0.0689279139 0.0587224364 0.0881906748 0.273685396
      0.443312496 0.299892485 0.00912129041 0.0020412195 0.0100704804
      0.000272259873 0.0189582817 0.0347850546 0.256887794</_>
    <_>
      0. 0. 0. 0. 0. 0. 0. 0. 0. 0. 0. 0. 0. 0. 0. 0. 0. 0. 0. 0. 0. 0.
      0. 0. 0. 0. 0. 0. 0. 0. 0. 0. 0.0486656763 0.0286268666 0. 0. 0.
      0. 0. 0. 0. 0. 0. 0. 0. 0. 0. 0. 0.0830179155 0.220426887
      0.011450747 0. 0. 0. 0. 0. 0. 0. 0. 0. 0. 0. 0. 0. 0.131683588
      0.492382109 0.712809026 0. 0. 0. 0. 0. 0. 0. 0. 0. 0. 0. 0. 0.
      0.0601164214 0.180349261 0.105919413 0. 0. 0. 0. 0. 0. 0. 0. 0. 0.
      0. 0. 0. 0.065841794 0.151722401 0. 0. 0. 0. 0. 0. 0. 0. 0. 0. 0.
      0. 0. 0. 0.0572537333 0.1717612 0.00572537351 0. 0. 0. 0. 0. 0. 0.
      0. 0. 0. 0. 0. 0. 0.0973313525 0.234740317 0.0171761215 0. 0. 0.
      0. 0. 0. 0. 0. 0. 0. 0. 0. 0. 0.00858806074 0.0229014941
      0.00572537351 0. 0. 0. 0. 0. 0. 0. 0. 0. 0. 0. 0. 0. 0.0171761215
      0. 0. 0. 0. 0. 0. 0. 0. 0. 0. 0. 0. 0. 0. 0. 0. 0. 0. 0. 0. 0. 0.
      0. 0. 0. 0. 0. 0. 0. 0. 0. 0. 0. 0. 0. 0. 0. 0. 0. 0. 0. 0. 0. 0.
      0. 0. 0. 0. 0. 0. 0. 0. 0. 0. 0. 0. 0. 0. 0. 0. 0. 0. 0. 0. 0. 0.
      0. 0. 0. 0. 0. 0. 0. 0. 0. 0. 0. 0. 0. 0. 0. 0. 0. 0. 0. 0. 0. 0.
      0. 0. 0. 0. 0. 0. 0. 0.295847982 0.201544911 0.155262113
      0.0421071611 0.0764137655 0.098302424 0.0857886001 0.0665713549
      0.249989256 0.295847982 0.198950335 0.0998381451 0.0478991605
      0.0364134498 0.0389335752 0.0349887535 0.0932428464 0.295847982
      0.295847982 0.170837343 0.185281903 0.0734590143 0.110043623
      0.118593484 0.0604223497 0.0872940272 0.233729973 0.295847982
      0.226639405 0.0944429338 0.0615652464 0.0890763775 0.117087461
      0.0311060902 0.0576473884 0.295847982 0.286857694 0.170295686
      0.0762288943 0.0508877076 0.0408920459 0.0207345709 0.0357245505
      0.147987694 0.286857694 0.286857694 0.152870804 0.113796972
      0.0348290987 0.0520529971 0.032205496 0.0442694277 0.286857694
      0.286857694 0.286857694 0.158678845 0.0463219471 0.0458797067
      0.072838515 0.0629471019 0.024456704 0.106081225 0.286857694
      0.286857694 0.0791882426 0.0379968509 0.0170321856 0.0532263666
      0.0612255782 0.0566263013 0.286857694 0.286857694 0.255668342
      0.0963191465 0.0640990809 0.0296093486 0.0531439185 0.082086198
      0.165161267 0.255668342 0.255668342 0.121283248 0.0914580151
      0.136225164 0.142702833 0.200521156 0.133472279 0.255668342
      0.255668342 0.255668342 0.255668342 0.0758475959 0.0383584313
      0.0203911327 0.0407971852 0.0516592786 0.0825526863 0.224303991
      0.255668342 0.164729953 0.0869248807 0.0919231102 0.208774343
      0.255668342 0.15160346 0.0941249505 0.115198769 0.192569301
      0.253512919 0.173153341 0.0951069817 0.0685889199 0.125439167
      0.136899516 0.0761980563 0.101186551 0.253512919 0.253512919
      0.253512919 0.0397354215 0.11769107 0.136436805 0.158637002
      0.0566155687 0.0841875449 0.253512919 0.253512919 0.127312317
      0.0558149181 0.12765345 0.110804677 0.154623061 0.13287127
      0.112054244 0.253512919 0.253512919 0.215183347 0.0461556166
      0.148040816 0.149033383 0.162669837 0.103715144 0.153280795
      0.253512919 0.283373266 0.176885754 0.040504247 0.0905721635
      0.147323817 0.131508887 0.0373466536 0.100742623 0.283373266
      0.283373266 0.126629651 0.0388772003 0.0353572816 0.0799051002
      0.116416276 0.0345975049 0.210612535 0.283373266 0.283373266
      0.187861964 0.0997405052 0.149101645 0.125525847 0.119904205
      0.0601253137 0.134235233 0.201135993 0.283373266 0.217298508
      0.103640363 0.0855154023 0.0750066638 0.0956780165 0.0383379497
      0.133728206 0.283373266 0.2826626 0.102841206 0.0472615957
      0.0275483485 0.00926598068 0.0279106516 0.0338186212 0.124815248
      0.2826626 0.234219551 0.0919831395 0.0925485715 0.148698255
      0.210346892 0.182597995 0.0900861546 0.133450955 0.2826626
      0.2826626 0.122502647 0.055812493 0.0333721489 0.0207602512
      0.0407120474 0.0340668112 0.11926952 0.2826626 0.2826626
      0.0854145363 0.0721169338 0.106458925 0.252521664 0.17286396
      0.122516379 0.200060263 0.2826626 0.212573275 0.0828083605
      0.0812535807 0.127451509 0.0649189949 0.117191799 0.163242802
      0.145417303 0.228639618 0.241864353 0.177070498 0.110230476
      0.0964026749 0.0762822405 0.0981865674 0.140469834 0.163353875
      0.241864353 0.241864353 0.0908323154 0.119440146 0.0566701628
      0.0465389863 0.133745804 0.241864353 0.241864353 0.241864353
      0.241864353 0.14958185 0.171658844 0.0789523795 0.0351200104
      0.116503902 0.211779818 0.241864353 0.241864353 0.153316289
      0.119373731 0.13514863 0.11539533 0.067085743 0.0465735905
      0.057733655 0.104235627 0.161585018 0.291803688 0.112982593
      0.0979223773 0.08377859 0.0606248118 0.0470947139 0.0516579859
      0.161429718 0.302561253 0.302561253 0.238736391 0.137556002
      0.0779407099 0.0435287021 0.0464285165 0.0655405 0.177592218
      0.302561253 0.302561253 0.302561253 0.0775637776 0.0756278411
      0.0508612245 0.0357223451 0.0529753007 0.20488295 0.302561253
      0.267482042 0.0774579719 0.0303958133 0.0308982898 0.0326074325
      0.0619290099 0.0457878299 0.105072185 0.270540565 0.244460344
      0.0523959957 0.0426116325 0.0563507192 0.166722283 0.154253826
      0.0971183702 0.0935590267 0.243844107 0.270540565 0.270540565
      0.0634680316 0.033625789 0.0335310809 0.0610086769 0.0574025288
      0.166054979 0.270540565 0.270540565 0.270540565 0.0532031767
      0.0412502773 0.0826257244 0.270540565 0.157232076 0.201519087
      0.270540565</_>
    <_>
      0. 0. 0. 0. 0. 0. 0. 0. 0. 0. 0. 0. 0. 0. 0. 0. 0. 0. 0. 0. 0. 0.
      0. 0. 0. 0. 0. 0. 0. 0. 0. 0. 0. 0. 0. 0. 0. 0. 0. 0. 0. 0. 0. 0.
      0. 0. 0. 0. 0. 0. 0. 0. 0. 0. 0. 0. 0. 0. 0. 0. 0. 0. 0. 0. 0. 0.
      0. 0. 0. 0. 0. 0. 0. 0. 0. 0. 0. 0. 0. 0. 0. 0. 0. 0. 0. 0. 0. 0.
      0. 0. 0. 0. 0. 0. 0. 0. 0. 0. 0. 0. 0. 0. 0. 0. 0. 0. 0. 0. 0. 0.
      0. 0. 0. 0. 0. 0. 0. 0. 0. 0. 0. 0. 0. 0. 0. 0. 0. 0. 0. 0. 0. 0.
      0.0125934444 0.00314836111 0.00314836111 0.0220385268 0. 0. 0. 0.
      0. 0. 0. 0. 0. 0.0818573907 0.60763371 0.365209877 0.176308215
      0.232978716 0.198346749 0.141676247 0.0220385268 0. 0. 0. 0. 0. 0.
      0. 0.00314836111 0.217236921 0.497441053 0.163714781 0.0157418065
      0.00314836111 0. 0. 0. 0. 0. 0. 0. 0. 0. 0. 0.00629672222
      0.0503737777 0.116489358 0.0220385268 0. 0. 0. 0. 0. 0. 0. 0. 0.
      0. 0. 0. 0.00944508333 0.00944508333 0.0283352509 0.00314836111 0.
      0. 0. 0. 0. 0. 0. 0. 0. 0. 0. 0. 0. 0.031483613 0.0251868889
      0.0157418065 0. 0. 0. 0. 0. 0. 0. 0. 0. 0. 0. 0. 0. 0.00944508333
      0.031483613 0.0346319713 0.0251868889 0.0220385268 0.0125934444
      0.00314836111 0. 0. 0. 0. 0. 0. 0. 0. 0. 0. 0. 0. 0. 0. 0. 0. 0.
      0. 0. 0. 0. 0. 0. 0. 0.312410682 0.0326682106 0.0464492403
      0.0423893258 0.149128288 0.312410682 0.0744745955 0.0127338013
      0.193339422 0.312410682 0.0355183482 0.034767583 0.0368579961
      0.086244911 0.206344008 0.0620722845 0.0261661503 0.280929863
      0.226635352 0.0521944873 0.0498133339 0.0135653261 0.20634836
      0.312410682 0.242037162 0.0228266641 0.0832231194 0.312410682
      0.132046208 0.0961045176 0.0422249101 0.117046967 0.170041978
      0.0666334406 0.0605424792 0.23808749 0.265413463 0.0472746938
      0.047214821 0.0464704968 0.166031122 0.265413463 0.0850039348
      0.0222082268 0.207077682 0.265413463 0.111740157 0.0488387272
      0.0267001074 0.215224534 0.265413463 0.0676625893 0.014831691
      0.108052999 0.265413463 0.140471637 0.0946737602 0.0617441535
      0.138301015 0.173088595 0.0615401566 0.0790553242 0.265413463
      0.265413463 0.118736811 0.0870122164 0.0421776623 0.210169271
      0.265413463 0.188532874 0.0733750388 0.265413463 0.254561961
      0.0638629273 0.0320109278 0.0177575592 0.165052369 0.331925899
      0.0833505169 0.0258748345 0.135244429 0.107917935 0.0209271852
      0.040649116 0.0712971091 0.374213368 0.374213368 0.20421499
      0.0572435707 0.097851865 0.0838232487 0.0574667938 0.0649303868
      0.0347810537 0.147451118 0.250536174 0.105168179 0.0305492245
      0.14524214 0.0513718873 0.0494644977 0.076184839 0.0515140705
      0.312341303 0.374213368 0.13228336 0.0126074385 0.0843901038
      0.0972119495 0.0304315165 0.0410348512 0.0152631523 0.184358463
      0.316499889 0.132414922 0.0112807434 0.0353928655 0.316499889
      0.108249515 0.0822467953 0.0666749775 0.132730812 0.316499889
      0.1155921 0.0897342935 0.19708024 0.0282433555 0.0115375994
      0.0180117339 0.0196950678 0.233056441 0.316499889 0.154447049
      0.0271083415 0.0180440973 0.19036077 0.0738981664 0.0567492321
      0.0953679383 0.192736998 0.316499889 0.267009974 0.1710888
      0.239545867 0.283048511 0.083262153 0.0411807001 0.0427950621
      0.0721700341 0.283048511 0.0977212191 0.0938042179 0.23684226
      0.138762429 0.0544841848 0.0272266623 0.0120501434 0.121142641
      0.283048511 0.194884986 0.057933718 0.159416988 0.271189213
      0.0671268553 0.0691698641 0.0842937753 0.137675732 0.283048511
      0.182402104 0.138598904 0.272266001 0.187386766 0.0710771605
      0.0601549111 0.0510058068 0.173361033 0.283048511 0.283048511
      0.0422522016 0.0899858251 0.0653118864 0.0420478657 0.0419940576
      0.0346519798 0.196134031 0.34112215 0.210903719 0.04851849
      0.112640865 0.0373106524 0.029319318 0.0528010093 0.0695596114
      0.289833337 0.34112215 0.126928136 0.0310565885 0.045279216
      0.108238362 0.105973527 0.0590191856 0.0816377774 0.244557545
      0.34112215 0.34112215 0.0770893171 0.052129969 0.0456285812
      0.0211780388 0.0510491431 0.0504140332 0.233074322 0.34112215
      0.15119569 0.0770202875 0.0491690487 0.0124607095 0.00301763578
      0.0041896319 0.0204359591 0.240389004 0.322007626 0.180806726
      0.0605085157 0.0277129617 0.19032079 0.024710279 0.0262930673
      0.0405561738 0.190969869 0.322007626 0.241467521 0.149312913
      0.318315804 0.0218591802 0.0122559899 0.0307519175 0.0411422774
      0.283667803 0.322007626 0.177846283 0.0618888028 0.0362664349
      0.111844599 0.0207786784 0.0167875309 0.0247085392 0.262350887
      0.322007626 0.109505542 0.041055616 0.11004135 0.277425915
      0.0616613291 0.0814599395 0.0687445402 0.106821321 0.277425915
      0.173574805 0.147328153 0.277425915 0.277425915 0.148264617
      0.0914251879 0.0935336426 0.144279689 0.277425915 0.25050807
      0.0562939905 0.249656662 0.277425915 0.0496369638 0.0339546278
      0.0285105091 0.095649533 0.170582205 0.0629044473 0.0620833747
      0.273361057 0.277425915 0.070208475 0.0473528951 0.0505140126
      0.0445067622 0.0186314434 0.0763204247 0.0648679584 0.211204246
      0.256173611 0.237905294 0.110493489 0.153411955 0.256173611
      0.256173611 0.256173611 0.104304194 0.108255818 0.0732897371
      0.0397577658 0.0905924514 0.1113398 0.256173611 0.256173611
      0.17187956 0.0734356567 0.0784404427 0.197381064 0.14848949
      0.139922276 0.113924183 0.144019425 0.0610857941 0.0704338551
      0.0612254329 0.179962263 0.178625986 0.134327263 0.135765299
      0.173902571 0.256173611 0.226082042 0.0783702135 0.0404386856
      0.194499031</_>
    <_>
      0. 0. 0. 0. 0. 0. 0. 0. 0. 0. 0. 0. 0. 0. 0. 0. 0. 0.
      0.00736689474 0.00736689474 0.00736689474 0. 0. 0. 0. 0. 0. 0. 0.
      0. 0. 0. 0.0110503417 0.00736689474 0.00368344737 0.0110503417 0.
      0. 0. 0. 0. 0. 0. 0. 0. 0. 0. 0. 0.00368344737 0. 0. 0. 0. 0. 0.
      0. 0. 0. 0. 0. 0. 0. 0. 0. 0. 0. 0. 0. 0. 0. 0. 0. 0. 0. 0. 0. 0.
      0. 0. 0. 0. 0. 0. 0. 0. 0. 0. 0. 0. 0. 0. 0. 0. 0. 0. 0. 0. 0.
      0.029467579 0.0442013666 0.0552517101 0.00736689474 0. 0. 0. 0. 0.
      0. 0. 0. 0. 0. 0.00736689474 0.0257841311 0.117870316 0.092086181
      0.00368344737 0. 0. 0. 0. 0. 0. 0. 0. 0. 0. 0. 0.00736689474
      0.058935158 0.158388242 0.0736689493 0.0257841311 0.0257841311
      0.0147337895 0.0147337895 0. 0. 0. 0. 0. 0. 0. 0. 0.00368344737
      0.309409589 0.674070895 0.261524767 0.139971003 0.176805466
      0.136287555 0.106819972 0.0147337895 0. 0. 0. 0. 0. 0. 0.
      0.0147337895 0.290992349 0.353610933 0.058935158 0.0184172373 0.
      0.00368344737 0. 0. 0. 0. 0. 0. 0. 0. 0. 0.00736689474 0.092086181
      0.092086181 0.0110503417 0. 0. 0. 0. 0. 0. 0. 0. 0. 0. 0. 0.
      0.00736689474 0.0184172373 0.0110503417 0. 0. 0. 0. 0. 0. 0. 0. 0.
      0. 0. 0. 0. 0. 0.0221006833 0.0184172373 0. 0. 0. 0. 0. 0. 0. 0.
      0. 0. 0. 0. 0. 0. 0.00368344737 0.0257841311 0.0331510268
      0.0147337895 0.029467579 0. 0. 0. 0. 0. 0. 0. 0. 0. 0. 0. 0. 0. 0.
